
#include <eml_net.h>
static const float model_consumption_layer_0_biases[64] = { -0.042270f, -0.133938f, -0.052694f, -0.145886f, -0.167612f, -0.334026f, -0.254910f, -0.089674f, -0.154307f, -0.159713f, -0.096553f, -0.096842f, -0.451423f, -0.275528f, -0.052052f, -0.102986f, -0.287509f, -0.432176f, -0.048986f, -0.082599f, -0.462488f, -0.124605f, -0.059199f, -0.100284f, -0.120211f, -0.257056f, -0.180590f, -0.115056f, -0.075511f, -0.237026f, -0.046601f, -0.191540f, -0.080478f, -0.176227f, -0.085267f, -0.232652f, -0.047199f, -0.156029f, -0.497377f, -0.093383f, -0.079057f, -0.162030f, -0.041441f, -0.383911f, -0.058408f, -0.224390f, -0.090602f, -0.077168f, -0.432667f, -0.421969f, -0.182952f, -0.150983f, -0.100897f, -0.299167f, -0.097724f, -0.077668f, -0.115223f, -0.096611f, -0.128499f, -0.160636f, -0.086335f, -0.087548f, -0.194904f, -0.046655f };
static const float model_consumption_layer_0_weights[320] = { -0.008409f, -0.000978f, -0.017104f, -0.062372f, -0.024611f, 0.094978f, 0.023238f, 0.003037f, 0.173267f, -0.110999f, 0.004593f, 0.010993f, 0.039626f, -0.047146f, 0.012007f, -0.024578f, -0.041566f, 0.167521f, -0.003009f, -0.010500f, -0.066069f, -0.040206f, -0.013815f, 0.014035f, -0.006244f, -0.039607f, -0.010667f, 0.002099f, -0.012239f, 0.018537f, -0.006492f, 0.001408f, -0.015033f, -0.162231f, -0.024868f, -0.017938f, 0.009685f, 0.000751f, 0.049942f, 0.015179f, 0.014467f, -0.147893f, -0.010005f, -0.041538f, 0.001134f, 0.026839f, 0.007456f, 0.006398f, 0.046570f, -0.274398f, 0.029504f, 0.020515f, 0.004385f, 0.051950f, 0.096727f, -0.007402f, -0.007085f, -0.007942f, 0.026888f, -0.029890f, -0.032112f, 0.024121f, 0.038700f, -0.000287f, 0.007778f, -0.001990f, 0.004963f, -0.006754f, 0.022549f, -0.001122f, 0.045813f, -0.012484f, 0.000994f, 0.133981f, -0.016511f, -0.006516f, -0.045710f, 0.131657f, -0.000049f, -0.002815f, 0.162656f, -0.065154f, 0.005479f, 0.013679f, -0.115201f, 0.004083f, 0.004064f, -0.000935f, -0.000499f, 0.003309f, 0.009405f, 0.018472f, 0.002250f, -0.074351f, -0.004685f, -0.049224f, 0.007318f, 0.089274f, -0.015655f, -0.023282f, 0.011004f, -0.006199f, -0.058485f, -0.009346f, 0.003148f, 0.170041f, 0.004437f, 0.131438f, -0.001303f, 0.063234f, 0.003162f, -0.010768f, -0.222212f, -0.209165f, -0.039172f, 0.025151f, 0.005834f, 0.098343f, 0.110334f, -0.010499f, -0.004395f, -0.034107f, 0.005784f, -0.093876f, -0.000870f, 0.002256f, -0.035629f, -0.005203f, 0.002641f, -0.014808f, -0.002618f, -0.011301f, -0.021373f, -0.006971f, 0.031329f, -0.002906f, 0.123165f, -0.066398f, -0.008617f, 0.003649f, -0.152125f, 0.119388f, -0.010863f, -0.011980f, -0.094480f, -0.145610f, -0.005486f, -0.000627f, -0.209613f, -0.011761f, -0.005213f, 0.009260f, -0.001863f, 0.049837f, -0.008281f, 0.006459f, 0.010182f, 0.123921f, -0.013114f, 0.018505f, -0.005784f, -0.033978f, 0.001153f, -0.016906f, 0.000802f, -0.012179f, -0.164514f, 0.000441f, 0.021939f, 0.088768f, -0.002243f, 0.059327f, 0.002891f, -0.181637f, -0.013792f, -0.000725f, 0.135241f, 0.094748f, 0.023554f, 0.023036f, 0.017065f, 0.052471f, 0.033938f, 0.003118f, -0.007424f, 0.002532f, -0.000303f, 0.083038f, 0.000431f, 0.003926f, -0.013203f, -0.004362f, -0.007556f, -0.020417f, 0.002043f, -0.006017f, -0.041153f, -0.048864f, -0.005443f, 0.029570f, 0.116261f, -0.116044f, 0.015650f, 0.026320f, -0.261547f, 0.087069f, -0.001438f, -0.002738f, 0.075795f, 0.187247f, 0.006650f, 0.010797f, -0.136388f, -0.032543f, -0.005690f, 0.008040f, 0.005272f, -0.027643f, -0.080732f, 0.026273f, 0.008707f, 0.048139f, -0.002989f, -0.009662f, -0.009905f, -0.100104f, -0.000915f, -0.061019f, 0.003248f, 0.060565f, -0.278611f, -0.020866f, 0.004494f, 0.131688f, -0.005727f, -0.043051f, 0.014525f, 0.148796f, -0.006426f, 0.004068f, 0.016526f, 0.041424f, 0.000870f, 0.017420f, -0.038369f, 0.157709f, -0.058729f, -0.011002f, 0.021503f, 0.000718f, 0.043069f, -0.140242f, 0.021990f, -0.004859f, -0.010234f, 0.015577f, -0.001352f, -0.027012f, -0.008284f, -0.004107f, 0.004258f, -0.040620f, -0.054995f, 0.006285f, -0.084423f, -0.141668f, 0.015972f, 0.015400f, -0.049216f, 0.007887f, -0.003292f, -0.024226f, 0.114434f, 0.021851f, 0.005557f, -0.013599f, 0.004090f, -0.000325f, -0.009710f, -0.025177f, -0.001951f, -0.035411f, -0.021811f, 0.022507f, 0.016160f, -0.065698f, 0.004467f, 0.026677f, -0.014404f, -0.235565f, -0.011395f, 0.043818f, 0.001699f, -0.023393f, -0.044949f, -0.010884f, -0.000090f, 0.079091f, -0.003124f, 0.119229f, 0.007965f, -0.053307f, -0.020805f, -0.004294f, 0.095523f, -0.000442f, 0.011592f, -0.011113f, 0.001687f, 0.101962f, -0.098464f, -0.020251f, 0.000293f, -0.014092f, 0.005061f, 0.036079f, -0.005864f, -0.014538f, 0.015225f, 0.001800f };
static const float model_consumption_layer_1_biases[32] = { 0.786180f, 0.757604f, 0.813379f, -0.162284f, 0.810950f, -0.019078f, 1.002732f, -0.142743f, 0.800418f, -0.178679f, 0.883416f, -0.013101f, -0.132284f, 0.710642f, -0.132105f, 0.813489f, 0.848036f, 0.744025f, -0.132005f, -0.136347f, 0.712436f, -0.387570f, -0.132984f, 0.753818f, 0.792259f, 0.761280f, -0.158797f, 0.786540f, 0.716802f, 0.824854f, -0.094084f, 1.014267f };
static const float model_consumption_layer_1_weights[2048] = { -0.137712f, -0.049408f, 0.109842f, 0.014695f, -0.043109f, 0.165028f, -0.159564f, -0.162978f, -0.115553f, -0.116264f, 0.107517f, 0.021494f, -0.289847f, 0.146913f, -0.038158f, 0.197629f, -0.183060f, 0.149253f, 0.014266f, -0.065267f, -0.012541f, 0.045250f, -0.033076f, -0.161357f, -0.086907f, 0.021704f, 0.030135f, -0.031243f, 0.213000f, 0.132203f, 0.054802f, 0.002089f, 0.144057f, 0.132632f, 0.242120f, -0.071756f, -0.145553f, 0.060200f, -0.153507f, -0.153117f, 0.189288f, -0.281501f, -0.073903f, 0.103123f, -0.361162f, -0.104156f, 0.072602f, 0.166757f, 0.122845f, -0.022156f, 0.059890f, -0.137300f, -0.103102f, 0.229732f, -0.166423f, -0.127802f, -0.205179f, 0.051615f, 0.052742f, 0.222206f, 0.044678f, -0.113406f, -0.120599f, -0.100282f, 0.011207f, -0.067081f, 0.082073f, -0.030508f, -0.020596f, -0.133575f, -0.253172f, 0.016287f, 0.120308f, 0.036185f, 0.053622f, 0.152984f, 0.031225f, 0.048963f, -0.184671f, -0.064219f, -0.178249f, 0.087290f, 0.007803f, -0.034518f, 0.102819f, -0.208948f, 0.162165f, -0.222818f, 0.030836f, 0.145629f, -0.077784f, -0.207144f, 0.212036f, 0.093193f, -0.019215f, 0.191958f, -0.055643f, 0.108479f, -0.244527f, -0.217038f, -0.038107f, 0.111937f, 0.114617f, 0.103107f, -0.170403f, 0.068912f, 0.126113f, -0.029903f, 0.113211f, 0.179803f, -0.118960f, 0.007547f, -0.206823f, -0.202346f, 0.387737f, 0.009374f, -0.076882f, -0.208773f, -0.181780f, 0.037359f, 0.004843f, 0.096543f, -0.300088f, 0.197213f, 0.221228f, -0.093171f, 0.034200f, -0.042390f, 0.009429f, -0.076349f, -0.092891f, -0.212023f, -0.010622f, -0.014548f, -0.038040f, -0.014916f, 0.148308f, 0.152361f, -0.108171f, -0.199175f, -0.270871f, -0.083534f, -0.105203f, 0.068225f, -0.050577f, -0.018841f, 0.294606f, -0.054507f, -0.030077f, -0.104613f, -0.121061f, -0.119262f, 0.295386f, 0.218329f, -0.021153f, 0.039774f, -0.072777f, 0.044438f, -0.150424f, 0.027907f, -0.175090f, -0.070402f, -0.044146f, -0.207298f, -0.136639f, 0.081181f, 0.122805f, -0.214898f, 0.015198f, -0.273351f, 0.049643f, -0.129492f, -0.285401f, 0.183838f, -0.023930f, -0.174113f, -0.104604f, 0.129761f, -0.350700f, 0.084775f, -0.097586f, -0.134087f, 0.152692f, -0.022478f, -0.063393f, 0.055635f, -0.069354f, -0.154670f, -0.079444f, -0.170538f, -0.016984f, -0.136441f, 0.043125f, 0.282443f, -0.178917f, 0.113795f, -0.007034f, 0.022345f, -0.274769f, -0.086188f, 0.015732f, -0.165633f, 0.102513f, -0.146448f, -0.114130f, 0.201041f, 0.042503f, -0.147977f, 0.175311f, -0.106450f, -0.605389f, 0.113057f, 0.232719f, 0.027496f, 0.046599f, 0.112015f, 0.058381f, -0.064135f, -0.196425f, 0.106418f, 0.014417f, -0.177421f, 0.154445f, 0.049149f, 0.043721f, -0.017776f, -0.160973f, -0.162271f, -0.109248f, -0.123849f, 0.176273f, -0.150310f, -0.036910f, 0.013601f, 0.241075f, -0.157782f, -0.245749f, -0.209743f, -0.122162f, 0.147649f, -0.210432f, 0.220063f, -0.213699f, -0.233999f, -0.099052f, -0.178631f, -0.149714f, -0.066557f, -0.204234f, -0.028465f, -0.155160f, -0.032626f, -0.268136f, 0.208640f, -0.238649f, 0.165390f, -0.266656f, 0.173456f, 0.066662f, -0.072412f, -0.276647f, -0.278028f, 0.113015f, -0.154605f, -0.017294f, -0.125353f, -0.275605f, -0.549070f, -0.263316f, -0.108925f, -0.157018f, -0.150512f, -0.271475f, -0.127169f, -0.529460f, 0.067085f, 0.119944f, -0.126084f, 0.094446f, 0.020753f, 0.132418f, 0.071211f, -0.068859f, -0.093557f, 0.120318f, -0.042418f, 0.049499f, -0.021651f, 0.081054f, 0.083493f, 0.045772f, 0.186710f, 0.184417f, -0.202167f, -0.083215f, -0.227696f, -0.138655f, -0.227276f, 0.216495f, -0.065187f, 0.092828f, 0.220354f, 0.110451f, -0.101153f, 0.003892f, -0.183145f, 0.638718f, -0.107384f, 0.097239f, 0.001394f, -0.187462f, 0.250121f, -0.132742f, 0.063984f, -0.021645f, 0.024975f, 0.013322f, 0.050185f, -0.162692f, 0.220778f, -0.210183f, -0.100422f, 0.055222f, 0.064074f, 0.207077f, 0.118055f, -0.226068f, -0.263242f, 0.148697f, -0.293018f, -0.060915f, -0.036865f, -0.222466f, 0.086183f, 0.142140f, -0.166165f, -0.105423f, 0.088397f, -0.033672f, -0.187724f, -0.014288f, -0.179249f, -0.030734f, 0.026948f, 0.054072f, -0.133576f, -0.132079f, 0.026340f, 0.078092f, -0.041515f, 0.149649f, 0.059122f, 0.231323f, -0.080527f, -0.014669f, -0.114420f, -0.006553f, -0.270060f, 0.116284f, -0.067397f, 0.293913f, -0.139472f, -0.167661f, 0.115356f, -0.016016f, 0.213863f, 0.003583f, 0.041236f, -0.001854f, -0.183996f, -0.251588f, 0.087983f, 0.198422f, -0.150077f, -0.149389f, -0.118276f, 0.046852f, -0.109482f, 0.084315f, 0.206771f, -0.060384f, -0.192371f, -0.263456f, -0.087002f, -0.229853f, -0.202853f, -0.125511f, -0.100844f, 0.066080f, -0.046766f, -0.370092f, -0.002387f, -0.205384f, -0.060708f, 0.115116f, -0.003362f, 0.036710f, -0.021332f, 0.023828f, 0.143797f, -0.273824f, -0.322408f, -0.037819f, 0.071562f, -0.026228f, -0.015880f, 0.175145f, -0.163166f, -0.169293f, -0.077648f, 0.095457f, -0.012332f, -0.251989f, -0.235151f, -0.146318f, 0.071694f, -0.010323f, 0.244681f, -0.078236f, -0.360171f, 0.081462f, -0.436628f, 0.345316f, -0.041323f, 0.061067f, -0.151050f, 0.065458f, -0.020180f, -0.244309f, 0.056584f, -0.218997f, -0.062780f, -0.075711f, 0.227975f, -0.362756f, -0.093360f, 0.082975f, -0.374584f, -0.324736f, -0.049952f, -0.056554f, 0.070202f, 0.175542f, -0.025128f, 0.223038f, 0.002530f, 0.120692f, -0.020276f, -0.076938f, -0.053231f, -0.092638f, 0.031842f, 0.076349f, 0.119955f, -0.111933f, 0.111138f, -0.101079f, -0.288608f, -0.094841f, -0.014875f, 0.113896f, 0.178131f, -0.317752f, -0.101815f, -0.020871f, -0.061116f, -0.069274f, 0.086398f, 0.014958f, -0.022106f, -0.096027f, 0.165611f, 0.080208f, 0.163998f, 0.092814f, 0.184036f, 0.182647f, -0.267590f, -0.097218f, 0.021646f, 0.212852f, -0.190897f, 0.100968f, -0.108653f, -0.119691f, -0.243284f, 0.147088f, 0.037033f, -0.030902f, -0.202562f, 0.031086f, -0.218136f, -0.072136f, 0.206210f, -0.144972f, -0.157543f, -0.036514f, 0.002915f, 0.454370f, -0.267929f, -0.159518f, 0.184301f, -0.126751f, 0.225871f, -0.025944f, -0.109995f, -0.118675f, -0.007772f, 0.184897f, -0.082062f, -0.274176f, -0.019311f, 0.141810f, 0.109708f, -0.066722f, 0.033370f, 0.014745f, -0.440786f, -0.100250f, -0.005006f, 0.136637f, -0.034351f, 0.074190f, -0.268590f, 0.057701f, 0.205009f, 0.119959f, 0.014159f, 0.060627f, 0.189050f, -0.643485f, -0.114421f, -0.010554f, -0.154373f, -0.089265f, -0.104166f, -0.051441f, 0.337569f, 0.069370f, 0.370088f, 0.115645f, -0.018326f, -0.261748f, 0.248012f, -0.023959f, -0.130619f, -0.197266f, -0.216773f, -0.173837f, -0.114809f, -0.259197f, -0.002959f, -0.129912f, -0.126910f, 0.052044f, -0.161413f, -0.018933f, -0.114845f, -0.234844f, -0.215974f, -0.058148f, 0.041384f, -0.235752f, 0.119669f, 0.035277f, -0.187619f, 0.026592f, 0.210886f, 0.249105f, 0.017443f, 0.028498f, -0.209352f, 0.201289f, -0.173636f, -0.259432f, 0.041364f, 0.165053f, -0.177078f, 0.168528f, -0.041795f, 0.080305f, 0.180020f, -0.086278f, -0.233149f, -0.126355f, -0.185876f, 0.123253f, -0.083292f, -0.329018f, -0.014139f, -0.137835f, 0.145767f, -0.066481f, 0.012737f, -0.199527f, 0.104934f, 0.120544f, -0.020218f, -0.211211f, 0.168086f, 0.173246f, -0.191531f, -0.025020f, -0.067509f, -0.222378f, 0.154418f, -0.011438f, -0.215394f, -0.145182f, -0.301098f, 0.022717f, -0.203742f, -0.066949f, -0.210440f, 0.168694f, -0.145052f, 0.076775f, -0.046335f, 0.149114f, 0.155619f, -0.134254f, 0.089810f, 0.104212f, -0.230312f, 0.157450f, 0.161262f, 0.251303f, 0.084633f, 0.143934f, 0.016601f, -0.252919f, 0.121897f, -0.092382f, -0.283404f, -0.302546f, 0.056143f, 0.028398f, -0.058170f, -0.254103f, 0.072864f, -0.222416f, 0.033532f, 0.120775f, 0.297410f, -0.019726f, 0.083254f, -0.279920f, -0.254524f, 0.112089f, 0.048951f, -0.144161f, -0.180968f, -0.053028f, -0.132364f, -0.035438f, 0.004691f, -0.243133f, -0.080006f, -0.397225f, 0.000476f, -0.284619f, 0.023669f, 0.046674f, -0.161006f, 0.114175f, -0.260989f, 0.114588f, -0.149022f, -0.193503f, -0.291445f, 0.018498f, -0.054279f, 0.213803f, 0.060913f, -0.024750f, -0.226718f, 0.225781f, 0.004418f, -0.289084f, -0.201044f, -0.142734f, -0.082910f, -0.141747f, 0.126107f, 0.137219f, 0.127877f, -0.214102f, -0.045794f, 0.134798f, 0.081679f, 0.192227f, -0.210017f, 0.126858f, 0.119668f, -0.254385f, 0.178409f, 0.229616f, 0.044093f, -0.100260f, 0.036833f, 0.124708f, -0.147337f, -0.138009f, -0.377052f, -0.113857f, 0.018394f, -0.045902f, -0.036410f, 0.248389f, -0.057783f, -0.053546f, 0.050968f, 0.201460f, -0.136090f, -0.172532f, -0.369550f, 0.138384f, 0.048872f, -0.160110f, -0.205362f, -0.204051f, -0.144643f, 0.200227f, -0.171112f, 0.113475f, 0.045434f, -0.175294f, 0.143111f, 0.147719f, 0.135595f, 0.067210f, -0.212620f, 0.244242f, -0.166673f, -0.278085f, 0.068577f, 0.233877f, 0.109366f, 0.100039f, 0.087519f, -0.237251f, 0.010313f, 0.131179f, -0.080827f, -0.203172f, -0.283070f, 0.000520f, -0.150868f, 0.098732f, -0.243407f, -0.117135f, -0.115726f, -0.058159f, -0.090105f, -0.204621f, -0.198474f, 0.104430f, -0.323749f, 0.119298f, 0.176799f, -0.232276f, 0.225531f, 0.115848f, -0.171053f, 0.190725f, 0.185638f, -0.246188f, 0.010683f, 0.099997f, 0.117867f, 0.186437f, -0.237504f, -0.149187f, -0.358050f, 0.181911f, -0.009213f, 0.163439f, -0.103492f, -0.214024f, -0.059134f, 0.138374f, -0.005569f, 0.135358f, 0.161292f, 0.168403f, -0.180185f, -0.373937f, -0.293347f, -0.192793f, 0.165402f, -0.069314f, -0.018636f, -0.063858f, -0.173828f, -0.042158f, 0.037386f, 0.209527f, -0.087125f, -0.172630f, -0.135335f, -0.054960f, 0.003621f, -0.218997f, 0.135712f, 0.152945f, -0.131043f, -0.229111f, -0.225506f, 0.104945f, 0.021773f, 0.192529f, -0.264734f, -0.055125f, 0.233156f, -0.237136f, 0.178975f, -0.044966f, 0.102366f, 0.395968f, -0.201554f, -0.041699f, -0.137548f, 0.109879f, 0.151526f, 0.015033f, 0.234127f, -0.097761f, 0.049820f, -0.028885f, -0.180729f, 0.034938f, -0.206426f, -0.044480f, -0.182557f, -0.189063f, 0.210700f, 0.221432f, 0.125297f, 0.108490f, -0.073214f, -0.078896f, -0.399444f, -0.132328f, -0.099395f, -0.033476f, -0.111813f, 0.106746f, 0.103906f, -0.180143f, -0.127646f, 0.194773f, 0.033230f, 0.206247f, 0.312318f, 0.093157f, 0.280101f, 0.173228f, -0.152135f, 0.214175f, -0.105510f, -0.000559f, 0.229046f, -0.204025f, -0.095604f, -0.164816f, -0.191239f, -0.172176f, -0.294330f, -0.129143f, -0.269081f, 0.059555f, 0.062143f, 0.256430f, -0.066424f, 0.166359f, -0.069400f, 0.023999f, 0.175357f, 0.025568f, -0.103346f, 0.067117f, 0.228726f, -0.056890f, -0.130904f, 0.214981f, -0.343732f, -0.134270f, 0.223972f, 0.033558f, 0.247872f, -0.204634f, -0.114801f, -0.186741f, -0.186498f, -0.277684f, -0.049646f, 0.019469f, 0.244873f, -0.226667f, 0.136269f, -0.135882f, -0.257436f, -0.098234f, -0.181444f, 0.094764f, -0.371392f, -0.208564f, -0.270514f, 0.034911f, 0.074475f, 0.109315f, 0.228649f, 0.165689f, -0.226106f, 0.102697f, -0.105369f, 0.178101f, 0.067197f, -0.200173f, -0.048934f, 0.197654f, 0.223880f, -0.185599f, -0.200785f, -0.228050f, 0.044079f, 0.013700f, 0.103681f, -0.280105f, 0.025223f, -0.205097f, -0.168053f, 0.028063f, 0.012820f, -0.118475f, 0.006873f, 0.152633f, 0.021747f, -0.159239f, 0.012223f, -0.224494f, 0.092163f, -0.176450f, 0.056595f, -0.145891f, 0.154584f, -0.419215f, 0.053291f, -0.298620f, 0.280435f, 0.039834f, 0.033623f, 0.127258f, -0.229732f, 0.170868f, 0.052881f, 0.003169f, 0.147951f, 0.075280f, -0.265029f, -0.221881f, 0.130141f, -0.025252f, -0.031004f, -0.161640f, 0.015241f, -0.153047f, -0.161872f, -0.105867f, -0.057416f, -0.188109f, 0.151305f, -0.210156f, 0.006207f, -0.206246f, 0.165520f, 0.150219f, -0.049212f, 0.105392f, -0.039908f, -0.275166f, -0.041615f, 0.078239f, 0.148870f, -0.124193f, -0.142150f, 0.076124f, 0.177387f, 0.124432f, 0.087540f, 0.096482f, 0.155540f, -0.221075f, 0.085140f, -0.034437f, -0.140967f, -0.029768f, -0.294267f, -0.024058f, -0.142121f, 0.025604f, -0.061385f, 0.117212f, 0.026809f, 0.005662f, 0.091615f, -0.065999f, -0.162056f, 0.186132f, -0.054007f, -0.456388f, -0.211222f, -0.011878f, 0.032239f, 0.105346f, -0.120792f, 0.133193f, -0.033481f, 0.337236f, -0.182623f, 0.132871f, 0.162842f, -0.286313f, 0.161823f, 0.134748f, 0.215315f, 0.159587f, -0.225962f, -0.063712f, -0.252797f, 0.173797f, -0.120469f, -0.107886f, -0.076183f, -0.205788f, -0.018140f, 0.231134f, -0.041820f, -0.187742f, -0.254787f, -0.025639f, 0.156888f, 0.047715f, -0.044605f, 0.076005f, -0.062320f, -0.187083f, 0.181488f, -0.033453f, -0.061511f, -0.085100f, -0.252906f, -0.085102f, 0.005113f, 0.063268f, 0.023338f, 0.070662f, -0.178543f, -0.232068f, -0.094278f, -0.183272f, 0.371546f, 0.188049f, 0.112158f, -0.157155f, 0.166500f, 0.187267f, -0.317735f, -0.139789f, 0.074685f, 0.044386f, 0.135038f, 0.091092f, 0.189428f, 0.615916f, -0.087839f, -0.037591f, -0.319260f, -0.255310f, 0.123248f, 0.065730f, 0.217732f, -0.033584f, 0.033661f, -0.064605f, 0.139602f, -0.067889f, -0.006970f, -0.188476f, 0.012304f, 0.033327f, -0.121458f, -0.169371f, 0.223941f, -0.249533f, -0.198823f, -0.117315f, 0.033282f, -0.137533f, 0.055052f, -0.162625f, -0.028275f, 0.074259f, -0.148371f, 0.185692f, 0.205813f, 0.038367f, 0.036433f, -0.012557f, -0.144901f, -0.305483f, 0.068897f, -0.053867f, 0.225852f, 0.020366f, -0.062054f, 0.219927f, 0.231442f, -0.286912f, -0.055175f, -0.035569f, -0.050442f, 0.050511f, 0.080463f, -0.124916f, -0.479971f, 0.068986f, -0.179347f, 0.197212f, 0.143439f, -0.067569f, -0.083911f, -0.149760f, -0.102628f, -0.106229f, 0.132478f, 0.108180f, 0.033844f, -0.145896f, -0.227608f, 0.171437f, -0.457543f, -0.041867f, 0.227805f, -0.151962f, 0.054892f, -0.192215f, -0.239368f, -0.183440f, 0.024417f, -0.027882f, -0.225404f, 0.049895f, -0.019311f, 0.192030f, 0.026528f, 0.114534f, -0.101873f, -0.188943f, -0.191986f, 0.016916f, -0.193168f, 0.208605f, 0.101624f, -0.243251f, 0.093615f, -0.146333f, -0.199437f, -0.004587f, -0.031520f, -0.017485f, -0.067743f, 0.247898f, -0.374104f, -0.162899f, -0.010031f, -0.109104f, 0.037635f, -0.122671f, 0.016459f, -0.024719f, 0.003165f, -0.164770f, -0.036551f, -0.029784f, 0.041838f, -0.053902f, -0.072263f, 0.161623f, -0.000934f, -0.125742f, -0.035572f, -0.206785f, -0.066659f, -0.226080f, 0.033840f, -0.261680f, 0.055350f, -0.117572f, 0.158150f, -0.111109f, 0.184957f, -0.041821f, 0.034155f, 0.161635f, -0.333867f, 0.134606f, -0.170317f, 0.127133f, 0.021382f, -0.092368f, 0.159723f, 0.124234f, 0.126238f, 0.013866f, -0.203068f, -0.262664f, -0.179303f, -0.019171f, 0.045361f, -0.140957f, -0.156687f, 0.105638f, 0.084196f, 0.054747f, -0.058245f, -0.243973f, -0.267577f, -0.173753f, -0.166940f, -0.008742f, 0.116933f, -0.041586f, -0.100198f, -0.283544f, -0.219028f, -0.237492f, 0.241726f, -0.250672f, -0.270307f, -0.126641f, -0.118097f, -0.112220f, -0.221257f, -0.064999f, -0.105554f, 0.085598f, -0.065997f, 0.080332f, -0.091293f, -0.171075f, 0.151014f, 0.264400f, -0.048096f, -0.222647f, -0.246370f, -0.157414f, -0.289218f, 0.005712f, -0.275713f, -0.071175f, 0.044419f, -0.079747f, 0.265144f, 0.043507f, -0.214230f, -0.010263f, -0.287920f, -0.192751f, 0.147823f, -0.159611f, 0.131663f, 0.208997f, -0.062662f, 0.095695f, 0.118805f, 0.042816f, 0.025028f, -0.163290f, -0.137287f, 0.203013f, 0.068485f, -0.181076f, -0.056814f, -0.134442f, -0.239347f, 0.254423f, 0.215244f, 0.010589f, 0.002586f, 0.060725f, -0.173163f, -0.031606f, -0.036492f, 0.054236f, 0.270036f, 0.099617f, 0.253620f, -0.303086f, -0.254350f, -0.195660f, -0.158353f, 0.075989f, -0.166504f, -0.054658f, 0.080773f, -0.324713f, 0.049376f, -0.153119f, -0.095634f, 0.039166f, -0.200113f, -0.148647f, 0.125069f, 0.196556f, -0.150165f, 0.198433f, -0.396484f, -0.092019f, -0.063612f, -0.165366f, -0.043323f, 0.246894f, 0.467381f, -0.154365f, -0.104777f, -0.035133f, -0.049314f, -0.025677f, -0.152892f, -0.381710f, -0.208292f, -0.119247f, -0.220968f, -0.123493f, 0.132655f, 0.058077f, -0.017576f, 0.014437f, -0.096522f, 0.141035f, 0.100541f, -0.247594f, -0.105548f, 0.074673f, 0.153297f, -0.161347f, -0.197626f, 0.163245f, 0.167137f, -0.010113f, -0.032540f, -0.146220f, -0.254043f, -0.171426f, -0.255797f, -0.033457f, 0.119422f, -0.207181f, 0.130144f, -0.205298f, 0.024987f, 0.119164f, 0.125324f, -0.045593f, -0.127886f, 0.099743f, -0.190120f, 0.240682f, -0.121922f, -0.177815f, -0.154054f, 0.207613f, 0.142968f, -0.009868f, -0.099966f, -0.111578f, -0.272610f, -0.184214f, -0.208936f, -0.132245f, 0.147308f, 0.033927f, -0.065302f, -0.331279f, -0.016930f, 0.021395f, 0.269329f, 0.027568f, -0.360899f, -0.092538f, -0.122215f, 0.121747f, -0.000030f, -0.367767f, 0.036677f, -0.052343f, -0.063930f, -0.147515f, -0.123665f, -0.213914f, -0.107294f, -0.196084f, -0.305781f, 0.034642f, -0.132380f, 0.021300f, -0.205807f, 0.046670f, 0.192353f, -0.182512f, -0.205907f, 0.195038f, -0.139212f, 0.010132f, -0.187771f, -0.189426f, -0.402966f, -0.231456f, -0.132040f, 0.022214f, 0.061842f, -0.322003f, 0.186453f, -0.257041f, 0.049145f, 0.255384f, -0.237468f, 0.005487f, 0.186232f, -0.253436f, 0.096524f, -0.048135f, -0.120986f, -0.213441f, -0.052918f, -0.062049f, 0.169403f, -0.008897f, -0.047761f, -0.062384f, 0.015691f, 0.069299f, 0.096100f, 0.161136f, -0.099528f, -0.319359f, -0.270062f, -0.028269f, -0.353413f, -0.014703f, -0.456851f, -0.284933f, -0.001592f, 0.032406f, -0.248871f, 0.111098f, -0.235459f, 0.249869f, -0.016924f, -0.075381f, -0.024743f, -0.119470f, -0.099137f, -0.075599f, 0.053255f, -0.225789f, 0.195883f, 0.104409f, -0.134478f, 0.044061f, -0.159542f, 0.070228f, 0.218550f, -0.011887f, -0.172106f, -0.244447f, 0.071660f, 0.023687f, -0.328173f, 0.057862f, -0.208223f, -0.059465f, -0.238737f, -0.231355f, 0.189358f, -0.028121f, 0.055106f, 0.118913f, 0.152269f, 0.131618f, -0.088934f, -0.067262f, 0.052993f, 0.024748f, -0.204540f, 0.082157f, -0.000913f, -0.131285f, 0.136150f, -0.255319f, -0.125758f, -0.002145f, 0.058539f, -0.089472f, 0.110315f, -0.070864f, -0.211108f, -0.116781f, -0.211614f, -0.202733f, 0.049740f, 0.239220f, -0.106756f, -0.033767f, -0.236801f, -0.210864f, -0.060909f, -0.035621f, 0.164497f, 0.128532f, 0.195529f, 0.172678f, 0.051820f, -0.023977f, 0.006246f, -0.161038f, -0.218593f, -0.066534f, -0.125037f, 0.092843f, -0.097371f, 0.204835f, -0.170103f, 0.099618f, 0.249490f, 0.284710f, 0.069173f, 0.172739f, 0.150157f, 0.082555f, -0.534185f, -0.137852f, -0.157035f, 0.178406f, -0.097666f, 0.256403f, -0.012061f, -0.113560f, 0.058472f, 0.124783f, -0.107719f, 0.123167f, -0.008859f, -0.147010f, -0.002625f, -0.115281f, -0.171256f, 0.109818f, -0.072727f, 0.121182f, 0.178686f, -0.025755f, 0.304024f, 0.011484f, 0.229447f, -0.267010f, -0.039542f, 0.190228f, -0.239985f, -0.069996f, -0.103904f, -0.271137f, 0.203908f, -0.074585f, -0.067975f, -0.192724f, 0.042980f, -0.081030f, 0.218624f, -0.060167f, 0.140659f, 0.122959f, -0.119127f, 0.067561f, -0.109046f, -0.072257f, 0.033771f, 0.112646f, -0.430640f, -0.251100f, -0.204238f, -0.207833f, -0.075043f, -0.024784f, -0.148068f, 0.113453f, -0.029217f, -0.206470f, -0.239740f, 0.221401f, 0.068604f, -0.240586f, 0.007190f, 0.240245f, -0.047799f, -0.005119f, -0.080805f, -0.062749f, 0.029569f, -0.011270f, -0.039367f, 0.008666f, 0.103307f, -0.181911f, -0.051395f, 0.083217f, 0.146725f, -0.147191f, 0.091774f, 0.065401f, 0.267068f, -0.019601f, 0.179226f, -0.202314f, -0.222681f, 0.137715f, -0.065494f, 0.041393f, 0.220781f, 0.135668f, -0.238829f, 0.208586f, 0.160802f, 0.095426f, -0.085563f, 0.149250f, -0.285962f, -0.090497f, -0.121694f, 0.160729f, -0.239235f, -0.076362f, -0.193221f, -0.065555f, -0.172034f, -0.050926f, 0.067495f, 0.096761f, 0.158314f, 0.243310f, 0.035496f, -0.012292f, 0.184523f, 0.130702f, 0.066083f, -0.098345f, 0.165646f, -0.235071f, -0.160418f, -0.037928f, -0.145886f, -0.268199f, -0.139220f, -0.154468f, -0.215987f, -0.171147f, -0.007856f, 0.032211f, -0.275435f, 0.055892f, -0.216123f, 0.188573f, 0.054964f, -0.211803f, -0.290362f, 0.027250f, 0.131085f, -0.138736f, -0.037366f, -0.101824f, -0.128060f, -0.217427f, -0.035150f, -0.080789f, 0.081207f, -0.199998f, 0.165322f, 0.205776f, 0.089823f, 0.027246f, 0.123866f, 0.181143f, -0.193689f, -0.000699f, -0.010488f, -0.047036f, 0.018725f, 0.264848f, 0.230944f, 0.141002f, -0.288187f, -0.009719f, -0.035428f, -0.048317f, 0.208554f, 0.075364f, -0.296788f, -0.194732f, 0.280104f, 0.079535f, 0.156799f, 0.150452f, 0.222780f, -0.133326f, 0.110574f, 0.180192f, -0.144468f, -0.118555f, 0.011078f, -0.013378f, 0.112596f, -0.255644f, -0.144403f, 0.289292f, 0.248229f, 0.038874f, 0.062439f, 0.166931f, 0.176244f, 0.180762f, -0.333403f, -0.070352f, -0.093023f, -0.114867f, -0.096471f, -0.069519f, -0.045606f, 0.191122f, -0.058662f, -0.017907f, -0.014183f, -0.182317f, -0.205525f, -0.077181f, 0.160920f, -0.572801f, -0.054756f, 0.137557f, -0.202102f, 0.024950f, 0.182925f, 0.116609f, -0.243898f, -0.144741f, -0.088275f, 0.165463f, 0.004811f, -0.018338f, -0.046537f, 0.020900f, -0.068399f, -0.006032f, -0.116119f, -0.271107f, 0.188742f, -0.054033f, -0.249184f, -0.059886f, 0.178102f, 0.026659f, 0.150455f, -0.101295f, 0.066823f, 0.007350f, -0.006920f, -0.131766f, 0.201511f, 0.023621f, -0.286170f, -0.035835f, 0.383360f, 0.091867f, 0.206963f, 0.118020f, 0.170248f, 0.115716f, 0.200775f, -0.090942f, -0.036540f, -0.212587f, -0.237531f, -0.059933f, 0.095016f, -0.193943f, -0.110003f, 0.263155f, -0.217316f, -0.290463f, -0.056486f, 0.256290f, -0.134134f, -0.131330f, 0.158723f, 0.039132f, -0.055266f, -0.133486f, -0.059815f, -0.183903f, -0.158357f, -0.116510f, -0.093521f, -0.061547f, -0.309932f, -0.166855f, -0.122626f, 0.103823f, 0.098838f, -0.009551f, 0.098217f, 0.051147f, 0.039519f, -0.025874f, -0.057665f, -0.220226f, 0.126055f, -0.146248f, -0.335310f, 0.216234f, -0.228125f, 0.233465f, -0.031605f, -0.148549f, -0.163780f, 0.121336f, 0.064083f, -0.086970f, 0.199330f, -0.196282f, -0.143362f, 0.119499f, 0.240105f, 0.084330f, -0.235084f, 0.167426f, 0.281580f, -0.259475f, 0.024184f, -0.207657f, -0.221569f, 0.099647f, 0.055477f, -0.180249f, -0.068941f, -0.184611f, -0.079541f, 0.010069f, -0.030765f, 0.156505f, -0.096756f, 0.001096f, -0.240914f, 0.042734f, -0.041440f, 0.102266f, -0.103524f, -0.095470f, -0.230977f, -0.102114f, -0.151454f, -0.238665f, -0.040960f, -0.159356f, 0.053553f, -0.096008f, -0.004949f, 0.034050f, -0.167660f, -0.130608f, -0.274610f, 0.087485f, 0.159951f, -0.202350f, 0.166486f, -0.001359f, 0.046844f, -0.068009f, -0.108186f, -0.051654f, 0.063624f, 0.210863f, -0.208515f, -0.252502f, -0.235359f, -0.022649f, -0.144579f, -0.115933f, 0.032895f, 0.046475f, -0.202090f, -0.128987f, -0.242353f, -0.109181f, 0.095442f, -0.069897f, -0.242000f, -0.613600f, 0.112813f, -0.167183f, 0.262707f, -0.168001f, 0.110754f, 0.011056f, 0.024725f, -0.145153f, 0.016989f, 0.106379f, 0.217977f, -0.239546f, 0.086280f, 0.114986f, 0.099562f, 0.150774f, -0.268564f, -0.041295f, 0.056051f, 0.128036f, -0.228485f, 0.035203f, 0.184795f, -0.230207f, -0.217981f, -0.085481f, -0.205605f, -0.144500f, -0.035165f, 0.085821f, 0.010328f, 0.188906f, -0.213886f, 0.169314f, -0.066899f, 0.100090f, -0.014797f, 0.049221f, -0.164460f, -0.157631f, 0.205628f, 0.069189f, -0.151886f, 0.102635f, -0.178331f, 0.122993f, 0.126738f, 0.202259f, -0.008732f, -0.074513f, -0.106632f, -0.231744f, 0.113453f, -0.079332f, -0.183441f, -0.085945f, -0.314853f, 0.082317f, 0.124775f, -0.082232f, -0.073994f, -0.107956f, -0.043567f, -0.356051f, -0.241325f, -0.106641f, -0.116501f, 0.003339f, -0.019491f, 0.109277f, 0.012470f, -0.254628f, 0.175710f, -0.152521f, -0.089560f, -0.023246f, 0.126098f, -0.104580f, -0.188472f, 0.024372f, -0.266312f, 0.126771f, -0.029458f, 0.194649f, 0.121716f, 0.078263f, -0.041976f, -0.094328f, -0.206547f, -0.076700f, -0.149422f, -0.209968f, -0.130836f, -0.227569f, 0.190546f, -0.102817f, -0.272650f, 0.096800f, -0.285439f, -0.089806f, 0.218559f, -0.225723f, -0.021857f, -0.043327f, 0.157976f, 0.187402f, -0.082099f, -0.084999f, -0.178852f, -0.146885f, -0.174538f, -0.023679f, -0.276457f, -0.119516f, -0.179840f, -0.164522f, 0.033019f, -0.037857f, 0.210566f, -0.063183f, -0.187634f, -0.097197f, 0.059120f, 0.073704f, -0.117219f, 0.287814f, 0.240516f, 0.199019f, 0.181946f, -0.076434f, -0.005397f, -0.318041f, 0.093719f, 0.172779f, 0.005029f, -0.157181f, 0.017360f, -0.110549f, -0.023817f, -0.160880f, 0.066668f };
static const float model_consumption_layer_2_biases[1] = { 0.754109f };
static const float model_consumption_layer_2_weights[32] = { 0.196232f, 0.417950f, 0.286969f, -0.123984f, 0.400197f, -0.362389f, 0.488523f, -0.318394f, 0.399017f, -0.019577f, 0.333870f, -0.617574f, -0.307237f, 0.240994f, -0.077137f, 0.232852f, 0.259215f, 0.381333f, -0.614305f, -0.255397f, 0.125090f, -0.226674f, -0.334697f, 0.461604f, 0.517355f, 0.287227f, -0.323551f, 0.462966f, 0.370364f, 0.525482f, -0.294980f, 0.467478f };
static float model_consumption_buf1[64];
static float model_consumption_buf2[64];
static const EmlNetLayer model_consumption_layers[3] = { 
{ 64, 5, model_consumption_layer_0_weights, model_consumption_layer_0_biases, EmlNetActivationRelu }, 
{ 32, 64, model_consumption_layer_1_weights, model_consumption_layer_1_biases, EmlNetActivationRelu }, 
{ 1, 32, model_consumption_layer_2_weights, model_consumption_layer_2_biases, EmlNetActivationIdentity } };
static EmlNet model_consumption = { 3, model_consumption_layers, model_consumption_buf1, model_consumption_buf2, 64 };

    int32_t
    model_consumption_predict(const float *features, int32_t n_features)
    {
        return eml_net_predict(&model_consumption, features, n_features);
    }
    

    int32_t
    model_consumption_regress(const float *features, int32_t n_features, float *out, int32_t out_length)
    {
        return eml_net_regress(&model_consumption, features, n_features, out, out_length);
    }
    

    float
    model_consumption_regress1(const float *features, int32_t n_features)
    {
        return eml_net_regress1(&model_consumption, features, n_features);
    }
    