
#include <eml_net.h>
static const float model_production_layer_0_biases[64] = { 0.384584f, 0.452823f, 0.412005f, 0.470305f, 0.483956f, 0.336425f, 0.535954f, 0.288700f, 0.469714f, 0.418606f, 0.392890f, 0.381326f, 0.398752f, 0.441032f, 0.477987f, 0.406029f, 0.377323f, 0.426445f, 0.389696f, 0.470307f, 0.494201f, 0.474050f, 0.325550f, 0.430794f, 0.505622f, 0.328101f, 0.369795f, 0.447592f, 0.499197f, 0.394487f, 0.372703f, 0.372196f, 0.367459f, 0.361843f, 0.379325f, 0.446985f, -0.610263f, 0.436377f, 0.541168f, 0.305433f, 0.459067f, 0.450919f, 0.426353f, 0.410582f, 0.496171f, 0.434078f, 0.334658f, 0.282548f, 0.481217f, 0.370604f, 0.434976f, 0.399352f, -0.602415f, 0.210477f, 0.489053f, 0.526494f, 0.255981f, 0.371100f, 0.424248f, 0.489505f, 0.480933f, 0.269734f, 0.264931f, 0.380051f };
static const float model_production_layer_0_weights[320] = { -0.000547f, 0.001052f, 0.046055f, -0.006913f, -0.105125f, -0.129633f, 0.076481f, 0.230945f, 0.005319f, -0.133526f, 0.013508f, -0.134820f, -0.185331f, 0.036726f, 0.111170f, -0.178108f, 0.010990f, 0.049402f, -0.051760f, 0.002764f, -0.039230f, 0.053312f, -0.122228f, 0.033878f, 0.073376f, 0.040718f, -0.049100f, 0.063468f, 0.068428f, -0.014033f, 0.010352f, 0.058119f, -0.182991f, -0.181190f, -0.017889f, 0.004409f, -0.010492f, -0.015268f, -0.025255f, 0.029235f, 0.092371f, 0.003035f, 0.026013f, 0.062213f, -0.049064f, -0.019163f, -0.170134f, 0.181254f, 0.003543f, 0.017689f, -0.011326f, 0.043194f, -0.075765f, -0.072248f, -0.066685f, 0.022202f, -0.124578f, 0.041523f, -0.063100f, 0.022179f, 0.014990f, 0.221560f, -0.174877f, 0.241164f, 0.067093f, 0.013511f, 0.011402f, 0.041904f, -0.170361f, -0.127185f, -0.002306f, 0.048087f, -0.067059f, -0.048466f, -0.010659f, 0.082373f, -0.090391f, -0.001337f, 0.073388f, 0.096736f, 0.024620f, 0.172005f, 0.019675f, 0.059407f, -0.061864f, 0.015522f, -0.006480f, 0.013760f, -0.061612f, -0.056058f, 0.057362f, 0.002822f, 0.047776f, 0.022478f, 0.031134f, -0.007066f, -0.078974f, -0.119948f, 0.035088f, 0.022355f, -0.201245f, -0.008940f, -0.051354f, -0.025469f, 0.011350f, 0.034632f, -0.011338f, -0.038301f, 0.024551f, -0.008454f, -0.114991f, 0.127516f, 0.062411f, -0.009757f, -0.004833f, -0.036445f, -0.161763f, -0.095628f, -0.002799f, 0.071198f, 0.060749f, 0.007634f, 0.020480f, -0.035103f, 0.064495f, -0.021084f, -0.112570f, 0.065624f, -0.039419f, 0.052534f, -0.070296f, -0.048593f, 0.100492f, 0.059827f, -0.028248f, -0.212559f, -0.070622f, 0.049349f, -0.061049f, -0.111865f, 0.110628f, -0.051100f, -0.022303f, -0.102275f, -0.087207f, 0.166728f, -0.007324f, 0.042388f, 0.005275f, 0.030176f, -0.099231f, 0.023859f, -0.004644f, -0.143665f, 0.032683f, -0.046840f, 0.018177f, -0.016708f, 0.014862f, -0.000936f, 0.191919f, 0.138033f, -0.071452f, -0.024584f, 0.149167f, 0.055982f, 0.019173f, 0.011181f, 0.014093f, -0.000418f, -0.041220f, -0.037404f, 0.003727f, 0.021350f, 0.108642f, 0.238095f, 0.004867f, -0.081361f, -0.026399f, 0.009023f, 0.155606f, -0.130773f, 0.023153f, 0.005231f, -0.114433f, 0.009363f, -0.061082f, -0.019532f, 0.012282f, -0.153925f, -0.153114f, 0.244803f, 0.009501f, 0.116748f, -0.006128f, 0.035544f, -0.015776f, -0.183635f, -0.039229f, -0.114548f, -0.041076f, -0.179952f, 0.012272f, 0.141497f, -0.068407f, -0.044872f, 0.066405f, 0.008928f, -0.062113f, 0.057104f, 0.015345f, -0.049871f, 0.072852f, 0.011818f, 0.204735f, -0.066273f, -0.054629f, -0.012157f, 0.025519f, -0.012052f, -0.000625f, -0.090640f, -0.061374f, -0.039199f, -0.073455f, -0.095922f, -0.083447f, -0.015318f, 0.179284f, -0.057762f, 0.037750f, 0.025105f, -0.011608f, -0.007651f, -0.030899f, -0.014584f, -0.025154f, -0.046065f, -0.169210f, 0.015131f, -0.002365f, 0.014169f, -0.021556f, -0.026469f, 0.127305f, 0.130723f, 0.001194f, 0.002812f, 0.175202f, -0.001076f, -0.001078f, -0.049402f, -0.062654f, -0.126291f, 0.278142f, 0.009796f, 0.041481f, 0.032878f, -0.014667f, 0.015043f, 0.164736f, 0.287525f, -0.056348f, 0.281977f, -0.095453f, 0.044068f, -0.044850f, 0.245191f, 0.157237f, 0.052017f, -0.055814f, -0.285140f, 0.009841f, 0.062461f, -0.044357f, 0.059106f, -0.021468f, -0.076606f, 0.087146f, -0.078979f, 0.025018f, -0.233791f, -0.012268f, 0.025958f, 0.042500f, -0.069189f, 0.068497f, -0.050374f, 0.146584f, 0.010070f, -0.005077f, -0.067075f, -0.143071f, -0.013988f, -0.024714f, -0.006924f, -0.071318f, 0.003757f, -0.072181f, 0.095259f, 0.028965f, 0.043368f, 0.203746f, -0.070766f, -0.019036f, -0.101190f, 0.026541f, -0.035717f, -0.125808f, -0.450776f, 0.019415f, 0.015021f, 0.227348f, 0.099680f, -0.024866f, -0.038916f, -0.020538f, 0.135184f, -0.120913f, -0.137242f };
static const float model_production_layer_1_biases[32] = { -0.055779f, -0.085179f, 1.819299f, 1.881695f, 1.900753f, -0.090281f, -0.064989f, 1.825454f, -0.071578f, -0.058611f, -0.076604f, -0.070745f, -0.070730f, -0.064520f, 1.860187f, -0.096069f, -0.039477f, -0.065407f, -0.066692f, 1.820475f, -0.068968f, 1.830988f, 1.796512f, -0.057474f, 1.809500f, 1.805858f, 1.817518f, -0.100991f, 1.867714f, 1.870552f, -0.079229f, 1.842851f };
static const float model_production_layer_1_weights[2048] = { 0.033254f, 0.077282f, -0.236369f, 0.216343f, 0.054017f, -0.200407f, 0.113976f, -0.170049f, 0.014329f, -0.251329f, -0.117352f, -0.118231f, -0.203585f, -0.222140f, 0.221161f, -0.096844f, -0.033876f, -0.060980f, 0.011288f, 0.230418f, -0.285261f, 0.112243f, 0.050522f, -0.148602f, 0.090443f, 0.128138f, 0.211351f, -0.149801f, -0.206772f, -0.025226f, 0.072061f, -0.047706f, -0.193200f, -0.211582f, 0.258695f, 0.221727f, 0.106663f, 0.003893f, -0.127484f, 0.216422f, 0.081253f, -0.147429f, -0.233591f, 0.022329f, 0.070672f, 0.122771f, 0.142222f, 0.032241f, -0.120797f, -0.169359f, -0.132451f, -0.140165f, 0.132614f, -0.134015f, 0.192305f, -0.129539f, 0.010735f, 0.252463f, -0.154610f, -0.175002f, -0.179226f, -0.190380f, -0.138374f, -0.046875f, -0.225916f, -0.067322f, 0.150220f, 0.029333f, -0.145870f, 0.035552f, -0.176433f, -0.006399f, -0.159463f, -0.174715f, -0.005400f, 0.167010f, 0.152286f, -0.083576f, 0.247506f, -0.074303f, -0.235005f, -0.285483f, 0.037971f, 0.097172f, -0.221569f, -0.034367f, -0.021733f, 0.022251f, -0.024263f, -0.017217f, 0.220874f, -0.175335f, -0.039155f, 0.217326f, 0.107461f, 0.047156f, -0.267309f, -0.095491f, -0.042969f, -0.038030f, 0.141562f, -0.116616f, 0.072132f, 0.141429f, -0.020230f, -0.055953f, -0.028832f, 0.099778f, -0.117258f, -0.300145f, 0.173193f, 0.069755f, -0.237954f, -0.039974f, -0.029007f, 0.142135f, 0.058425f, 0.275341f, -0.080992f, -0.206036f, -0.213615f, 0.112453f, 0.127020f, 0.079580f, 0.133687f, 0.104913f, -0.004118f, -0.151998f, -0.136018f, -0.295733f, 0.037427f, -0.155418f, -0.072524f, 0.155679f, -0.161961f, 0.199633f, -0.158294f, -0.235665f, 0.121997f, -0.172917f, -0.176370f, -0.065499f, -0.075992f, 0.000718f, 0.013672f, 0.074541f, -0.132316f, -0.073148f, -0.073295f, 0.063058f, 0.064507f, -0.064434f, 0.153636f, 0.041614f, 0.286100f, -0.248456f, -0.077026f, 0.194906f, -0.036897f, -0.106913f, 0.122565f, -0.282714f, -0.166808f, 0.045183f, -0.043113f, -0.087906f, -0.221152f, 0.146718f, 0.164163f, 0.038850f, -0.193770f, -0.173400f, -0.129785f, -0.136970f, -0.009091f, -0.273427f, -0.116524f, 0.054026f, -0.231320f, 0.173057f, -0.205493f, -0.062806f, -0.117074f, 0.041422f, 0.116997f, 0.219967f, 0.151207f, -0.052456f, 0.019273f, -0.124770f, -0.241098f, 0.201582f, 0.094164f, -0.240923f, 0.152443f, -0.101346f, 0.280649f, 0.065884f, 0.178511f, -0.179815f, 0.132357f, -0.147515f, 0.151153f, -0.085075f, -0.238710f, -0.162514f, -0.085174f, -0.280783f, -0.232580f, -0.276581f, -0.127985f, -0.118731f, 0.112962f, 0.091021f, 0.223368f, 0.050157f, 0.033582f, 0.148077f, 0.031170f, -0.158884f, 0.047484f, 0.197497f, -0.172284f, -0.178883f, 0.055140f, -0.221595f, -0.061869f, -0.150443f, -0.153645f, 0.156797f, -0.136780f, 0.176248f, 0.031812f, -0.007385f, 0.118386f, -0.191992f, -0.051136f, 0.043583f, 0.036210f, -0.001451f, -0.050887f, 0.093594f, 0.146137f, -0.109992f, -0.151701f, 0.253427f, 0.228593f, 0.187205f, -0.017885f, 0.174879f, 0.176061f, 0.144922f, 0.218719f, 0.096328f, 0.030566f, -0.078813f, -0.138883f, -0.191690f, -0.064910f, 0.169677f, -0.111907f, -0.214445f, 0.159222f, 0.085421f, 0.116563f, 0.041721f, -0.160731f, 0.100932f, 0.175509f, 0.054377f, -0.009914f, 0.015329f, -0.174309f, -0.030401f, 0.175137f, 0.155142f, -0.169119f, -0.202301f, 0.286050f, 0.149749f, 0.218979f, 0.135820f, -0.143453f, -0.060902f, 0.210569f, 0.048221f, -0.147260f, 0.143762f, 0.020328f, -0.178396f, 0.143391f, 0.189418f, -0.136458f, -0.281502f, -0.295815f, -0.089957f, -0.203690f, 0.110238f, -0.227711f, 0.194083f, -0.268850f, 0.129771f, 0.155786f, -0.237613f, -0.016159f, 0.142394f, -0.107683f, -0.224069f, -0.108594f, 0.195104f, 0.205671f, -0.207228f, 0.190496f, -0.065815f, -0.112580f, -0.186532f, -0.169825f, 0.004566f, -0.019241f, 0.098668f, -0.152302f, -0.094930f, 0.158701f, -0.010763f, -0.017455f, -0.218405f, -0.098761f, -0.078881f, -0.083245f, -0.117688f, -0.221693f, -0.127692f, 0.056928f, 0.176266f, -0.177810f, -0.106481f, -0.086325f, -0.064916f, 0.038023f, -0.073608f, 0.051557f, 0.000043f, 0.185713f, 0.015266f, 0.083241f, -0.086783f, 0.205785f, -0.078115f, 0.118854f, 0.208588f, -0.156469f, 0.138665f, 0.083096f, -0.272392f, -0.062749f, -0.060001f, 0.047135f, -0.070413f, 0.075948f, 0.359997f, 0.076465f, -0.116228f, -0.087169f, -0.102031f, -0.131217f, -0.120055f, -0.126403f, 0.130303f, -0.185887f, -0.044946f, 0.082047f, 0.074266f, -0.088246f, -0.027962f, 0.090934f, 0.043953f, -0.043116f, 0.187363f, -0.057887f, -0.195877f, 0.110522f, 0.091577f, -0.099088f, 0.271135f, -0.213867f, -0.210927f, 0.168885f, 0.114787f, -0.203245f, -0.013348f, 0.112307f, 0.246794f, 0.053529f, 0.102035f, -0.052384f, 0.163501f, -0.009894f, 0.141456f, -0.133303f, 0.122742f, -0.120150f, -0.021284f, -0.180876f, 0.199134f, -0.054431f, 0.176364f, 0.234248f, -0.272134f, -0.060828f, 0.255951f, -0.039658f, -0.032398f, 0.200164f, -0.145482f, -0.286808f, -0.068680f, -0.075008f, -0.196508f, 0.139336f, 0.154581f, 0.220748f, -0.292057f, -0.016456f, 0.235620f, -0.176279f, -0.058357f, -0.123167f, -0.241964f, -0.259804f, 0.033961f, -0.003389f, -0.154686f, -0.131636f, 0.111432f, -0.261910f, 0.179662f, 0.033676f, 0.194189f, -0.144510f, -0.126714f, 0.084230f, 0.138904f, -0.142794f, -0.254736f, -0.011969f, -0.169206f, -0.136496f, -0.021705f, 0.049261f, 0.005716f, -0.039878f, -0.169309f, 0.037428f, 0.003373f, -0.198081f, -0.127279f, 0.008522f, -0.254990f, -0.231291f, -0.198957f, -0.190119f, 0.079451f, -0.123337f, -0.004985f, -0.192853f, -0.038365f, -0.271344f, 0.203369f, 0.027979f, -0.195819f, 0.233121f, -0.182024f, 0.102187f, -0.075912f, 0.011890f, -0.157769f, 0.225618f, 0.289627f, -0.270937f, 0.242895f, 0.134289f, -0.229705f, 0.006965f, -0.042181f, -0.127050f, -0.051730f, -0.248111f, -0.098705f, 0.137948f, 0.111655f, 0.022658f, -0.341953f, -0.062164f, -0.190170f, 0.283482f, -0.304850f, 0.080125f, -0.122172f, 0.006094f, 0.200381f, -0.250109f, 0.275949f, 0.037081f, -0.216971f, 0.198830f, 0.215230f, 0.126092f, 0.072275f, -0.199011f, -0.117901f, 0.125102f, -0.156192f, -0.024864f, 0.080303f, 0.174269f, -0.100535f, 0.037838f, -0.175808f, 0.014500f, -0.159228f, -0.065719f, -0.199715f, -0.223432f, 0.042205f, -0.316806f, -0.299773f, -0.086811f, 0.022713f, 0.096660f, 0.092622f, -0.240571f, 0.215673f, -0.046443f, -0.156113f, -0.035461f, -0.081238f, 0.016843f, 0.007845f, 0.014152f, 0.088536f, 0.196972f, 0.178723f, -0.011075f, 0.161455f, 0.076724f, -0.034047f, -0.067769f, -0.102492f, -0.111134f, -0.168936f, -0.065121f, 0.084059f, -0.118037f, 0.132738f, 0.097214f, 0.121198f, -0.118139f, 0.030467f, 0.007556f, -0.027918f, -0.219286f, 0.145042f, -0.088725f, 0.107845f, -0.139691f, 0.024782f, 0.009399f, -0.176029f, -0.115976f, 0.157523f, 0.171693f, 0.030651f, 0.012726f, 0.085102f, -0.120388f, 0.160283f, 0.023148f, -0.041653f, -0.210224f, 0.196372f, 0.211791f, 0.069528f, -0.250823f, 0.089721f, -0.103067f, -0.003667f, -0.279113f, -0.146547f, -0.228857f, 0.137441f, 0.047430f, -0.243155f, 0.168344f, -0.184893f, 0.022714f, -0.086429f, -0.089749f, -0.085225f, 0.140126f, 0.164155f, -0.167724f, -0.078244f, -0.036728f, -0.218792f, 0.195730f, 0.275807f, -0.170583f, 0.219696f, 0.068375f, -0.070614f, 0.064363f, -0.256682f, -0.216915f, -0.115016f, -0.125198f, -0.078623f, 0.090882f, -0.079422f, -0.007363f, -0.080891f, 0.063020f, -0.131166f, 0.142732f, 0.129369f, -0.093062f, -0.155595f, -0.197797f, 0.041454f, -0.224610f, 0.096276f, 0.094506f, -0.012910f, 0.027231f, -0.175087f, 0.050480f, 0.035592f, 0.023026f, 0.187674f, -0.122807f, -0.001384f, -0.156291f, -0.194273f, 0.305152f, 0.239308f, -0.064523f, 0.065717f, -0.202229f, 0.098203f, -0.236966f, -0.268046f, -0.175757f, -0.042745f, -0.233809f, 0.007983f, -0.074120f, 0.111411f, -0.216270f, -0.038971f, 0.000822f, 0.121504f, -0.040164f, 0.198149f, 0.165062f, 0.042713f, 0.145263f, -0.119309f, -0.090287f, -0.138932f, 0.069192f, 0.243808f, 0.169116f, -0.052316f, 0.091305f, -0.097923f, 0.195853f, 0.130478f, -0.152603f, -0.182518f, -0.086286f, 0.151277f, -0.072222f, 0.049019f, -0.054077f, -0.052026f, -0.065575f, -0.143629f, -0.157107f, -0.088832f, 0.049205f, -0.104876f, 0.168382f, 0.077369f, -0.036820f, 0.249772f, -0.146599f, -0.117510f, -0.048443f, -0.197939f, 0.219840f, -0.075171f, 0.178974f, -0.067983f, -0.033434f, 0.013478f, -0.053519f, 0.114695f, -0.108302f, 0.207316f, 0.230152f, -0.072842f, 0.129261f, -0.120414f, 0.017043f, -0.050151f, 0.024120f, 0.003518f, -0.273198f, -0.071638f, -0.153235f, 0.103428f, -0.262180f, -0.255197f, 0.146855f, -0.024375f, -0.268256f, 0.089628f, 0.241436f, -0.205965f, -0.177825f, 0.146705f, 0.104734f, -0.295712f, 0.131553f, 0.033852f, -0.203921f, 0.124798f, 0.010730f, -0.280330f, 0.129174f, -0.144292f, -0.133776f, -0.158906f, -0.042545f, -0.180910f, 0.129289f, -0.270905f, -0.180259f, -0.105321f, -0.190959f, -0.200017f, 0.262103f, 0.120137f, -0.236098f, -0.184960f, -0.167857f, -0.069564f, -0.245809f, -0.173325f, 0.271262f, -0.249963f, 0.172781f, 0.299592f, -0.151304f, 0.094075f, 0.113115f, -0.172788f, 0.033842f, 0.218706f, -0.173514f, -0.002076f, 0.052363f, -0.073594f, -0.117131f, -0.055171f, 0.133811f, 0.080986f, -0.114180f, -0.246953f, -0.123007f, -0.138478f, -0.138566f, -0.168277f, 0.014689f, -0.262962f, -0.210940f, 0.011083f, -0.245618f, 0.297348f, -0.195198f, 0.170439f, 0.138074f, 0.094210f, 0.229985f, 0.236293f, 0.011670f, -0.032573f, 0.045332f, -0.129826f, 0.128134f, 0.034802f, -0.055335f, 0.015150f, 0.160005f, -0.156057f, -0.073969f, -0.071039f, -0.087137f, -0.058057f, 0.090255f, -0.019395f, 0.078525f, 0.148289f, 0.028998f, 0.068924f, 0.264600f, -0.025334f, 0.061743f, 0.062652f, -0.278877f, 0.253093f, 0.020878f, 0.235914f, -0.185378f, -0.031482f, -0.030779f, 0.105450f, 0.246838f, 0.030352f, -0.101779f, 0.088281f, -0.192299f, -0.181717f, 0.061424f, -0.184390f, 0.203062f, 0.126325f, 0.333417f, 0.046632f, -0.202947f, -0.093024f, 0.159386f, 0.005720f, -0.056271f, -0.155735f, -0.248803f, 0.147680f, 0.097528f, -0.284782f, 0.157244f, 0.081381f, -0.065077f, -0.110157f, 0.009857f, 0.064852f, -0.072986f, 0.024332f, 0.329491f, 0.006509f, -0.072620f, 0.094604f, 0.185650f, -0.028830f, -0.299077f, 0.156717f, -0.133348f, -0.018206f, 0.290794f, 0.015915f, 0.110430f, -0.107659f, -0.171162f, -0.075221f, -0.234108f, -0.185274f, 0.122002f, -0.097113f, -0.062216f, -0.051509f, -0.105696f, 0.085726f, -0.257478f, -0.124227f, -0.278028f, -0.086222f, -0.211307f, 0.207387f, 0.103864f, -0.115658f, -0.121949f, 0.264627f, -0.029290f, -0.218764f, -0.206828f, 0.169595f, -0.174179f, -0.119460f, -0.193949f, 0.101465f, -0.035901f, 0.218319f, 0.130397f, -0.135940f, 0.108161f, -0.149400f, -0.227457f, -0.162135f, 0.146008f, -0.307295f, 0.082014f, -0.063649f, -0.142204f, -0.086579f, 0.023431f, -0.118081f, -0.144086f, -0.091749f, -0.111106f, -0.166950f, 0.219394f, -0.231855f, 0.215623f, 0.220397f, 0.003970f, -0.222423f, -0.150134f, 0.144433f, 0.025941f, -0.070126f, -0.065691f, 0.153105f, 0.018078f, -0.145228f, 0.234615f, -0.029774f, -0.087007f, -0.002802f, -0.106707f, -0.017725f, -0.123781f, -0.191315f, -0.154116f, 0.077012f, 0.135633f, -0.154041f, 0.081930f, 0.122560f, -0.023011f, 0.165634f, -0.090318f, 0.064813f, -0.012175f, -0.085248f, 0.010116f, -0.118869f, -0.068695f, 0.165443f, 0.046842f, 0.126758f, -0.195464f, 0.005576f, -0.058773f, -0.226195f, 0.215349f, -0.020712f, 0.071977f, 0.009142f, -0.129358f, 0.146544f, -0.101476f, -0.192138f, -0.299900f, -0.075141f, -0.186865f, 0.004916f, 0.099074f, -0.123927f, -0.099344f, 0.034206f, -0.255825f, -0.012100f, -0.054878f, -0.248180f, 0.212214f, 0.106745f, -0.231991f, 0.106890f, -0.175430f, -0.101905f, 0.083742f, 0.062041f, -0.047640f, 0.025372f, 0.016411f, 0.121554f, -0.117667f, -0.065049f, 0.252936f, 0.129908f, -0.084816f, 0.013525f, 0.153232f, -0.035853f, 0.176243f, 0.029506f, -0.213703f, -0.092700f, 0.102142f, -0.327343f, -0.213252f, -0.166534f, -0.164800f, 0.178475f, -0.120725f, -0.060906f, 0.228394f, 0.060055f, 0.027079f, -0.062162f, -0.010291f, -0.238997f, 0.232146f, -0.024939f, -0.065210f, 0.025873f, 0.049471f, 0.080991f, 0.232854f, 0.222249f, 0.043243f, -0.119702f, 0.041843f, -0.160835f, -0.295596f, 0.136662f, -0.286391f, -0.227919f, -0.196880f, 0.030229f, 0.048654f, -0.112778f, 0.027832f, 0.121266f, -0.261125f, 0.126110f, -0.002612f, -0.206555f, 0.214913f, -0.161016f, 0.227259f, -0.130622f, 0.163572f, -0.190199f, 0.145818f, -0.126851f, 0.065878f, 0.063878f, 0.089821f, 0.051925f, 0.259779f, 0.190138f, 0.035305f, -0.077285f, 0.090883f, 0.091532f, -0.230507f, -0.118107f, -0.072268f, -0.228708f, -0.045029f, -0.216806f, -0.170740f, 0.125475f, 0.146101f, 0.025433f, 0.018674f, -0.032810f, -0.286155f, 0.126459f, -0.010848f, 0.162400f, 0.094257f, -0.140941f, 0.168551f, -0.264407f, 0.131668f, 0.215390f, 0.144809f, -0.163091f, -0.188927f, -0.037742f, -0.137015f, -0.188591f, 0.213900f, -0.140819f, -0.242476f, -0.193721f, 0.137372f, -0.262450f, 0.154757f, 0.036592f, -0.084777f, -0.211270f, -0.075148f, -0.164725f, -0.087311f, 0.040060f, 0.157913f, 0.229323f, -0.028096f, 0.181329f, 0.053896f, 0.003466f, 0.130181f, 0.192084f, 0.172480f, -0.321748f, 0.154882f, -0.058732f, 0.072227f, 0.276522f, -0.105104f, 0.137742f, 0.002815f, 0.013849f, -0.133600f, 0.113702f, -0.101616f, -0.048138f, 0.082051f, -0.232919f, -0.145990f, -0.281579f, -0.132919f, -0.159739f, 0.258314f, 0.002381f, 0.192377f, -0.297216f, -0.185058f, 0.111048f, 0.048034f, 0.196023f, 0.057064f, -0.289927f, -0.087179f, 0.019657f, 0.099856f, 0.093032f, -0.087217f, 0.110673f, -0.154864f, 0.055198f, -0.009509f, 0.120365f, -0.428726f, -0.698893f, -0.688461f, 0.126543f, 0.014947f, -0.768780f, -0.134055f, 0.147310f, -0.040773f, -0.091849f, -0.067197f, -0.062204f, -0.566915f, -0.190970f, -0.188254f, 0.060297f, -0.138307f, -0.555153f, -0.230254f, -0.338529f, -0.775706f, 0.177576f, -0.511806f, -0.757247f, -0.550398f, -0.149275f, -0.351322f, -0.715550f, 0.178396f, -0.725350f, 0.027425f, -0.269805f, -0.110998f, -0.060150f, -0.116526f, -0.179571f, -0.010204f, -0.095064f, -0.027502f, 0.094642f, 0.157152f, 0.052529f, -0.110367f, 0.116447f, -0.091458f, 0.003082f, -0.090624f, 0.073876f, -0.295401f, 0.151329f, 0.001879f, 0.039316f, -0.116749f, -0.230339f, 0.304561f, 0.134220f, 0.202001f, 0.011430f, 0.224144f, -0.021699f, 0.074636f, 0.115931f, -0.053426f, 0.165867f, 0.147569f, -0.242130f, 0.199813f, -0.249117f, -0.091653f, 0.173954f, -0.054323f, -0.264406f, -0.208925f, -0.272634f, -0.084819f, 0.012317f, 0.233280f, -0.239350f, -0.244834f, -0.103289f, -0.034465f, -0.214354f, -0.234597f, 0.176169f, 0.033632f, -0.240193f, 0.090674f, -0.107987f, 0.157837f, 0.136367f, -0.151310f, 0.104638f, -0.052083f, 0.132859f, -0.241769f, -0.244892f, 0.023567f, 0.004401f, 0.176923f, -0.013245f, 0.143348f, 0.160821f, -0.034378f, -0.144052f, 0.043181f, -0.232428f, 0.148539f, 0.128644f, -0.219347f, -0.281785f, -0.113526f, -0.043629f, 0.178961f, -0.234511f, 0.126574f, 0.146976f, -0.046858f, -0.223224f, 0.172462f, -0.120601f, 0.063951f, -0.058041f, 0.007786f, 0.141640f, -0.242708f, 0.061002f, 0.051644f, -0.028692f, 0.035697f, -0.084930f, -0.013160f, -0.161090f, -0.223503f, 0.279982f, -0.247074f, -0.081608f, -0.032966f, -0.196090f, -0.205942f, -0.306528f, 0.091786f, -0.269366f, 0.040973f, -0.067446f, -0.268161f, 0.078749f, -0.083910f, -0.068439f, 0.032167f, -0.123301f, -0.018398f, -0.156431f, 0.311812f, -0.041100f, -0.087957f, -0.068045f, -0.171345f, 0.180643f, -0.258619f, -0.087757f, -0.043773f, -0.019890f, 0.271825f, -0.296518f, -0.088755f, 0.042159f, -0.030837f, -0.187856f, 0.046106f, 0.071698f, -0.053898f, 0.075560f, -0.149645f, -0.142831f, 0.086944f, -0.021078f, 0.155372f, 0.302195f, -0.178070f, 0.160774f, 0.124708f, -0.202133f, -0.083717f, -0.044411f, 0.021990f, -0.073978f, 0.006639f, 0.133623f, -0.051004f, 0.176683f, 0.113573f, 0.014850f, -0.065654f, 0.057133f, 0.096068f, -0.101587f, 0.125740f, -0.039302f, -0.108185f, 0.051379f, 0.017104f, -0.007023f, 0.120859f, -0.306742f, 0.229612f, 0.068454f, 0.009326f, 0.076712f, 0.057717f, 0.123016f, -0.015579f, -0.062870f, -0.024749f, 0.094260f, 0.245275f, 0.128163f, -0.093942f, -0.008573f, 0.068848f, 0.083379f, -0.133862f, 0.033461f, -0.055051f, -0.101768f, 0.174994f, 0.010308f, 0.193427f, 0.044945f, -0.146615f, 0.219899f, -0.205341f, 0.075912f, -0.081096f, 0.146323f, -0.029905f, -0.213392f, 0.096712f, 0.088536f, 0.141619f, -0.275976f, -0.074136f, -0.170664f, 0.144529f, 0.104175f, 0.033080f, -0.096025f, -0.062064f, 0.088031f, -0.227728f, -0.051540f, -0.044539f, 0.111637f, 0.050042f, -0.103370f, -0.067674f, 0.103428f, 0.084332f, 0.155644f, -0.062613f, 0.118574f, -0.173844f, 0.132448f, -0.033647f, -0.284636f, -0.002862f, -0.137452f, -0.159243f, -0.243125f, 0.165024f, -0.263159f, -0.050348f, -0.137020f, -0.247884f, -0.149683f, 0.111922f, 0.036087f, -0.057080f, 0.060613f, 0.064315f, -0.016737f, 0.310126f, 0.101973f, -0.197013f, -0.033050f, -0.037319f, -0.138030f, -0.026543f, -0.150039f, 0.192030f, -0.202198f, 0.098796f, -0.003780f, -0.278573f, 0.043474f, 0.138726f, 0.067114f, -0.249342f, 0.076661f, -0.072569f, 0.056289f, 0.187402f, 0.069012f, -0.045743f, -0.101210f, 0.157058f, 0.014057f, -0.164832f, -0.020417f, -0.138578f, 0.149073f, 0.134449f, -0.089130f, 0.229243f, -0.190726f, 0.111135f, -0.230935f, 0.007518f, 0.243290f, 0.084982f, -0.043272f, -0.044125f, -0.010653f, -0.007914f, -0.234559f, -0.166988f, -0.114886f, -0.182618f, 0.127720f, -0.035725f, 0.039966f, -0.057630f, -0.104032f, 0.218863f, -0.212694f, -0.171172f, -0.198753f, -0.142206f, -0.045498f, 0.027334f, 0.221288f, 0.180219f, 0.008976f, -0.105555f, 0.267864f, 0.143507f, 0.076369f, 0.224145f, -0.066764f, -0.011452f, 0.086327f, -0.047281f, 0.101889f, -0.049764f, 0.230599f, 0.089428f, 0.003909f, 0.151565f, 0.111494f, 0.009560f, -0.096261f, -0.160385f, -0.202104f, -0.047435f, -0.027204f, -0.170883f, -0.060855f, 0.086655f, 0.060422f, -0.026651f, -0.070452f, -0.012574f, 0.033179f, 0.040523f, -0.223133f, 0.144181f, -0.206916f, -0.014996f, 0.023770f, -0.199345f, 0.280955f, -0.261260f, -0.109667f, -0.158691f, -0.019086f, 0.229929f, -0.066760f, -0.204626f, 0.030953f, -0.278225f, 0.101876f, -0.113042f, 0.033168f, -0.261775f, 0.040427f, -0.024384f, 0.126592f, -0.103577f, -0.288945f, 0.150962f, 0.113096f, -0.164267f, 0.190913f, -0.260976f, -0.167398f, 0.132987f, -0.166234f, 0.112413f, 0.163389f, 0.229454f, -0.134388f, -0.067123f, -0.206022f, -0.093417f, -0.036402f, 0.069020f, 0.103023f, -0.169202f, 0.212731f, 0.051798f, -0.047494f, -0.213166f, -0.088313f, -0.249598f, -0.075079f, 0.115424f, 0.011744f, -0.198314f, -0.335427f, 0.168924f, -0.258494f, 0.070904f, -0.131214f, 0.008462f, 0.006276f, 0.086754f, -0.018524f, -0.050152f, 0.104705f, 0.095918f, -0.113042f, 0.247743f, -0.238331f, -0.141465f, -0.051348f, -0.073784f, 0.243617f, -0.130204f, 0.067928f, 0.015586f, -0.078133f, -0.106888f, -0.165279f, -0.080539f, 0.095306f, 0.094263f, 0.098203f, -0.197468f, -0.153648f, 0.079321f, 0.052552f, 0.082310f, 0.139294f, -0.212827f, -0.032413f, -0.149521f, 0.062331f, 0.170052f, 0.147182f, -0.063868f, -0.088503f, 0.073383f, 0.049228f, 0.230685f, -0.158413f, -0.030281f, -0.028278f, 0.122541f, 0.087797f, -0.147378f, 0.062386f, 0.054917f, -0.202807f, -0.033945f, -0.159293f, -0.016665f, -0.225248f, -0.052438f, 0.108887f, -0.154062f, -0.191470f, -0.251604f, -0.157379f, 0.226258f, -0.236489f, -0.266404f, -0.224391f, -0.136170f, 0.199797f, -0.020699f, -0.007478f, 0.127198f, 0.090546f, -0.044466f, 0.022957f, -0.097081f, 0.093845f, 0.050603f, 0.090237f, 0.020930f, 0.055802f, 0.051827f, -0.049102f, -0.045211f, -0.241599f, -0.229851f, 0.081286f, 0.082658f, -0.348419f, -0.159877f, -0.246693f, -0.243467f, -0.241425f, -0.165267f, -0.019109f, -0.195349f, 0.000093f, -0.038802f, 0.176598f, 0.178193f, -0.192677f, -0.112039f, -0.289262f, -0.355424f, -0.187049f, -0.243142f, -0.350995f, -0.357769f, -0.206784f, -0.040578f, -0.349112f, -0.147405f, -0.376962f, -0.051479f, -0.130345f, 0.003327f, 0.244445f, 0.037935f, -0.240122f, -0.252253f, 0.219739f, 0.062443f, 0.057517f, 0.011478f, 0.075421f, 0.172370f, -0.245228f, 0.034396f, -0.330218f, 0.013248f, 0.141777f, -0.190635f, -0.098822f, -0.153789f, 0.024256f, 0.207290f, 0.070157f, 0.087236f, 0.118609f, -0.101276f, -0.139867f, -0.190676f, 0.066507f, -0.114011f, 0.089858f, -0.034502f, -0.173840f, -0.189229f, 0.201074f, -0.160899f, -0.082000f, 0.129906f, 0.101846f, -0.187284f, -0.013858f, -0.046470f, 0.077527f, 0.076544f, -0.186359f, -0.173405f, 0.115779f, -0.152525f, -0.082575f, -0.017123f, 0.005629f, -0.138120f, 0.202444f, 0.257709f, -0.276967f, -0.100840f, 0.162177f, 0.056140f, -0.121351f, -0.034112f, -0.060130f, 0.112431f, 0.168415f, -0.276465f, -0.182338f, 0.232073f, 0.290665f, 0.137689f, -0.012470f, 0.007279f, 0.174259f, -0.103757f, 0.095662f, -0.154219f, -0.045517f, 0.140440f, 0.162385f, 0.187449f, 0.138855f, -0.217538f, -0.285245f, -0.013215f, 0.250840f, 0.096696f, -0.080632f, -0.107841f, -0.293262f, -0.059598f, 0.285149f, -0.131340f, -0.105036f, -0.205345f, 0.013870f, -0.089814f, 0.046975f, -0.128750f, -0.016305f, -0.023974f, 0.092336f, 0.041766f, -0.161694f, -0.030991f, 0.029636f, -0.156884f, 0.084734f, -0.204334f, -0.013015f, -0.038324f, 0.036458f, -0.061878f, -0.058190f, 0.043784f, -0.259083f, -0.157441f, 0.185890f, -0.061254f, -0.256725f, 0.177840f, -0.123028f, 0.001205f, 0.134687f, 0.090473f, -0.221390f, -0.188324f, -0.169127f, -0.140385f, 0.070906f, 0.119183f, -0.144377f, -0.177751f, -0.061989f, 0.070679f, -0.082376f, -0.111797f, 0.012042f, -0.298664f, -0.229256f, 0.171823f, 0.058743f, -0.195111f, -0.214702f, 0.242717f, 0.029639f, -0.135045f, -0.261555f, -0.021716f, 0.165905f, 0.067493f, -0.075759f, -0.037178f, -0.262749f, 0.215485f, -0.160537f, 0.088478f, -0.196511f, 0.049911f, 0.216589f, -0.346229f, 0.121871f, -0.111426f, 0.048340f, -0.020347f, -0.073939f, 0.264361f, -0.068297f, 0.046620f, 0.007581f, -0.192608f, -0.180987f, 0.004089f, -0.106910f, 0.139343f, -0.099727f, 0.193933f, -0.232266f, -0.265157f, -0.010184f, -0.208247f, 0.051172f, -0.232319f, 0.268815f, 0.199338f, 0.096890f, 0.202256f, -0.038435f, -0.018870f, 0.081682f, 0.007563f, 0.015628f, 0.127633f, -0.109171f, 0.128822f, 0.092030f, 0.176930f, -0.018753f, 0.169896f, -0.062225f, -0.239482f, -0.051757f, 0.066499f, -0.145483f, -0.013662f, 0.016071f, -0.240823f, -0.028667f, -0.028747f, 0.023257f, 0.125292f, -0.020034f, -0.092067f, 0.094580f, -0.207419f, 0.136091f, 0.095746f, 0.169889f, 0.009604f, 0.145352f, 0.198008f, -0.188871f, 0.013385f, -0.146292f, -0.116105f, -0.138017f, -0.206924f, -0.103839f, -0.074012f, -0.024432f, 0.106902f, 0.107162f, -0.188722f, 0.040693f, -0.022726f, -0.095437f, -0.169836f, -0.153594f, -0.025162f, -0.260877f, 0.030601f, -0.170560f, -0.216923f, 0.064217f, 0.102913f, 0.015955f, -0.073510f, 0.070903f, 0.180054f, 0.172354f, 0.217208f, 0.041571f, -0.224064f, -0.170631f, 0.037694f, -0.185216f, -0.224531f, 0.241282f, 0.113161f, 0.000430f, -0.081356f, -0.035665f, 0.159789f, -0.056011f, -0.039913f, 0.226040f, -0.118251f, 0.108546f, 0.116206f, 0.188782f, 0.053407f, -0.228472f, -0.144187f, -0.126722f, -0.195707f, -0.200054f, 0.103740f, -0.046155f, 0.180759f, 0.042514f, 0.092548f, -0.229551f, -0.047342f, 0.240039f, 0.105042f, 0.128330f, 0.168052f, -0.053653f, -0.188803f, -0.008701f, -0.113722f, -0.170387f, -0.027303f, 0.204244f, 0.127794f, -0.072881f, -0.109412f, 0.039374f, -0.161860f, -0.119730f, 0.232163f, -0.042742f, -0.126736f, -0.105429f, -0.034066f, -0.267251f, 0.206581f, -0.255366f, -0.036215f, 0.263794f, 0.066166f, -0.089024f, -0.061609f, -0.074166f, 0.206290f, 0.130148f, -0.147394f, -0.151110f, 0.060790f, 0.199639f, 0.161884f, -0.161079f, -0.209794f, -0.226274f, 0.026574f, 0.051262f, -0.047464f, 0.058353f, -0.256887f, 0.224319f, -0.025059f, -0.156493f, -0.307953f, -0.183850f, 0.078997f, -0.152081f, -0.119872f, -0.200821f, 0.004425f, 0.059781f, -0.256825f, 0.009798f, -0.088233f, -0.185274f, -0.123264f, -0.113334f, 0.145524f, 0.027824f, 0.205340f, 0.118318f, -0.045055f, 0.003445f, 0.008751f, 0.313040f };
static const float model_production_layer_2_biases[1] = { 1.790149f };
static const float model_production_layer_2_weights[32] = { -0.018887f, -0.016844f, 0.635055f, 0.562244f, 0.393224f, -0.311598f, -0.252625f, 0.692502f, -0.258773f, -0.318977f, -0.085741f, -0.006887f, 0.024313f, -0.339826f, 0.618397f, -0.236471f, -0.033046f, -0.227958f, -0.256307f, 0.498020f, -0.222092f, 0.438054f, 0.578665f, -0.161353f, 0.486139f, 0.665312f, 0.673577f, 0.014198f, 0.367145f, 0.712299f, -0.333806f, 0.685160f };
static float model_production_buf1[64];
static float model_production_buf2[64];
static const EmlNetLayer model_production_layers[3] = { 
{ 64, 5, model_production_layer_0_weights, model_production_layer_0_biases, EmlNetActivationRelu }, 
{ 32, 64, model_production_layer_1_weights, model_production_layer_1_biases, EmlNetActivationRelu }, 
{ 1, 32, model_production_layer_2_weights, model_production_layer_2_biases, EmlNetActivationIdentity } };
static EmlNet model_production = { 3, model_production_layers, model_production_buf1, model_production_buf2, 64 };

    int32_t
    model_production_predict(const float *features, int32_t n_features)
    {
        return eml_net_predict(&model_production, features, n_features);
    }
    

    int32_t
    model_production_regress(const float *features, int32_t n_features, float *out, int32_t out_length)
    {
        return eml_net_regress(&model_production, features, n_features, out, out_length);
    }
    

    float
    model_production_regress1(const float *features, int32_t n_features)
    {
        return eml_net_regress1(&model_production, features, n_features);
    }
    