
#include <eml_net.h>
static const float smart_grid_model_layer_0_biases[64] = { 0.000000f, 0.000000f, 0.000000f, -0.175554f, 0.000000f, -0.008693f, 0.000000f, 0.000000f, 0.000000f, 0.000000f, 0.000000f, -0.063789f, 0.000000f, -0.125959f, 0.000000f, 0.000000f, 0.000000f, 0.000000f, 0.000000f, -0.182781f, 0.000000f, 0.000000f, -0.115634f, 0.000000f, 0.000000f, 0.000000f, 0.000000f, 0.000000f, -0.171242f, 0.000000f, -0.097262f, -0.093136f, 0.000000f, 0.000000f, 0.000000f, -0.189126f, -0.259089f, -0.010587f, 0.000000f, -0.137339f, 0.000000f, 0.000000f, -0.287458f, -0.157811f, 0.000000f, 0.000000f, 0.000000f, -0.232229f, 0.000000f, 0.000000f, -0.070243f, 0.000000f, -0.130961f, -0.159216f, 0.000000f, 0.000000f, -0.193084f, -0.130603f, 0.000000f, 0.000000f, 0.000000f, 0.000000f, -0.112444f, -0.131184f };
static const float smart_grid_model_layer_0_weights[448] = { -0.212841f, -0.015882f, -0.274488f, 0.039291f, -0.089304f, -0.037860f, -0.171574f, -0.160903f, -0.198659f, -0.131309f, -0.025732f, 0.003220f, -0.152753f, 0.013516f, -0.137636f, -0.071315f, -0.289781f, -0.165861f, -0.266250f, -0.007793f, -0.155003f, -0.240296f, 0.042485f, -0.052307f, -0.176987f, -0.163505f, -0.159949f, -0.236569f, 0.026333f, -0.161214f, 0.009679f, 0.005131f, -0.137654f, -0.235394f, -0.131320f, -0.013288f, -0.022771f, 0.009862f, -0.102764f, -0.041607f, -0.004319f, -0.187244f, -0.020391f, 0.005621f, -0.126483f, 0.008497f, -0.223839f, 0.057244f, -0.180701f, -0.032090f, 0.023303f, -0.143046f, -0.034157f, -0.038257f, -0.103464f, -0.001075f, 0.012830f, 0.045063f, -0.245402f, -0.235864f, -0.035288f, -0.064296f, 0.011246f, -0.056927f, -0.072242f, 0.138291f, 0.017788f, -0.021585f, -0.184435f, -0.252576f, 0.282047f, 0.232235f, -0.248721f, 0.060703f, -0.230833f, 0.018922f, 0.107448f, -0.088834f, -0.008775f, -0.248579f, 0.190138f, 0.091700f, -0.029700f, -0.088317f, 0.260777f, 0.230300f, 0.020690f, 0.050816f, -0.080226f, -0.202600f, -0.239337f, -0.218979f, -0.141365f, 0.182705f, -0.098308f, 0.052634f, 0.174925f, -0.252663f, -0.219099f, 0.025952f, -0.001475f, -0.135374f, 0.162431f, -0.088374f, -0.184694f, 0.193293f, 0.002064f, 0.028593f, 0.095156f, 0.282200f, -0.097844f, 0.003970f, 0.220715f, 0.050355f, 0.077752f, 0.259371f, -0.060180f, -0.015657f, 0.126870f, 0.098657f, -0.062197f, -0.184789f, 0.009463f, -0.249672f, 0.026555f, -0.270484f, -0.044370f, 0.071232f, 0.179536f, -0.039580f, 0.123005f, -0.001642f, 0.158862f, 0.198183f, -0.150455f, -0.107696f, 0.195077f, 0.251937f, 0.208203f, -0.013136f, -0.117454f, -0.072248f, 0.279773f, 0.053898f, 0.237117f, 0.100510f, 0.253267f, -0.062899f, -0.277642f, 0.060270f, -0.017555f, -0.038475f, -0.125375f, -0.189672f, -0.030924f, 0.091304f, 0.016994f, 0.258897f, -0.143856f, 0.004599f, 0.265014f, -0.050436f, -0.220154f, 0.073325f, -0.000608f, 0.142563f, 0.178558f, -0.027094f, -0.034204f, 0.218313f, -0.002860f, -0.010597f, 0.256250f, 0.246164f, 0.032559f, -0.023842f, -0.102031f, -0.271671f, -0.177244f, -0.206629f, -0.015499f, -0.009918f, 0.025136f, -0.051287f, -0.032734f, -0.018528f, -0.152268f, -0.085396f, -0.129181f, -0.257583f, 0.010436f, -0.021831f, 0.147688f, 0.227439f, -0.148591f, -0.018862f, 0.089613f, -0.229928f, 0.218349f, -0.220065f, -0.234515f, 0.191089f, -0.102600f, -0.000264f, 0.198043f, -0.031492f, -0.016000f, -0.043436f, 0.106936f, 0.064497f, 0.018918f, -0.081377f, 0.214961f, -0.187461f, -0.013308f, 0.286404f, -0.233126f, 0.052822f, -0.073209f, 0.155037f, -0.123583f, -0.134799f, 0.128747f, 0.029336f, -0.207053f, -0.221804f, 0.200263f, -0.344644f, 0.000023f, 0.192437f, 0.085089f, -0.027902f, 0.070734f, -0.226807f, 0.001698f, -0.006772f, 0.102923f, -0.112346f, -0.072104f, -0.013657f, 0.213384f, -0.112455f, -0.255050f, 0.071760f, -0.186177f, -0.012147f, -0.051977f, 0.073491f, -0.253404f, -0.054654f, 0.249101f, 0.053889f, 0.237946f, -0.150257f, -0.029908f, 0.072386f, -0.084294f, -0.107237f, 0.249503f, -0.380719f, 0.090566f, 0.232714f, -0.159528f, -0.010871f, -0.197474f, -0.183287f, 0.149211f, -0.056158f, -0.061400f, -0.276233f, 0.034615f, 0.101344f, 0.025217f, 0.016545f, -0.049716f, -0.080194f, -0.285497f, 0.056291f, -0.461652f, 0.159433f, 0.262460f, -0.152065f, -0.127472f, -0.155508f, -0.254096f, -0.187598f, -0.162093f, -0.108821f, 0.157927f, -0.224600f, -0.053262f, 0.002019f, 0.176143f, -0.222260f, 0.182782f, 0.179109f, -0.073063f, 0.249279f, 0.147345f, -0.082569f, 0.092597f, -0.121562f, -0.106921f, -0.575321f, 0.250893f, -0.286598f, -0.250718f, -0.194477f, 0.206341f, 0.061076f, 0.209798f, -0.088116f, -0.103099f, -0.413449f, 0.071427f, -0.079394f, -0.195006f, -0.134081f, -0.085576f, 0.096734f, 0.007471f, 0.055279f, -0.017969f, -0.078033f, -0.287732f, -0.266039f, -0.003172f, -0.285817f, 0.067531f, -0.265060f, -0.193405f, 1.385632f, 0.056106f, -0.991003f, 0.063256f, -0.270485f, 0.002323f, 0.137794f, 0.101513f, 0.501895f, 0.054306f, 0.079644f, 0.127697f, -0.211205f, 0.145615f, -0.141884f, -0.240764f, 0.250165f, -0.104705f, -0.263837f, 0.190271f, 1.152727f, 0.157562f, 0.074393f, 0.227548f, 0.357199f, 1.442943f, 0.201537f, 0.238004f, 0.601533f, -0.274256f, -0.123383f, 1.709097f, 1.383579f, -0.131699f, -0.172069f, 0.080747f, 0.078825f, -0.280032f, -0.122511f, 0.170414f, -0.261476f, 0.251390f, 0.920364f, 0.237563f, 0.286982f, -0.546103f, -0.209143f, -0.193523f, -0.017347f, -0.028139f, -0.144112f, -0.740812f, 0.773996f, 0.278299f, -0.187382f, 0.254897f, 0.318988f, -0.003554f, 0.072966f, 0.286022f, -0.227385f, 0.259676f, 0.205099f, -0.054011f, 1.419011f, -0.016104f, -0.993121f, 0.094203f, 0.251634f, 0.185174f, -0.176810f, 0.185018f, 0.568816f, 0.163163f, -0.173269f, -0.221687f, 0.114894f, -0.171197f, 0.129834f, 0.140205f, -0.034615f, -0.251449f, -0.270265f, 0.311324f, 0.845277f, -0.249629f, 0.219793f, -0.268391f, 0.368618f, 2.108762f, 0.123753f, -0.222597f, 0.926206f, 0.060787f, 0.228032f, 2.421796f, 1.520787f, -0.178694f, 0.148200f, -0.284664f, 0.023873f, 0.139564f, -0.044684f, -0.147648f, 0.189969f, 0.604485f, 0.847906f, -0.238279f, 0.093480f, -0.646457f, -0.242565f, -0.072053f, 0.164467f, 0.132289f, -0.119570f, -0.515540f, 0.885328f };
static const float smart_grid_model_layer_1_biases[32] = { 0.633705f, 0.390873f, 1.172470f, 0.430693f, 1.014373f, 0.023916f, -0.284726f, -0.629368f, -0.429994f, 0.226496f, 0.961255f, -0.916003f, 0.640769f, 0.395348f, 1.201206f, 0.304339f, -0.115163f, -0.298293f, 0.667320f, -0.303420f, 0.533535f, -0.115507f, -0.393775f, -0.205202f, 0.403666f, -0.037614f, 1.381698f, 0.440858f, 0.329391f, 0.450297f, -0.198545f, -0.275336f };
static const float smart_grid_model_layer_1_weights[2048] = { -0.211517f, 0.055278f, -0.043113f, -0.019595f, 0.246342f, -0.040823f, -0.102386f, -0.242066f, -0.248377f, -0.122883f, -0.247529f, 0.197356f, -0.136526f, 0.248175f, 0.226581f, 0.125981f, -0.094100f, -0.020928f, -0.089125f, 0.095260f, -0.215789f, 0.164167f, 0.156242f, 0.080163f, -0.124957f, 0.222181f, -0.247221f, 0.127227f, 0.208326f, 0.079519f, -0.229215f, 0.132418f, 0.223037f, 0.033166f, 0.088467f, -0.104341f, 0.151998f, 0.194315f, 0.105175f, 0.169308f, -0.187613f, -0.154084f, 0.142935f, -0.203815f, -0.229039f, 0.205729f, -0.040680f, -0.083247f, 0.095731f, -0.169233f, 0.232669f, -0.198025f, 0.120625f, -0.079711f, 0.232539f, -0.231141f, -0.103068f, -0.225048f, 0.178489f, 0.036894f, -0.037506f, 0.203575f, -0.067074f, -0.136776f, -0.014316f, -0.054291f, 0.246447f, 0.233204f, 0.188047f, 0.094660f, 0.119706f, 0.066779f, 0.153203f, 0.207817f, 0.226272f, 0.224148f, -0.035078f, -0.013164f, -0.075471f, -0.172553f, -0.098173f, 0.111540f, -0.028165f, -0.145097f, 0.228858f, 0.231867f, -0.160320f, 0.189703f, 0.181668f, -0.202310f, -0.036310f, 0.020288f, 0.160338f, -0.030099f, 0.162209f, -0.000493f, -0.025459f, 0.215852f, 0.014747f, 0.127620f, 0.158624f, 0.249293f, -0.267117f, -0.115572f, 0.130352f, -0.042900f, -0.255646f, -0.268583f, 0.049099f, -0.046543f, 0.048398f, -0.188288f, -0.080269f, -0.201659f, -0.111374f, -0.039645f, 0.193083f, 0.191709f, 0.007614f, 0.049644f, -0.016327f, 0.114458f, -0.026326f, -0.161459f, -0.097240f, 0.079229f, -0.178269f, -0.041704f, -0.145794f, 0.111268f, -0.201905f, -0.045203f, 0.199676f, 0.110477f, 0.246470f, 0.066668f, -0.040110f, -0.193874f, 0.139990f, -0.034639f, -0.237686f, -0.097033f, 0.168708f, 0.143236f, 0.208908f, -0.033768f, -0.083852f, -0.098251f, 0.203581f, -0.169563f, 0.198279f, -0.234684f, -0.031929f, 0.105134f, 0.020187f, -0.194434f, -0.084444f, 0.196996f, 0.006527f, 0.067312f, 0.230464f, -0.041772f, -0.110909f, 0.237083f, 0.194704f, 0.142630f, -0.055090f, 0.028074f, -0.079869f, -0.083855f, 0.219344f, 0.147979f, -0.141747f, -0.256628f, 0.138546f, -0.049920f, 0.177347f, -0.236329f, 0.215396f, 0.226920f, 0.157524f, -0.202982f, 0.028679f, -0.132479f, 0.004015f, -0.047805f, 0.201511f, 0.165421f, 0.160208f, 0.039234f, -0.079688f, -0.129731f, 0.018493f, 0.047853f, 0.099083f, 0.152606f, 0.062029f, -0.051278f, -0.043215f, -0.137727f, -0.081359f, 0.120541f, -0.132839f, -0.229093f, 0.098490f, 0.090600f, 0.028610f, 0.119117f, 0.077662f, -0.168448f, 0.228131f, -0.233049f, -0.046629f, 0.246405f, -0.053642f, 0.136343f, 0.017283f, -0.200276f, 0.047851f, 0.226663f, 0.059666f, 0.034959f, 0.187180f, -0.065006f, -0.109337f, 0.233475f, -0.197742f, 0.056917f, -0.132718f, 0.207652f, 0.166585f, -0.067673f, -0.037219f, -0.127334f, 0.170409f, 0.096827f, -0.149840f, 0.112509f, 0.124449f, -0.026942f, -0.242824f, 0.092634f, 0.115415f, -0.079189f, -0.195101f, 0.045313f, -0.006263f, 0.157288f, -0.130728f, 0.001096f, -0.134839f, 0.027392f, -0.212532f, 0.009404f, -0.056577f, -0.057177f, 0.024591f, -0.211926f, -0.242210f, 0.009090f, -0.111041f, -0.192540f, 0.025597f, 0.041762f, -0.187698f, 0.108442f, 0.143154f, 0.120757f, -0.198702f, 0.239089f, -0.105871f, -0.111069f, 0.002501f, -0.049597f, -0.159167f, 0.131581f, -0.180800f, 0.048565f, 0.169891f, -0.141128f, -0.030309f, -0.011399f, -0.019577f, 0.098817f, 0.130133f, -0.181779f, 0.159815f, -0.223969f, 0.138552f, -0.094536f, 0.063473f, 0.211364f, -0.001059f, 0.111782f, -0.130665f, 0.143168f, 0.015642f, 0.167470f, 0.204368f, -0.239085f, 0.162880f, 0.118256f, 0.067529f, -0.236284f, 0.079666f, 0.070470f, -0.130069f, -0.000965f, 0.178807f, -0.054870f, 0.017884f, -0.248489f, -0.234545f, 0.081091f, -0.078309f, 0.063988f, -0.082986f, 0.068404f, -0.043509f, -0.010577f, 0.201513f, 0.128588f, 0.130805f, 0.125235f, 0.228097f, -0.052337f, -0.222715f, -0.186425f, -0.126694f, -0.163390f, 0.020342f, 0.006080f, -0.118293f, -0.120992f, 0.012534f, 0.218862f, 0.190324f, -0.200845f, -0.029328f, 0.108721f, 0.242037f, 0.240796f, 0.050976f, -0.037730f, 0.111742f, 0.064264f, 0.064715f, -0.156780f, 0.074132f, -0.171027f, -0.018816f, -0.135732f, 0.143052f, 0.106957f, 0.097283f, 0.002128f, -1.082043f, 0.296082f, 0.002176f, -0.077476f, -0.220614f, 0.214186f, -0.471557f, -0.179149f, 0.061821f, -0.140850f, -0.791701f, 0.071169f, -0.055704f, -0.106219f, 0.075205f, -0.237283f, -0.104831f, 0.091334f, -0.059547f, -0.044892f, 0.036367f, 0.157371f, -0.933143f, 0.075560f, -0.023509f, 0.240303f, -0.238374f, -0.070088f, -0.157861f, -0.171403f, -0.071823f, -0.201607f, 0.173007f, 0.147068f, -0.095458f, -0.191235f, -0.232957f, -0.069218f, 0.083620f, -0.102222f, -0.155365f, -0.141281f, -0.173582f, 0.054598f, -0.031706f, -0.239316f, 0.101094f, -0.008711f, 0.025508f, 0.169086f, -0.022366f, 0.078934f, 0.122478f, -0.023528f, 0.132240f, -0.154830f, -0.168293f, 0.103774f, 0.097832f, -0.215825f, 0.098583f, -0.112856f, -0.026503f, 0.229198f, -0.263155f, 0.279923f, -0.299463f, 0.125484f, 0.023023f, -0.004687f, -0.008577f, 0.133710f, 0.098430f, 0.240966f, 0.035790f, 0.174567f, -0.029458f, 0.129107f, -0.206744f, -0.182072f, -0.102084f, 0.002893f, -0.148454f, -0.200167f, 0.041564f, 0.059160f, -0.053023f, 0.181412f, -0.071271f, -0.187964f, -0.003692f, -0.095397f, 0.245897f, 0.102138f, 0.096921f, -0.148568f, 0.145698f, 0.122299f, 0.064330f, -0.130234f, -0.169552f, 0.184178f, -0.160418f, 0.175768f, -0.042520f, -0.039652f, 0.063838f, 0.083580f, 0.006035f, -0.126562f, 0.111278f, 0.017367f, 0.142944f, 0.039045f, 0.189719f, 0.230789f, 0.158360f, -0.206800f, 0.057394f, 0.217168f, -0.006571f, -0.063993f, 0.149888f, -0.043138f, -0.030074f, 0.112202f, -0.152922f, -0.179632f, -0.216567f, 0.027922f, 0.113386f, -0.242736f, 0.247132f, -0.070349f, 0.245319f, -0.152752f, -0.198967f, 0.244539f, -0.013830f, -0.137221f, 0.186593f, 0.015707f, 0.212947f, 0.044911f, -0.186718f, -0.110573f, 0.089909f, -0.094930f, 0.015238f, -0.225120f, 0.204383f, -0.185424f, 0.042809f, 0.089748f, 0.074634f, -0.093661f, -0.232088f, -0.196394f, 0.038698f, 0.171219f, -0.043442f, -0.078195f, 0.005232f, 0.192975f, -0.057674f, 0.195812f, 0.087917f, -0.164958f, 0.113148f, -0.042489f, 0.237867f, -0.086720f, -0.115135f, -0.125135f, -0.197527f, -0.206282f, 0.242947f, -0.171364f, 0.201362f, 0.168882f, -0.137430f, 0.176037f, -0.172814f, -0.132034f, -0.077634f, -0.085446f, 0.012580f, 0.247246f, 0.160815f, -0.123975f, -0.082747f, -0.001977f, -0.210248f, -0.105732f, 0.058690f, 0.178333f, 0.109197f, -0.006811f, 0.038301f, 0.193272f, 0.105121f, -0.048212f, 0.042074f, 0.145553f, 0.244269f, -0.117845f, -0.190943f, -0.149339f, 0.042035f, -0.175093f, -0.119902f, -0.206704f, -0.068061f, 0.106120f, -0.092967f, -0.212443f, 0.241718f, 0.202166f, -0.231614f, -0.125102f, 0.048561f, -0.208918f, 0.089417f, 0.171520f, -0.085193f, -0.148778f, 0.171441f, 0.220408f, -0.139172f, 0.114266f, 0.217913f, -0.050112f, -0.160205f, 0.038164f, 0.236277f, 0.001782f, 0.179328f, 0.241914f, 0.237690f, -0.225846f, 0.180577f, 0.123022f, 0.002721f, 0.180241f, 0.133255f, 0.014096f, -0.136468f, -0.158992f, -0.144270f, -0.206381f, 0.193187f, 0.101322f, 0.080403f, 0.180095f, 0.118149f, 0.076395f, -0.069125f, 0.245092f, -0.233906f, -0.097101f, -0.228618f, -0.185690f, 0.008307f, -0.230707f, 0.258911f, 0.081042f, 0.009063f, -0.058962f, -0.088527f, -0.199432f, 0.076084f, -0.008620f, -0.096701f, 0.236631f, -0.094973f, 0.041932f, 0.003494f, 0.057106f, 0.021608f, -0.010753f, 0.016370f, -0.065230f, -0.185651f, -0.117505f, -0.247382f, 0.047706f, 0.057348f, -0.185099f, 0.242324f, 0.070536f, 0.101685f, 0.113252f, -0.198542f, -0.004806f, -0.128845f, -0.236155f, 0.056854f, 0.175795f, -0.033150f, -0.183496f, -0.010555f, -0.030162f, -0.090398f, -0.201160f, 0.117298f, -0.020131f, 0.104151f, -0.010824f, 0.149008f, 0.070740f, -0.201841f, -0.113323f, -0.190665f, 0.043172f, 0.066508f, -0.188349f, 0.068448f, -0.099614f, -0.151902f, -0.089569f, 0.148160f, -0.084906f, 0.154722f, -0.191322f, 0.075071f, 0.121365f, -0.061722f, -0.129667f, 0.067400f, 0.000708f, 0.166014f, 0.099800f, 0.160828f, 0.012764f, 0.245977f, 0.184688f, 0.061895f, -0.077634f, -0.193304f, -0.128991f, -0.171773f, 0.014341f, 0.149924f, -0.180797f, 0.128393f, 0.022287f, 0.008079f, 0.174718f, -0.113945f, 0.157088f, 0.023488f, 0.142902f, 0.041756f, 0.104557f, -0.122650f, -0.219882f, -0.145330f, -0.116349f, 0.063116f, -0.242959f, -0.215631f, 0.042477f, 0.069465f, 0.161405f, -0.031941f, -0.174408f, -0.181622f, -0.196732f, 0.111453f, 0.146209f, -0.244508f, -0.048437f, -0.032454f, 0.198845f, 0.095893f, -0.066714f, 0.087975f, -0.077826f, -0.309556f, -0.082586f, -0.168937f, 0.045113f, 0.160197f, 0.083176f, -0.176975f, -0.131648f, -0.216999f, -0.217504f, -0.174814f, -0.110172f, -0.168052f, -0.153692f, 0.070217f, -0.034239f, 0.115052f, -0.092982f, 0.022956f, -0.144892f, -0.055612f, 0.216507f, -0.109073f, 0.026102f, 0.020777f, 0.175677f, -0.089723f, 0.217529f, -0.243977f, -0.192045f, 0.082648f, -0.047468f, -0.092090f, -0.079259f, 0.193328f, 0.168597f, -0.115199f, -0.189754f, 0.039602f, 0.130093f, 0.104926f, 0.089463f, 0.161954f, 0.171976f, -0.114860f, 0.083564f, -0.106106f, -0.188639f, 0.068588f, 0.204297f, 0.015809f, -0.040689f, 0.001895f, 0.186258f, -0.247468f, 0.038092f, -0.228424f, 0.032908f, -0.080195f, 0.176061f, 0.196593f, 0.101433f, 0.178482f, -0.080318f, -0.073895f, 0.244072f, 0.081356f, 0.192715f, -0.249404f, -0.011345f, -0.059652f, 0.148634f, 0.214218f, -0.230822f, -0.196636f, 0.142631f, -0.086937f, 0.159844f, 0.131305f, -0.004814f, 0.173811f, 0.165101f, 0.000261f, 0.009891f, 0.017377f, -0.047952f, 0.033084f, 0.045739f, -0.244856f, 0.112428f, -0.220644f, -0.134928f, 0.109968f, 0.128344f, -0.057268f, 0.207430f, -0.190257f, -0.131996f, 0.020039f, 0.201554f, -0.240879f, 0.106232f, 0.093266f, -0.172923f, 0.088472f, -0.157200f, -0.202041f, -0.068638f, 0.122634f, -0.070572f, 0.111129f, 0.080766f, -0.185388f, -0.197214f, 0.209185f, -0.246612f, 0.040785f, -0.133645f, 0.080209f, -0.012157f, 0.108178f, 0.220318f, 0.203611f, 0.148468f, -0.143582f, 0.173924f, -0.165957f, 0.087984f, 0.076720f, 0.014724f, -0.209508f, -0.221120f, -0.041896f, -0.077427f, 0.078344f, -0.112620f, -0.115884f, 0.101023f, 0.217293f, 0.031551f, 0.245330f, -0.182906f, 0.002874f, 0.142653f, 0.158747f, -0.089420f, -0.200717f, -0.138372f, 0.011246f, 0.198164f, -0.079940f, 0.007135f, -0.013234f, 0.181031f, -0.048947f, -0.193289f, 0.012465f, 0.218262f, -0.044111f, -0.208932f, 0.010843f, 0.089047f, 0.072108f, -0.150430f, 0.070610f, 0.164413f, -0.194719f, -0.161629f, 0.106457f, -0.010733f, 0.041249f, -0.159106f, -0.131361f, 0.155422f, 0.217041f, -0.095689f, 0.051934f, 0.072530f, -0.073474f, 0.120290f, -0.029534f, -0.118489f, 0.233816f, 0.108969f, 0.028086f, 0.060466f, -0.038297f, 0.175000f, -0.109589f, -0.220066f, -0.030126f, -0.015689f, -0.081362f, -0.030441f, 0.155828f, -0.228381f, -0.056929f, 0.149334f, 0.217447f, 0.126192f, 0.022017f, 0.114000f, -0.208519f, -0.197182f, -0.118844f, 0.085887f, -0.078715f, -0.207292f, 0.193555f, -0.152812f, 0.155127f, 0.201985f, -0.024581f, -0.100764f, -0.044055f, 0.198229f, -0.085140f, 0.031201f, 0.109276f, -0.035542f, -0.002985f, -0.068684f, -0.159554f, 0.105699f, 0.041014f, -0.207522f, -0.004117f, 0.179667f, 0.088047f, 0.176177f, -0.080812f, 0.323392f, -0.094923f, -0.231271f, -0.175406f, -0.043704f, -0.159455f, -0.206448f, -0.060205f, 0.206533f, 0.036736f, -0.031696f, -0.057521f, -0.170039f, -0.061159f, 0.014882f, 0.120860f, -0.097836f, -0.193347f, 0.048207f, -0.145616f, -0.041053f, 0.016674f, -0.067815f, 0.040361f, -0.012525f, -0.226725f, -0.204621f, 0.085949f, 0.194834f, -0.084660f, 0.016067f, 0.013955f, 0.304395f, -0.300356f, -0.075266f, -0.007248f, -0.161787f, 0.169551f, -0.477110f, 0.154551f, -0.035379f, -0.009680f, -0.103797f, -0.132168f, -0.220060f, 0.047091f, -0.082967f, 0.020490f, 0.024726f, -0.027720f, -0.001138f, -0.011352f, 0.064804f, 0.043498f, 0.043424f, -0.176559f, 0.004076f, -0.031241f, -0.187467f, 0.104225f, 0.091573f, -0.017113f, 0.197622f, 0.103194f, 0.011447f, 0.163053f, 0.177667f, 0.153189f, -0.204120f, -0.237496f, 0.138615f, 0.055187f, 0.140697f, 0.008722f, -0.034668f, -0.046076f, -0.019288f, 0.180015f, -0.086500f, 0.001670f, 0.225084f, -0.077852f, -0.068586f, 0.143738f, 0.046695f, -0.107921f, 0.117728f, -0.249628f, 0.181674f, -0.011140f, -0.100802f, -0.222729f, -0.064999f, -0.024964f, 0.162998f, 0.057242f, -0.200015f, -0.099463f, 0.008011f, 0.243802f, -0.074143f, 0.082264f, 0.151730f, 0.155364f, 0.029376f, -0.084001f, 0.155785f, -0.232013f, 0.065890f, -0.120915f, 0.069909f, -0.144955f, 0.046500f, 0.173411f, -0.036433f, -0.191231f, -0.205982f, 0.234841f, 0.073626f, -0.077200f, -0.177667f, -0.009307f, -0.223644f, 0.214915f, 0.039754f, -0.020676f, -0.213539f, 0.068387f, -0.239680f, 0.204261f, -0.100812f, -0.147332f, -0.223859f, -0.221266f, -0.181888f, 0.210813f, -0.172203f, 0.145311f, 0.118434f, 0.247062f, 0.146360f, 0.144406f, 0.051734f, 0.039369f, -0.139067f, -0.206754f, 0.242776f, 0.222303f, 0.090741f, -0.065119f, -0.163961f, 0.218697f, 0.239637f, -0.215801f, 0.199113f, 0.234159f, -0.115701f, 0.166588f, 0.108778f, 0.023332f, 0.012267f, 0.012584f, -0.127217f, 0.002433f, -0.087419f, -0.063294f, 0.130346f, 0.088735f, 0.164049f, 0.014703f, -0.122636f, -0.088789f, 0.111550f, -0.113720f, -0.054288f, 0.124811f, -0.136025f, 0.067884f, 0.098031f, 0.186423f, 0.000506f, 0.064801f, -0.037068f, -0.132378f, -0.046700f, -0.022418f, -0.178955f, 0.240076f, -0.011874f, -0.961318f, 0.241017f, -0.795561f, 0.019592f, -0.021340f, -0.585099f, -0.178625f, -1.000239f, -0.588274f, 0.006970f, 0.125767f, 0.143448f, -0.225517f, 0.089873f, 0.354833f, 0.002123f, -0.818611f, -0.177921f, -0.015974f, 0.037239f, -0.037373f, 0.179122f, 0.202177f, -0.035103f, -0.906286f, -0.695899f, -0.275837f, -0.896676f, -0.226035f, -0.068188f, 0.048386f, -0.183220f, 0.062140f, -0.197754f, 0.016891f, 0.041560f, 0.077399f, -0.046626f, 0.093346f, -0.043110f, 0.009052f, 0.066483f, -0.050448f, 0.119315f, -0.006847f, -0.224628f, 0.153665f, -0.005969f, -0.201173f, -0.120913f, -0.201102f, 0.205066f, 0.029948f, -0.170388f, -0.234373f, -0.000726f, -0.212765f, -0.155775f, -0.041693f, -0.053065f, -0.009846f, 0.100555f, 0.022198f, -0.225821f, -0.189519f, 0.088528f, 0.129653f, -0.101370f, -0.216251f, 0.223531f, 0.092326f, -0.211025f, 0.106237f, 0.131592f, 0.102676f, 0.195105f, -0.237091f, -0.010801f, -0.232556f, 0.125759f, 0.134722f, -0.091953f, 0.054868f, -0.043984f, 0.176214f, 0.086886f, 0.203073f, -0.167776f, 0.156681f, -0.176008f, -0.091122f, -0.132965f, 0.087621f, 0.220670f, 0.265930f, -0.093527f, 0.179908f, 0.118269f, 0.088539f, 0.134401f, -0.226272f, -0.146399f, -0.190668f, -0.121727f, 0.031639f, 0.101310f, 0.297179f, -0.250572f, -0.010518f, 0.180174f, -0.050800f, 0.100562f, -0.231038f, -0.241874f, 0.132512f, -0.126170f, -0.280826f, 0.212904f, 0.269236f, -0.034976f, -0.027618f, -0.247936f, 0.153474f, 0.061116f, -0.234272f, -0.090208f, -0.109768f, -0.166093f, 0.090920f, -0.196693f, 0.231778f, 0.051670f, -0.135347f, -0.198786f, -0.145461f, 0.003377f, 0.144075f, -0.069025f, 0.225019f, -0.212585f, 0.154063f, 0.078759f, -0.145598f, -0.104632f, 0.242390f, 0.236036f, 0.140157f, -0.219352f, -0.025673f, -0.196165f, 0.128145f, 0.120035f, 0.027929f, 0.121701f, 0.156740f, 0.131318f, 0.199501f, -0.212064f, -0.191397f, 0.231276f, -0.013011f, 0.140355f, -0.239104f, -0.013900f, 0.014160f, -0.064327f, 0.022284f, -0.114202f, -0.075970f, 0.162364f, 0.093202f, 0.111947f, 0.228497f, 0.145215f, 0.045707f, -0.244249f, -0.175801f, -0.002885f, -0.136204f, -0.016013f, -0.186852f, 0.019100f, -0.124298f, 0.047729f, -0.179251f, -0.212410f, -0.046906f, 0.032738f, 0.212728f, 0.129824f, 0.011529f, 0.178811f, -1.102008f, -0.072139f, -0.491277f, -0.010260f, -0.089411f, 0.220016f, -0.219010f, -0.862604f, -0.514146f, -0.219078f, -0.027508f, 0.118706f, -0.544021f, 0.061567f, -0.181984f, -0.225529f, -0.429576f, -0.175750f, -0.077287f, 0.003524f, -0.198407f, 0.089827f, 0.098333f, 0.182317f, -0.503650f, -0.543604f, 0.218049f, -0.778548f, -0.097081f, -0.114829f, -0.043826f, 0.017099f, 0.239749f, -0.177090f, 0.106466f, -0.000454f, -0.114014f, -0.058442f, -0.023360f, 0.067840f, -0.778102f, -0.060956f, 0.183878f, 0.039755f, -0.657255f, -0.039295f, 0.006007f, -0.009624f, 0.045503f, -0.019567f, -0.092635f, -0.010772f, -0.122414f, 0.072135f, 0.137179f, 0.058901f, -0.760564f, -0.162456f, 0.004835f, -0.971512f, -0.020200f, -0.215506f, 0.209357f, 0.246690f, -0.160447f, -0.104127f, 0.155471f, 0.181835f, -0.055827f, -0.064610f, 0.132390f, -0.094555f, 0.114936f, -0.022887f, -0.094377f, 0.163335f, -0.078542f, -0.056549f, -0.190912f, -0.135274f, -0.044012f, -0.133659f, -0.240177f, 0.116718f, 0.059932f, 0.151505f, 0.158375f, 0.198818f, 0.131855f, -0.214038f, -0.169265f, 0.030843f, 0.110695f, -0.201981f, 0.156452f, -0.246833f, -0.141115f, 0.032126f, 0.188674f, 0.004438f, -0.125108f, 0.144635f, 0.159464f, 0.234319f, 0.221639f, -0.226190f, 0.059157f, -0.226096f, 0.036465f, 0.235688f, 0.096232f, -0.108853f, 0.183204f, -0.009661f, -0.127161f, -0.029887f, 0.242724f, -0.046152f, 0.022955f, -0.137525f, 0.024372f, 0.083178f, 0.189727f, -0.239576f, 0.080122f, 0.100711f, 0.183052f, 0.091007f, -0.154383f, -0.184911f, 0.074052f, -0.188523f, 0.083629f, 0.113106f, -0.174729f, 0.077485f, 0.215433f, -0.071262f, -0.249646f, -0.192736f, -0.144238f, 0.120556f, 0.091791f, -0.012641f, -0.248797f, -0.146487f, -0.231064f, 0.234114f, -0.042870f, 0.158383f, 0.092461f, 0.181197f, 0.143266f, 0.135855f, 0.065014f, 0.063976f, -0.128004f, -0.077891f, 0.008976f, -0.016825f, 0.021669f, -0.003081f, -0.035986f, -0.030483f, -0.169687f, -0.357304f, -0.007082f, -0.194887f, 0.010029f, 0.015898f, 0.155835f, 0.108854f, 0.114674f, 0.063998f, -0.026521f, 0.002370f, -0.116391f, 0.038372f, 0.181421f, 0.119406f, -0.020895f, 0.226085f, 0.147915f, 0.048318f, 0.146989f, -0.156142f, 0.097439f, -0.010109f, -0.106610f, 0.053888f, -0.234884f, -0.020063f, 0.215580f, -0.061001f, -0.115243f, -0.116000f, 0.198299f, -0.184563f, -0.242958f, -0.051843f, 0.180776f, -0.157851f, -0.064559f, 0.128241f, 0.080448f, 0.201943f, 0.023611f, 0.003378f, -0.206591f, 0.073046f, -0.041151f, -0.200085f, 0.134260f, 0.160618f, 0.126369f, -0.104178f, -0.237221f, -0.130439f, -0.249851f, -0.072018f, -0.054289f, -0.109697f, -0.015253f, -0.138292f, -0.087727f, -0.202045f, 0.082741f, 0.160937f, -0.012843f, 0.035817f, -0.184562f, -0.153628f, 0.035111f, -0.016625f, 0.171306f, 0.118781f, -0.142944f, -0.096586f, 0.042209f, 0.115657f, 0.059080f, -0.023728f, 0.148420f, -0.088750f, -0.240760f, 0.178531f, -0.161955f, 0.061789f, -0.049107f, -0.172903f, -0.038511f, 0.086479f, 0.240486f, -0.087469f, -0.075777f, -0.001812f, 0.179466f, 0.077939f, 0.070833f, 0.199093f, 0.076689f, -0.108487f, -0.056169f, 0.020144f, 0.145271f, -0.026523f, -0.021340f, 0.099643f, -0.192214f, -0.134346f, -0.216694f, 0.046489f, 0.063861f, 0.107804f, 0.280741f, -0.002258f, 0.167664f, 0.139068f, 0.214303f, 0.177241f, -0.113131f, -0.071393f, 0.177528f, -0.160639f, -0.159894f, -0.027370f, 0.195216f, 0.062932f, -0.227166f, 0.157062f, 0.138755f, -0.229436f, -0.205101f, -0.041526f, 0.194929f, 0.042309f, -0.163242f, -0.058702f, 0.022758f, -0.249692f, 0.104545f, 0.153607f, 0.140988f, 0.043879f, -0.201979f, 0.099008f, -0.003666f, 0.245766f, 0.048376f, 0.187034f, 0.101197f, 0.078894f, -0.110727f, -0.230409f, 0.207793f, 0.229132f, 0.154158f, 0.008876f, 0.125197f, 0.078183f, 0.045516f, -0.144390f, 0.035234f, 0.207018f, -0.080166f, 0.104513f, -0.282773f, -0.074672f, -0.036800f, -0.107002f, -0.038681f, 0.024588f, 0.000484f, 0.133059f, -0.024829f, -0.098935f, 0.193909f, -0.044579f, 0.159656f, 0.113807f, -0.108921f, -0.081874f, -0.183344f, 0.084415f, 0.064501f, 0.001546f, -0.152026f, -0.008979f, -0.114203f, -0.196005f, 0.091597f, 0.018266f, 0.135755f, -0.068721f, -0.273631f, 0.044933f, -0.216242f, 0.099802f, -0.193320f, 0.052472f, -0.246042f, -0.046864f, 0.047571f, 0.143248f, -0.011345f, 0.113726f, -0.102309f, -0.049104f, -0.266336f, -0.030629f, 0.151420f, 0.057725f, -0.010981f, 0.089591f, 0.220992f, 0.003560f, 0.370932f, 0.056226f, -0.311349f, -0.192837f, -0.151004f, -0.017332f, 0.134381f, 0.122040f, 0.114443f, 0.147016f, -0.064925f, -0.028987f, -0.236751f, -0.095686f, -0.106941f, -0.139387f, -0.103367f, 0.141725f, 0.127613f, -0.003465f, 0.114039f, 0.143758f, 0.163613f, 0.144818f, -0.035847f, -0.111025f, -0.175440f, -0.117683f, 0.023383f, -0.024378f, 0.140111f, -0.037629f, -0.190208f, 0.158558f, 0.159443f, -0.093874f, -0.204166f, 0.005347f, -0.228140f, 0.166420f, -0.043265f, -0.033998f, 0.078423f, 0.023260f, 0.089003f, 0.176731f, -0.001554f, -0.107704f, 0.048556f, -0.096811f, -0.232349f, -0.061945f, -0.180764f, -0.207078f, -0.125312f, -0.104979f, 0.119500f, -0.078174f, -0.080940f, -0.142955f, 0.087322f, -0.219922f, -0.044532f, -0.048169f, 0.011643f, -0.124272f, 0.066453f, 0.080754f, -0.021797f, -0.171292f, 0.201085f, 0.041866f, -0.189656f, -0.157541f, 0.166402f, 0.275412f, 0.046422f, -0.224761f, 0.036879f, 0.139926f, -0.250985f, -0.038897f, -0.050648f, 0.232641f, 0.085178f, 0.180952f, -0.131303f, -0.076216f, -0.222306f, -0.192243f, -0.008101f, -0.112220f, -0.011350f, 0.107738f, -0.143810f, -0.010800f, -0.107381f, 0.104236f, -0.206633f, -0.187687f, -0.024993f, 0.098691f, -0.119178f, 0.093193f, -0.010549f, -0.088353f, -0.257356f, 0.039897f, -0.271628f, 0.158717f, -0.032241f, -0.022329f, 0.017151f, -0.100221f, -0.093572f, -0.063463f, 0.082402f, 0.114764f, -0.057198f, -0.112228f, -0.200278f, 0.114403f, 0.075944f, 0.202783f, 0.091741f, 0.037271f, 0.142654f, 0.004817f, -0.163091f, 0.019519f, -0.220628f, 0.033285f, 0.013820f, 0.082109f, -0.177793f, 0.082265f, -0.117134f, -0.218157f, -0.078408f, -0.021255f, -0.121110f, 0.053081f, 0.248251f, -0.000546f, 0.154930f, -0.106537f, 0.134349f, -0.176183f, -0.023318f, 0.076656f, 0.126515f, 0.157743f, -0.214586f, -0.032046f, 0.160607f, -0.030078f, -0.223699f, 0.207880f, 0.228504f, 0.008826f, -0.062175f, -0.220440f, -0.141886f, -0.069252f, 0.128408f, -0.099086f, 0.200295f, 0.149602f, -0.020975f, -0.183827f, 0.212887f, -0.179935f, 0.135821f, 0.205197f, -0.135082f, 0.009833f, 0.069782f, 0.029867f, -0.017307f, -0.199027f, 0.077257f, -0.034850f, -0.100209f, 0.006059f, 0.010407f, -0.076671f, -0.103987f, 0.080535f, 0.114270f, 0.166726f, -0.049107f, 0.222351f, -0.022672f, -0.180687f, 0.211018f, -0.118453f, 0.112245f, 0.229043f, 0.120053f, -0.175662f, 0.188356f, 0.056849f, 0.190727f, 0.196058f, -0.044155f, -0.170548f, -0.114385f, -0.242907f, -0.126233f, -0.082677f, -0.132018f, -0.052551f, -0.225120f, 0.229217f, 0.023200f, -0.116386f, -0.242094f, 0.205570f, -0.035101f, -0.192210f, 0.146475f, 0.038430f, -0.137980f, 0.183427f, 0.211061f, -0.137617f, -0.215027f, -0.204245f, 0.064991f, -0.136004f, 0.124514f, 0.205639f, 0.055362f, -0.152847f, -0.042513f, 0.157872f, -0.198689f, -0.079523f, 0.003473f, 0.238733f, 0.082792f, -0.162236f, -0.159705f, 0.073066f, 0.238573f, -0.181017f, 0.025901f, 0.135328f, -0.004561f, -0.124251f, 0.082657f, 0.063252f, 0.100668f, 0.120595f, 0.238421f, -0.213390f, -0.103334f, 0.220804f, -0.040359f, -0.092373f, 0.117633f, 0.012127f, -0.104844f, 0.145047f, 0.039412f, -0.028255f, -0.229075f, -0.060577f, -0.049185f, 0.040300f, 0.121505f, -0.197481f, 0.076669f, -0.137526f, -0.043584f, -0.215158f, 0.087435f, 0.091586f, -0.062174f, -0.155457f, 0.057664f, 0.099023f, -0.195459f, 0.115168f, 0.133866f, 0.264319f, -0.217915f, -0.069982f, -0.182567f, 0.188782f, -0.087666f, -0.210937f, -0.046942f, -0.056842f, -0.038632f, 0.133280f, -0.063549f, 0.222024f, 0.013930f, 0.142397f, 0.126819f, 0.138452f, 0.053509f, 0.062072f, -0.013185f, -0.225142f, -0.025726f, 0.038724f, 0.045275f, -0.227050f, -0.079111f, -0.253513f, 0.121733f, -0.073859f, -0.069089f, 0.136111f, 0.161103f, -0.153728f, -0.220324f, 0.054914f, 0.076891f, -0.079771f, 0.031289f, 0.011212f, 0.064010f, 0.115653f };
static const float smart_grid_model_layer_2_biases[1] = { 0.393956f };
static const float smart_grid_model_layer_2_weights[32] = { 0.108613f, 0.262580f, 0.154475f, 0.038124f, 0.397885f, -0.127264f, -0.092245f, 0.101834f, -0.123816f, 0.091485f, 0.480542f, -0.043179f, 0.075674f, 0.036477f, 0.447767f, 0.044500f, 0.189783f, -0.039992f, 0.080313f, -0.120158f, 0.068849f, -0.022269f, -0.240233f, -0.169064f, 0.044920f, -0.035171f, 0.709671f, 0.046125f, 0.099552f, 0.217610f, -0.196429f, -0.218429f };
static float smart_grid_model_buf1[64];
static float smart_grid_model_buf2[64];
static const EmlNetLayer smart_grid_model_layers[3] = { 
{ 64, 7, smart_grid_model_layer_0_weights, smart_grid_model_layer_0_biases, EmlNetActivationRelu }, 
{ 32, 64, smart_grid_model_layer_1_weights, smart_grid_model_layer_1_biases, EmlNetActivationRelu }, 
{ 1, 32, smart_grid_model_layer_2_weights, smart_grid_model_layer_2_biases, EmlNetActivationIdentity } };
static EmlNet smart_grid_model = { 3, smart_grid_model_layers, smart_grid_model_buf1, smart_grid_model_buf2, 64 };

    int32_t
    smart_grid_model_predict(const float *features, int32_t n_features)
    {
        return eml_net_predict(&smart_grid_model, features, n_features);
    }
    

    int32_t
    smart_grid_model_regress(const float *features, int32_t n_features, float *out, int32_t out_length)
    {
        return eml_net_regress(&smart_grid_model, features, n_features, out, out_length);
    }
    

    float
    smart_grid_model_regress1(const float *features, int32_t n_features)
    {
        return eml_net_regress1(&smart_grid_model, features, n_features);
    }
    