
#include <eml_net.h>
static const float smart_grid_model_consumption_layer_0_biases[64] = { -0.136595f, -0.226295f, 0.000000f, 0.000000f, 0.000000f, 0.000000f, 0.000000f, 0.000000f, 0.000000f, -0.137913f, 0.000000f, 0.000000f, 0.000000f, 0.000000f, 0.000000f, 0.000000f, 0.000000f, -0.042483f, -0.166714f, 0.000000f, 0.000000f, -0.143926f, 0.000000f, 0.000000f, -0.211259f, 0.000000f, -0.023093f, -0.203683f, 0.000000f, 0.000000f, -0.089695f, -0.116291f, -0.083900f, -0.217979f, -0.230746f, 0.000000f, -0.293696f, -0.070604f, -0.239241f, 0.000000f, -0.086364f, 0.000000f, -0.175286f, -0.177027f, 0.000000f, 0.000000f, -0.175268f, 0.000000f, -0.006264f, -0.127431f, -0.012670f, 0.000000f, 0.000000f, 0.000000f, 0.000000f, 0.000000f, 0.000000f, 0.000000f, -0.104902f, 0.000000f, -0.214938f, -0.127201f, -0.229650f, -0.196882f };
static const float smart_grid_model_consumption_layer_0_weights[448] = { 0.014536f, -0.003402f, -0.218105f, -0.281066f, -0.282887f, -0.118457f, -0.105735f, -0.257222f, -0.038536f, 0.028129f, -0.140601f, -0.123268f, -0.269931f, -0.030238f, -0.021265f, -0.119254f, -0.238404f, -0.002201f, 0.014873f, -0.204992f, -0.036550f, 0.012768f, -0.026540f, -0.095906f, 0.036610f, -0.030949f, -0.037232f, 0.033083f, 0.001792f, -0.035199f, -0.008078f, 0.026176f, -0.048773f, -0.012534f, 0.015498f, -0.284440f, -0.012516f, -0.018132f, 0.002683f, -0.025488f, -0.010860f, -0.035549f, 0.017779f, 0.015506f, -0.050761f, -0.274456f, -0.000749f, -0.048491f, 0.016116f, -0.003033f, -0.021059f, -0.108238f, -0.066269f, -0.265373f, -0.152394f, -0.016992f, -0.123125f, -0.236034f, 0.002134f, -0.222159f, -0.018377f, 0.034873f, -0.007307f, 0.036822f, 0.028298f, -0.007782f, 0.022854f, 0.246589f, -0.247767f, 0.066922f, 0.032194f, -0.146051f, -0.259786f, -0.177431f, -0.110370f, 0.263193f, -0.247808f, 0.261773f, -0.264076f, -0.169784f, 0.053248f, -0.234008f, 0.022749f, 0.002081f, -0.014242f, 0.124856f, 0.226777f, -0.024923f, -0.198917f, -0.258702f, 0.086336f, -0.368271f, 0.057123f, 0.233373f, 0.001252f, -0.064344f, -0.009689f, 0.064087f, -0.225537f, -0.148574f, -0.139795f, 0.031982f, -0.029143f, 0.115457f, -0.000548f, 0.052294f, -0.100282f, 0.012678f, 0.069457f, 0.283732f, -0.138325f, 0.118502f, -0.187185f, 0.112145f, -0.042834f, -0.177705f, -0.172805f, 0.266194f, 0.255362f, 0.262777f, 0.184043f, 0.201324f, -0.080489f, -0.145501f, -0.000441f, -0.201373f, -0.019096f, -0.163231f, -0.059588f, -0.002964f, 0.209749f, 0.173447f, -0.060922f, 0.026309f, 0.045242f, -0.000691f, 0.255294f, -0.059416f, -0.147426f, -0.266309f, 0.184435f, 0.247567f, 0.138408f, -0.232958f, -0.053095f, 0.191566f, 0.038968f, -0.064011f, 0.182944f, 0.043153f, -0.178246f, -0.178104f, -0.102351f, 0.079574f, 0.035568f, -0.221846f, -0.075383f, 0.139121f, -0.030130f, -0.078504f, -0.015743f, -0.026430f, -0.080420f, -0.199920f, -0.089191f, -0.033614f, -0.054801f, 0.268109f, -0.002895f, 0.283174f, -0.025837f, 0.012706f, -0.197336f, -0.078722f, -0.064180f, -0.021736f, -0.183583f, 0.095896f, 0.111458f, 0.117575f, -0.213064f, -0.189170f, 0.086848f, -0.054226f, -0.169476f, -0.031750f, -0.040275f, 0.190650f, 0.002793f, -0.126725f, -0.002925f, -0.100148f, -0.168535f, -0.042754f, -0.176564f, -0.080764f, 0.029006f, -0.000330f, 0.148477f, -0.186276f, -0.104389f, 0.004391f, -0.151976f, 0.065128f, -0.153287f, -0.009821f, 0.230407f, 0.272183f, 0.062111f, -0.304780f, -0.146083f, 0.273478f, -0.021431f, -0.132744f, -0.282016f, -0.179443f, 0.040367f, 0.070311f, -0.008601f, -0.167732f, -0.120935f, 0.024598f, 0.018386f, 0.029036f, 0.010039f, -0.093810f, 0.015719f, -0.113057f, -0.046969f, -0.018562f, -0.047726f, -0.232821f, -0.003090f, 0.001886f, 0.050427f, -0.050431f, 0.157078f, -0.009204f, -0.031916f, 0.036901f, 0.158717f, -0.103815f, -0.254791f, -0.281027f, -0.150264f, 0.132441f, 0.231530f, -0.135480f, -0.173946f, -0.206080f, 0.030451f, 0.260955f, 0.000197f, 0.014694f, 0.002627f, -0.137372f, -0.292375f, -0.007168f, -0.279203f, -0.162855f, 0.124842f, 0.186023f, 0.235236f, 0.281465f, -0.031462f, -0.286442f, 0.118038f, -0.136935f, 0.092034f, -0.238998f, -0.077920f, 0.251988f, -0.045037f, -0.005818f, -0.292721f, -0.148436f, -0.075339f, -0.186287f, -0.254228f, 0.277049f, -0.337615f, -0.007436f, 0.223416f, -0.340209f, -0.287436f, -0.126040f, 0.051025f, -0.289718f, 0.276967f, -0.010672f, -0.279280f, 0.183949f, -0.063139f, 0.145818f, -0.200573f, -0.013350f, 0.076139f, -0.200506f, -0.150367f, -0.332758f, -0.047436f, -0.020319f, -0.075796f, 0.262265f, -0.168256f, -0.186645f, 0.086845f, 0.193151f, 0.065327f, -0.071671f, 0.242001f, -0.189746f, -0.167419f, 0.147404f, -0.015252f, 0.071749f, 0.142768f, -0.323499f, -0.202757f, -0.339932f, 0.646126f, 1.018590f, -0.062307f, 0.283211f, -0.057143f, -0.137194f, -0.290039f, -0.019385f, -0.111500f, -0.628379f, -0.016892f, 0.161036f, -0.274169f, -0.105007f, 0.275854f, -0.063694f, 0.117871f, -0.266946f, 0.617677f, 0.004068f, -0.051832f, 0.195500f, -0.248309f, 0.069963f, -0.598388f, -0.099534f, 0.272012f, 0.089333f, 0.146205f, 0.107525f, 1.141815f, -0.687343f, 0.748404f, 0.536542f, 0.562223f, 0.059859f, 0.727899f, -1.006112f, 0.702497f, -0.197401f, 1.302998f, -0.205134f, -0.874973f, 0.740761f, -0.178988f, 0.176657f, 0.370687f, 0.215287f, -0.225136f, 0.763273f, 0.148977f, 0.217026f, -0.057333f, 0.155730f, 0.146812f, 0.268599f, -0.034467f, -0.152494f, -0.893819f, -0.166781f, 1.230449f, -0.131739f, 1.008659f, -0.032170f, 0.096515f, -0.126273f, 0.171207f, -0.022458f, -0.235517f, 0.082762f, -0.165130f, -0.260885f, -0.288508f, -0.133285f, -0.094770f, -0.093626f, 0.145951f, -0.091586f, -0.125668f, 0.289458f, 0.235159f, -0.004792f, -0.389360f, 0.233001f, 0.280977f, -0.332675f, -0.035554f, -0.163228f, -0.027632f, -0.196946f, -0.024557f, -0.387468f, 0.239195f, -0.074456f, -0.063017f, -0.240610f, -0.205097f, -0.327896f, -0.387134f, -0.270306f, -0.533955f, -0.301476f, -0.283364f, -0.028511f, 0.044026f, 0.120815f, -0.332936f, -0.118145f, -0.013015f, -0.206512f, -0.300124f, -0.248694f, -0.207263f, -0.030158f, -0.004782f, -0.208145f, -0.120408f, 0.227938f, 0.261146f, 0.276811f, -0.105204f, 0.053239f, 0.194595f, -0.288699f, -0.001536f, 0.046154f, -0.011596f, -0.090289f };
static const float smart_grid_model_consumption_layer_1_biases[32] = { -0.444627f, -0.244310f, 0.270099f, -0.326434f, 0.225017f, -0.191074f, 0.000318f, 0.586514f, 1.118282f, -0.036805f, 0.430448f, -0.079853f, -0.685094f, 0.331427f, 0.253993f, -0.178242f, -0.125539f, 0.004832f, 0.444214f, -0.164851f, 0.660588f, -0.741794f, -0.384562f, -0.320692f, 1.499653f, 0.605049f, -0.254410f, 0.640084f, -0.052077f, 0.523091f, -0.137742f, -0.078319f };
static const float smart_grid_model_consumption_layer_1_weights[2048] = { 0.012423f, 0.138494f, -0.185174f, 0.210693f, 0.229342f, -0.112461f, -0.048931f, -0.168200f, 0.101516f, 0.284431f, 0.033066f, 0.080861f, 0.146222f, 0.225142f, 0.041195f, 0.114834f, -0.258932f, 0.276619f, 0.143792f, -0.140117f, -0.239959f, -0.018869f, -0.050092f, -0.041613f, -0.048825f, -0.253912f, -0.162257f, 0.113004f, -0.020787f, 0.011956f, -0.029558f, 0.006658f, -0.048662f, 0.191223f, -0.024751f, 0.083889f, -0.156053f, -0.065762f, -0.097485f, 0.001923f, -0.205266f, 0.011054f, 0.031426f, 0.083363f, -0.004541f, -0.003021f, -0.110734f, 0.057133f, -0.130754f, -0.018955f, 0.260344f, -0.002261f, 0.150505f, -0.086295f, -0.002060f, -0.167789f, 0.060833f, -0.040853f, -0.175491f, 0.113953f, 0.023821f, 0.060667f, -0.168407f, -0.004430f, 0.142608f, 0.051287f, -0.237006f, -0.074896f, -0.103882f, -0.142857f, -0.195401f, -0.161220f, 0.196071f, -0.185792f, 0.039681f, 0.241747f, 0.105293f, -0.237916f, -0.183193f, 0.169118f, 0.079023f, 0.236690f, 0.080085f, -0.008247f, -0.109195f, 0.100720f, 0.162758f, -0.195902f, -0.189116f, -0.213617f, -0.210279f, -0.098853f, 0.130036f, -0.242182f, 0.032434f, -0.128944f, 0.140803f, 0.241981f, 0.026570f, 0.119952f, 0.227142f, -0.077297f, -0.047776f, -0.033734f, 0.094845f, -0.106728f, -0.059972f, -0.012914f, -0.234973f, 0.119181f, 0.024289f, -0.037540f, 0.087842f, 0.203138f, 0.093042f, 0.225383f, 0.240632f, 0.164095f, -0.114769f, 0.005733f, -0.231369f, -0.133449f, 0.076906f, 0.109213f, 0.067987f, 0.225422f, -0.170845f, 0.243001f, -0.202550f, 0.052611f, 0.240963f, -0.081825f, -0.048503f, 0.024839f, 0.116183f, 0.237993f, -0.052311f, 0.047969f, -0.181412f, -0.044644f, 0.177565f, 0.188447f, 0.161098f, -0.096982f, -0.036124f, 0.063171f, 0.011916f, 0.033413f, 0.099484f, -0.016732f, -0.147687f, 0.225538f, 0.132980f, -0.022153f, -0.023127f, -0.022454f, -0.228722f, 0.208859f, 0.196087f, 0.172229f, 0.166192f, -0.145098f, 0.070220f, 0.108240f, 0.075041f, 0.121195f, 0.219247f, 0.164848f, -0.155924f, -0.071764f, 0.035222f, -0.142461f, -0.185610f, 0.025334f, -0.124263f, 0.159669f, 0.016621f, -0.121719f, -0.109784f, -0.218052f, 0.064893f, -0.179701f, -0.107701f, -0.160367f, 0.202795f, 0.094987f, -0.041949f, -0.115407f, 0.184281f, 0.033926f, -0.169285f, -0.139166f, 0.202871f, 0.231050f, -0.127616f, -0.232457f, -0.113475f, -0.204188f, 0.196418f, -0.180687f, 0.162358f, -0.006704f, 0.101279f, -0.181348f, -0.049674f, -0.232519f, -0.169458f, -0.043112f, -0.093014f, -0.202929f, 0.009553f, 0.010303f, -0.169486f, 0.236819f, 0.143654f, 0.037344f, 0.072870f, -0.196678f, 0.030760f, -0.014549f, 0.220838f, 0.157907f, 0.190180f, 0.110337f, 0.051920f, 0.234060f, -0.034780f, -0.181872f, -0.068895f, 0.196617f, 0.064069f, 0.187698f, 0.123005f, 0.162679f, 0.210014f, -0.021093f, -0.227637f, -0.026205f, 0.121176f, 0.072041f, 0.181753f, -0.075093f, -0.100906f, -0.084290f, -0.178533f, -0.238646f, 0.063131f, -0.146644f, -0.200067f, -0.065001f, 0.035211f, -0.197313f, 0.059059f, 0.040271f, 0.205523f, 0.247966f, -0.235114f, -0.088327f, 0.024008f, 0.110542f, -0.153767f, 0.048849f, 0.093301f, 0.132619f, 0.210811f, 0.166825f, 0.028448f, 0.129842f, 0.237681f, 0.139788f, 0.041303f, -0.125208f, -0.037524f, -0.084811f, -0.052216f, 0.081165f, 0.095711f, 0.068357f, 0.059122f, -0.194205f, 0.062450f, 0.209938f, -0.113754f, -0.114022f, 0.222841f, 0.021847f, -0.169637f, 0.145995f, 0.010788f, 0.141076f, -0.073906f, -0.123709f, -0.178276f, -0.057151f, 0.240435f, 0.081459f, -0.197729f, 0.225928f, 0.105278f, -0.083851f, -0.000431f, -0.066396f, -0.075197f, -0.024952f, -0.242916f, 0.099284f, 0.101121f, -0.109230f, -0.201352f, 0.095831f, 0.061895f, 0.048663f, -0.199390f, 0.128942f, -0.113219f, -0.261766f, 0.208068f, 0.139641f, -0.027633f, -0.027870f, -0.239621f, -0.231629f, -0.248019f, 0.190876f, -0.160205f, 0.193805f, 0.168642f, -0.028342f, 0.038745f, 0.188575f, 0.135584f, 0.214030f, 0.034065f, 0.071731f, 0.014288f, -0.006356f, -0.153318f, 0.108702f, 0.229981f, 0.180955f, 0.209870f, 0.185111f, 0.156886f, -0.111675f, -0.098620f, -0.025736f, -0.009221f, -0.110304f, -0.101549f, 0.186913f, 0.000540f, 0.085508f, -0.110833f, -0.104080f, 0.130423f, 0.138186f, -0.202106f, 0.147825f, -0.239942f, -0.141118f, 0.128371f, 0.078860f, -0.211655f, 0.248651f, 0.074781f, 0.009004f, 0.003247f, -0.198543f, 0.219234f, -0.193459f, -0.012897f, -0.195537f, -0.196268f, -0.110924f, 0.067155f, -0.110936f, 0.210042f, -0.216598f, -0.203371f, 0.139655f, -0.113276f, -0.186855f, 0.154924f, 0.001440f, -0.118411f, -0.205253f, 0.237050f, -0.022367f, 0.217814f, -0.066781f, -0.116262f, 0.100161f, -0.185507f, -0.063776f, -0.034139f, 0.035421f, -0.064843f, -0.231274f, -0.077753f, 0.141740f, 0.246312f, -0.203382f, 0.044731f, 0.060822f, -0.231693f, -0.050813f, 0.005642f, -0.218142f, -0.002519f, 0.051088f, -0.070955f, 0.048938f, -0.157947f, 0.135482f, 0.152902f, 0.214310f, 0.155909f, -0.020686f, -0.099790f, 0.049391f, -0.000815f, 0.215486f, -0.117429f, 0.160568f, 0.027878f, 0.201011f, 0.225225f, -0.234873f, 0.000190f, -0.109744f, -0.103198f, -0.169156f, -0.161682f, 0.205445f, 0.232440f, -0.247903f, -0.120493f, -0.020554f, -0.120518f, -0.222520f, 0.048804f, -0.115487f, 0.036511f, -0.052610f, -0.048520f, -0.027526f, 0.177952f, -0.190135f, 0.224978f, 0.045769f, 0.212743f, 0.034622f, -0.052519f, 0.190118f, -0.021791f, -0.130673f, 0.007561f, -0.199078f, -0.058544f, 0.243295f, 0.121372f, -0.012326f, 0.222926f, 0.007142f, -0.184891f, -0.190038f, -0.146379f, 0.202154f, -0.104690f, 0.086361f, 0.052047f, -0.027653f, -0.073461f, -0.243972f, -0.078369f, -0.142517f, -0.055028f, -0.047180f, -0.174807f, 0.056543f, 0.201701f, -0.178966f, 0.184505f, 0.056468f, -0.124603f, 0.194197f, -0.025083f, 0.043447f, -0.240809f, -0.042464f, 0.043861f, 0.216403f, 0.078136f, -0.205036f, 0.100423f, 0.200429f, 0.091537f, -0.165755f, 0.220177f, -0.168882f, -0.087100f, -0.050048f, 0.145373f, -0.075921f, -0.156304f, -0.107451f, -0.194086f, -0.070382f, 0.179559f, 0.210234f, -0.101851f, -0.081421f, 0.170371f, 0.137997f, 0.197552f, -0.110517f, 0.199882f, -0.155117f, -0.060351f, -0.129766f, 0.171968f, -0.244553f, -0.211939f, 0.236427f, -0.214645f, -0.209540f, -0.197366f, -0.216289f, 0.052269f, 0.245623f, 0.184848f, 0.019689f, -0.153765f, -0.077157f, -0.006984f, -0.152875f, -0.034609f, -0.197600f, 0.197713f, -0.072821f, -0.244102f, 0.117419f, 0.228040f, -0.095820f, 0.138082f, -0.187278f, 0.176059f, -0.200394f, 0.163940f, -0.128757f, 0.087138f, -0.083707f, 0.038540f, 0.117126f, 0.047765f, 0.171558f, 0.161668f, -0.217733f, 0.017293f, 0.159453f, -0.115703f, 0.206055f, 0.148919f, 0.119491f, -0.018154f, 0.184166f, -0.061541f, -0.101227f, -0.144873f, -0.108022f, -0.034502f, -0.039911f, 0.088030f, -0.245498f, 0.065593f, -0.224559f, -0.165306f, -0.116125f, -0.032281f, -0.032213f, 0.172350f, 0.050946f, -0.017681f, 0.162242f, 0.028771f, 0.236900f, 0.120765f, -0.073090f, 0.082103f, 0.101990f, -0.088845f, 0.234145f, -0.287471f, -0.052214f, -0.142315f, 0.181849f, -0.058438f, -0.167273f, -0.034122f, -0.115387f, -0.033535f, -0.095926f, -0.285055f, -0.184676f, -0.110092f, 0.111489f, -0.102516f, 0.188661f, 0.043376f, 0.095719f, 0.109444f, 0.200469f, 0.095104f, -0.232147f, -0.178988f, 0.160133f, 0.127714f, 0.231399f, 0.137633f, -0.191604f, -0.243352f, 0.135942f, -0.066536f, -0.178661f, 0.166059f, 0.088005f, 0.007200f, 0.115805f, -0.142852f, -0.249855f, 0.113552f, 0.120964f, 0.246231f, -0.174813f, -0.081167f, 0.090182f, -0.076127f, -0.127871f, -0.054201f, -0.145576f, 0.075158f, -0.000152f, 0.010472f, -0.195280f, 0.157298f, -0.057580f, -0.038040f, 0.232120f, -0.206600f, 0.187263f, -0.059384f, 0.219248f, -0.064965f, -0.017184f, 0.201624f, -0.057366f, -0.134557f, -0.142339f, -0.245366f, -0.018064f, 0.050833f, 0.200554f, 0.136464f, 0.183246f, 0.110111f, -0.163724f, 0.162077f, -0.241819f, -0.165888f, -0.091663f, 0.008964f, 0.201771f, -0.168269f, -0.021686f, -0.167514f, -0.031831f, -0.074393f, -0.210036f, 0.196711f, -0.137286f, -0.237101f, 0.210506f, 0.009974f, 0.012540f, 0.022593f, 0.232138f, 0.171462f, -0.190623f, 0.046219f, 0.229038f, 0.094309f, 0.151705f, 0.138487f, -0.117205f, -0.013902f, -0.083442f, -0.063220f, -0.216977f, -0.045300f, 0.042834f, 0.241541f, 0.350303f, -0.072346f, 0.120265f, -0.240400f, 0.037848f, -0.045147f, -0.108385f, 0.130507f, 0.119963f, 0.229296f, 0.140676f, 0.090451f, 0.044355f, 0.148853f, -0.005641f, -0.070148f, 0.077586f, -0.244236f, 0.043638f, 0.057056f, 0.040299f, -0.230190f, -0.078205f, -0.225285f, 0.114478f, -0.060862f, -0.054184f, -0.180657f, -0.122275f, 0.065873f, -0.050021f, 0.137212f, -0.179705f, -0.000976f, 0.212535f, -0.186229f, 0.111815f, 0.225582f, -0.028328f, -0.040177f, 0.159470f, -0.171793f, -0.099594f, -0.057282f, -0.218842f, -0.218614f, -0.193010f, 0.126169f, -0.142056f, 0.125709f, 0.123127f, 0.005153f, 0.132085f, -0.003028f, 0.119890f, -0.240530f, 0.071514f, -0.003994f, -0.084560f, -0.212897f, -0.177585f, -0.115447f, 0.148919f, -0.128600f, -0.111319f, -0.053069f, -0.046182f, 0.099625f, -0.126300f, -0.055336f, 0.240652f, 0.137276f, 0.127639f, 0.117550f, 0.078708f, -0.241331f, 0.103198f, 0.175769f, -0.126744f, -0.173189f, 0.212848f, 0.196048f, 0.050796f, -0.185878f, 0.089861f, -0.162888f, -0.135388f, -0.051238f, -0.158225f, 0.017779f, 0.066312f, -0.214057f, 0.116219f, 0.103940f, 0.028481f, 0.193988f, 0.079147f, -0.056464f, 0.142090f, -0.176389f, -0.236171f, 0.161355f, -0.074206f, -0.191472f, 0.000201f, -0.087367f, -0.020663f, 0.177501f, 0.054144f, 0.102126f, -0.073178f, -0.094187f, -0.021625f, -0.147123f, -0.061544f, 0.100479f, -0.128527f, -0.158628f, -0.105966f, -0.172380f, -0.193979f, -0.235148f, -0.028150f, -0.021589f, -0.105620f, -0.071297f, 0.134048f, -0.022236f, -0.139844f, -0.059597f, -0.223213f, -0.209715f, 0.183062f, -0.059775f, 0.043438f, 0.100877f, -0.126560f, 0.018443f, -0.035476f, -0.043855f, 0.018712f, -0.071447f, -0.071942f, -0.016969f, 0.112748f, -0.095658f, -0.012715f, -0.000354f, 0.018318f, -0.136186f, 0.064396f, 0.076482f, 0.024446f, -0.118702f, -0.419027f, -0.126376f, 0.002332f, 0.117576f, 0.256346f, -0.173820f, 0.547052f, -0.305294f, -0.036671f, -0.001283f, 0.247108f, 0.025709f, 0.149589f, -0.145461f, -0.260047f, -0.112364f, 0.216178f, -0.163027f, 0.109854f, 0.159071f, -0.023755f, 0.114516f, 0.239770f, -0.008467f, 0.216207f, 0.057913f, 0.237175f, 0.000172f, -0.019219f, -0.169782f, -0.021781f, 0.174358f, -0.083557f, -0.083300f, 0.151328f, -0.030395f, 0.140350f, 0.004283f, -0.053768f, -0.057370f, -0.121261f, -0.047732f, 0.005240f, 0.249238f, 0.087810f, 0.130230f, -0.233567f, 0.210400f, -0.057598f, -0.097461f, 0.144322f, 0.021097f, 0.150360f, -0.054291f, 0.243551f, -0.033872f, -0.090932f, 0.119279f, 0.115259f, -0.091519f, -0.059401f, -0.135162f, 0.109084f, 0.092883f, -0.014484f, 0.223625f, 0.058499f, -0.198170f, 0.123235f, -0.102353f, -0.164050f, 0.199637f, 0.145392f, -0.043307f, 0.167612f, -0.133530f, -0.244596f, -0.218498f, -0.078566f, 0.132646f, 0.206338f, -0.065206f, -0.196661f, -0.116932f, -0.049978f, -0.160840f, -0.132071f, -0.232720f, 0.150654f, -0.054105f, 0.246680f, -0.111183f, -0.211184f, -0.180252f, -0.009944f, -0.059653f, 0.120479f, 0.064079f, -0.060025f, -0.200510f, -0.012443f, 0.160851f, -0.170196f, -0.216152f, -0.134715f, -0.004049f, 0.049908f, -0.039878f, -0.006363f, 0.148411f, -0.041384f, 0.087608f, 0.091662f, 0.075821f, 0.119440f, -0.160483f, 0.009616f, -0.112555f, -0.042685f, 0.143694f, 0.077914f, -0.778115f, 0.050951f, -0.036346f, -0.248433f, -0.941163f, -0.223267f, 0.394550f, -0.192539f, -1.037509f, 0.009327f, -0.036569f, 0.219934f, 0.086070f, 0.161550f, -0.170567f, 0.006039f, 0.062973f, 0.181617f, -0.270828f, 0.152296f, -0.117697f, -0.086536f, -0.090985f, -0.001042f, -0.181353f, -0.084398f, 0.167005f, 0.141390f, -0.184035f, -0.034413f, 0.199517f, -0.170363f, -0.269483f, 0.161021f, -0.073522f, -0.082655f, 0.008260f, 0.009975f, 0.062288f, 0.084028f, -0.208438f, 0.283124f, -0.155880f, -0.040450f, -0.015206f, 0.238291f, -0.019686f, 0.179554f, -0.016592f, 0.085529f, -1.023666f, 0.031485f, 0.198526f, -0.213037f, 0.138284f, 0.313641f, 0.105360f, -0.009550f, -0.054151f, -0.018404f, 0.234698f, 0.068096f, -0.111874f, 0.050039f, 0.270980f, 0.068516f, 0.112247f, -0.043824f, -0.263387f, 0.139874f, -0.240464f, -0.061728f, -0.000239f, -0.001295f, -0.259953f, -0.146244f, 0.017411f, -0.045347f, 0.171274f, -0.057235f, 0.150955f, 0.083001f, -0.090576f, -0.098939f, 0.099897f, -0.003215f, -0.082336f, -0.100481f, -0.128964f, 0.074335f, -0.147388f, 0.227737f, 0.091671f, 0.091058f, 0.209355f, 0.180359f, -0.096424f, -0.127809f, 0.226970f, 0.137044f, -0.218935f, -0.145975f, -0.121914f, -0.034178f, 0.173956f, -0.189614f, -0.089970f, -0.159043f, 0.065628f, -0.100316f, -0.011121f, 0.070956f, -0.234049f, 0.252234f, 0.043454f, 0.207817f, 0.213667f, -0.223960f, 0.120029f, 0.161146f, 0.026211f, 0.179345f, 0.073150f, 0.032995f, -0.022651f, -0.053945f, 0.078285f, 0.037828f, -0.100031f, -0.051404f, 0.074591f, -0.047214f, -0.153506f, -0.146446f, 0.038779f, -0.024651f, 0.265267f, -0.124113f, -0.058289f, -0.012041f, 0.120887f, 0.127462f, -0.025032f, 0.159079f, -0.134197f, 0.216837f, -0.215727f, -0.154118f, -0.239980f, -0.115522f, -0.226996f, 0.231589f, -0.135918f, -0.245080f, 0.019194f, 0.194879f, 0.189598f, -0.058297f, 0.078539f, -0.199051f, -0.236693f, -0.152537f, -0.170992f, 0.078786f, 0.238115f, 0.227944f, -0.189683f, 0.023792f, 0.178273f, -0.183877f, 0.084961f, -0.105307f, 0.155149f, -0.082383f, 0.011357f, -0.108931f, -0.105134f, 0.208681f, 0.093766f, 0.006237f, 0.182932f, -0.001851f, 0.209028f, 0.044377f, 0.019560f, 0.007775f, 0.164110f, 0.169702f, 0.051623f, -0.183159f, 0.021184f, 0.184318f, -0.088176f, -0.022392f, 0.178458f, 0.222714f, -0.140073f, -0.193042f, -0.024985f, -0.017638f, 0.060674f, 0.000868f, -0.180421f, 0.133958f, 0.204125f, 0.162888f, -0.023829f, 0.136350f, 0.099674f, 0.033483f, 0.014402f, 0.150512f, -0.127980f, 0.087945f, 0.009663f, 0.169969f, -0.210048f, 0.442615f, -0.078343f, 0.252630f, 0.320944f, -0.044095f, 0.096890f, 0.297427f, -0.134247f, -0.044407f, 0.117516f, 0.200248f, 0.044308f, 0.200428f, 0.164224f, 0.194732f, -0.268380f, 0.051517f, -0.210094f, 0.154617f, -0.190677f, -0.215752f, -0.369413f, -0.158806f, 0.019314f, -0.120703f, 0.101635f, -0.011663f, 0.086684f, -0.275209f, 0.202951f, 0.133422f, -0.043732f, 0.114232f, 0.011784f, 0.121218f, 0.032000f, -0.074919f, -0.082839f, -0.062728f, 0.249751f, 0.022424f, 0.055413f, 0.002946f, -0.154241f, -0.210230f, -0.218490f, -0.065069f, 0.013300f, -0.070234f, -0.049451f, 0.091829f, 0.168145f, 0.192297f, -0.077886f, -0.052669f, 0.099903f, -0.179873f, 0.006319f, 0.175126f, -0.228496f, 0.190235f, 0.015350f, 0.005279f, 0.070853f, 0.053709f, -0.015037f, 0.234938f, 0.095708f, -0.101157f, -0.176904f, -0.064657f, -0.217378f, -0.160960f, 0.127229f, -0.009717f, -0.133156f, 0.192672f, -0.220499f, -0.163939f, -0.155956f, -0.130294f, 0.206044f, 0.069930f, -0.171018f, 0.039070f, 0.209326f, -0.082253f, -0.261975f, -0.018723f, 0.019242f, 0.004552f, 0.172736f, -0.055712f, 0.195327f, -0.215514f, -1.479461f, 0.192709f, 0.170609f, 0.190495f, -0.003175f, 0.149475f, 0.201807f, 0.034145f, -0.695587f, 0.160212f, 0.046626f, 0.159943f, -0.719797f, -0.198594f, 0.111245f, -0.023949f, -0.978031f, -0.003382f, -0.123278f, -1.180178f, 0.001483f, 0.204342f, 0.477496f, 0.178195f, 0.040925f, -0.187932f, -0.079070f, -0.211113f, -0.247746f, -0.129065f, 0.015380f, -0.097440f, 0.053200f, 0.147366f, 0.050478f, -0.206479f, 0.075505f, -0.150321f, -0.109996f, 0.018119f, 0.012246f, 0.004705f, -0.229046f, 0.187037f, 0.156734f, -0.183997f, -0.038697f, -0.085969f, -0.106152f, -0.149919f, 0.049420f, 0.020065f, 0.196667f, 0.042173f, -0.059508f, 0.037925f, -0.279812f, -0.108038f, -0.171410f, 0.067197f, 0.189765f, -0.212736f, 0.230746f, -0.168166f, -0.321696f, 0.004845f, 0.070471f, 0.082855f, -0.028619f, 0.094362f, 0.092425f, 0.114351f, -0.321944f, 0.286778f, -0.183517f, 0.069227f, -0.293416f, 0.120048f, 0.111332f, 0.071775f, -0.375517f, -0.004413f, -0.083466f, 0.043170f, 0.003588f, 0.087614f, -0.027289f, -0.134120f, -0.112898f, 0.019198f, 0.073203f, 0.085649f, -0.137543f, -0.074162f, -0.072378f, 0.160689f, -0.054116f, -0.126396f, 0.050676f, -0.050294f, -0.131560f, -0.121044f, 0.086140f, -0.135760f, -0.222661f, 0.031390f, -0.027972f, 0.237755f, -0.300500f, -0.178501f, 0.004673f, -0.111007f, 0.032394f, -0.231646f, -0.220413f, 0.005162f, 0.178067f, 0.171554f, -0.125130f, 0.166367f, 0.045752f, -0.086249f, 0.124593f, 0.210023f, 0.017086f, -0.055766f, 0.066922f, 0.046490f, -0.128254f, -0.196993f, -0.186089f, 0.175499f, 0.178596f, -0.125041f, -0.123041f, 0.227461f, -0.185088f, 0.159317f, -0.043756f, -0.044119f, 0.034974f, -0.232878f, 0.186916f, 0.070185f, 0.075861f, 0.122148f, -0.080815f, -0.178568f, 0.014416f, -0.169184f, 0.247679f, 0.116681f, -0.190588f, -0.205245f, 0.125151f, -0.050134f, -0.165844f, 0.113009f, 0.054504f, 0.059476f, -0.206647f, -0.083977f, -0.130841f, -0.060880f, 0.092855f, -0.228505f, 0.111848f, -0.019996f, 0.105478f, -0.179013f, 0.053414f, -0.046212f, 0.152062f, 0.246097f, -0.210048f, 0.047639f, 0.085920f, -0.047712f, -0.228544f, -0.012081f, -0.022056f, 0.167964f, 0.134744f, -0.138762f, -0.133433f, 0.075802f, 0.085473f, 0.236064f, 0.024929f, -0.099968f, 0.185010f, 0.102714f, -0.268832f, -0.187875f, -0.116802f, 0.249152f, 0.197371f, 0.175635f, 0.144495f, 0.016701f, -0.189007f, 0.061379f, 0.218203f, 0.173117f, -0.193396f, -0.076067f, -0.214470f, -0.071062f, -0.003391f, -0.129487f, -0.051330f, -0.085702f, -0.037795f, 0.053399f, -0.065374f, -0.090314f, -0.018426f, -0.136785f, -0.006267f, 0.243205f, -0.043847f, -0.120063f, -0.097867f, -0.041946f, 0.093032f, 0.133477f, 0.063724f, -0.177471f, 0.042318f, 0.241562f, 0.059101f, -0.166104f, 0.125674f, 0.022114f, -0.243951f, -0.068946f, 0.207579f, -0.220805f, 0.099287f, 0.226251f, 0.197361f, -0.014043f, 0.230678f, 0.159455f, -0.197455f, 0.033357f, -0.195228f, -0.019027f, -0.088139f, -0.125679f, 0.221876f, -0.016876f, -0.186737f, -0.207411f, 0.160612f, 0.142884f, 0.084596f, -0.227354f, -0.229029f, 0.200726f, -0.034834f, -0.046672f, -0.106984f, 0.124740f, 0.240928f, -0.159855f, 0.173830f, 0.051399f, 0.083670f, -0.127051f, 0.223508f, 0.043976f, -0.189729f, -0.135731f, 0.144698f, -0.173344f, -0.203429f, -0.246052f, 0.178835f, -0.080298f, -0.130167f, -0.003446f, 0.031663f, 0.148602f, -0.079045f, -0.037975f, 0.106223f, 0.056113f, -0.038675f, -0.077565f, 0.099301f, 0.012264f, -0.146558f, -0.079798f, 0.035153f, 0.106809f, -0.041031f, 0.087852f, -0.093746f, -0.140406f, -0.144189f, -0.289040f, -0.173780f, -0.045614f, 0.155809f, 0.150427f, -0.199098f, 0.125426f, -0.029612f, 0.194023f, -0.031953f, -0.096135f, 0.052433f, 0.026024f, 0.042868f, 0.118006f, -0.016266f, 0.230515f, 0.064949f, 0.085855f, 0.151046f, -0.231801f, 0.133736f, 0.037573f, 0.013185f, -0.167919f, -0.127579f, -0.157476f, 0.164150f, 0.089591f, 0.220992f, 0.190814f, 0.129652f, 0.138974f, -0.022557f, 0.044723f, -0.108462f, -0.057715f, 0.083628f, -0.012525f, -0.226848f, 0.138886f, 0.204248f, -0.128415f, -0.083846f, -0.136367f, 0.226525f, -0.164274f, 0.002526f, -0.227620f, 0.092618f, -0.042875f, -0.202253f, 0.079960f, 0.226470f, -0.169724f, -0.136629f, -0.222305f, 0.113430f, -0.127142f, 0.111792f, 0.217102f, 0.012097f, 0.048944f, -0.166476f, -0.044993f, -0.143382f, 0.148373f, -0.080826f, -0.063821f, -0.061357f, -0.187420f, -0.052599f, 0.153642f, -0.202707f, 0.065557f, -0.190906f, 0.206565f, 0.049563f, 0.036183f, 0.142689f, -0.079384f, 0.190621f, -0.033943f, -0.203863f, -0.187337f, 0.172763f, -0.219292f, 0.101561f, -0.082889f, -0.056853f, -0.226965f, -0.170704f, -0.123433f, 0.124007f, 0.001823f, 0.236330f, 0.109167f, 0.120230f, 0.249756f, 0.121913f, -0.170582f, -0.098843f, 0.175099f, 0.020628f, 0.035455f, 0.024854f, -0.028442f, -0.088852f, 0.177628f, -0.018542f, 0.153832f, -0.070604f, -0.165087f, 0.187967f, -0.151082f, -0.058657f, 0.065320f, -0.028927f, -0.157076f, 0.001924f, 0.130762f, 0.075633f, -0.067592f, 0.218476f, 0.145647f, 0.014717f, -0.117434f, 0.082343f, -0.118120f, 0.123938f, -0.017631f, -0.017416f, -0.010701f, 0.243547f, 0.004953f, 0.247715f, -0.043810f, 0.229969f, -0.013996f, 0.231259f, -0.187942f, 0.235699f, -0.212163f, -0.070072f, 0.183515f, 0.132899f, 0.146720f, -0.038766f, 0.242131f, 0.154719f, -0.154538f, 0.042266f, 0.064603f, -0.055646f, 0.215470f, 0.244607f, 0.227514f, 0.018981f, 0.119389f, 0.064780f, 0.173349f, 0.038335f, -0.241614f, 0.042434f, -0.140082f, 0.066396f, -0.192105f, 0.134938f, 0.246370f, -0.065221f, -0.061475f, -0.032988f, -0.055637f, -0.138261f, -0.053142f, 0.145055f, -0.183782f, 0.084587f, 0.238566f, -0.230437f, 0.240157f, -0.082529f, 0.125864f, -0.129947f, -0.138608f, 0.057302f, 0.131366f, 0.227043f, -0.233104f, 0.242966f, 0.109886f, -0.104284f, -0.128704f, -0.087990f, -0.236576f, -0.206793f, -0.043517f, -0.069139f, 0.065694f, 0.209967f, -0.207697f, -0.240700f, -0.004283f, -0.039693f, -0.153559f, 0.048212f, -0.091866f, -0.134288f, 0.116098f, -0.240944f, -0.195445f, 0.157493f, -0.162582f, 0.140729f, 0.182995f, 0.001838f, 0.139050f, 0.054942f, 0.016005f, 0.191922f, -0.094505f, 0.072021f, 0.086864f, -0.084231f, 0.038041f, 0.211269f, 0.068169f, 0.021220f, -0.241689f, -0.245102f, 0.028270f, -0.005696f, 0.046257f, -0.079031f, 0.055569f, -0.217867f, 0.047129f, 0.180961f, -0.113879f, 0.027102f, -0.163081f, -0.239397f, 0.138311f, 0.160745f, -0.027071f, 0.052240f, -0.228908f, 0.088487f, -0.053646f, -0.209712f, -0.173542f, -0.117459f, -0.204294f, 0.241615f, 0.150460f, -0.167820f, 0.225234f, -0.157728f, -0.237771f, -0.092672f, -0.119240f, 0.060446f, 0.170827f, 0.214857f, -0.169962f, 0.168318f, -0.096975f, -0.136526f, -0.164320f, 0.050487f, -0.043172f, -0.133060f, -0.299894f, -0.051695f, 0.202619f, -0.418278f, -0.041149f, -0.109288f, 0.136571f, 0.206460f, 0.148988f, -0.137501f, -0.196970f, -0.208600f, -0.009151f, -0.145286f, 0.097552f, 0.065236f, 0.088408f, -0.101216f, 0.136184f, -0.295029f, -0.119710f, -0.216453f, -0.069582f, 0.150418f, 0.138279f, -0.199840f, -0.028130f, -0.182030f, 0.210567f, -0.199308f, 0.159044f, 0.043894f, 0.054722f, 0.140908f, 0.002737f, 0.069027f, 0.229012f, -0.113602f, 0.004739f, -0.089691f, 0.150282f, -0.179433f, -0.163196f, -0.062035f, -0.141566f, -0.001820f, -0.234989f, -0.070029f, 0.066083f, 0.098747f, -0.186864f, 0.159731f, -0.168828f, -0.080716f, -0.143166f, -0.001768f, 0.085170f, 0.223393f, 0.162300f, -0.034414f, 0.225074f, -1.245367f, 0.120020f, 0.177264f, -0.241873f, 0.070011f, 0.175172f, -1.754701f, 0.016417f, 0.177112f, 0.209903f, 0.014613f, 0.049972f, 0.167252f, -0.047136f, -0.420417f, 0.162374f, 0.026210f, 0.247992f, -0.752131f, 0.099606f, 0.231094f, 0.598147f, -1.181712f, 0.082428f, -0.103614f, -0.608564f, 0.064933f, -0.091470f, -0.548729f, 0.055664f, -0.120428f, -0.008104f, -0.101456f, 0.030275f, 0.120248f, -0.119411f, 0.139059f, 0.072749f, -0.022885f, -0.106776f, -0.106532f, -0.061399f, 0.205053f, 0.184741f, -0.162400f, 0.223245f, 0.085827f, 0.212038f, 0.208534f, -0.083697f, -0.064978f, -0.172101f, 0.023465f, 0.013020f, -0.050837f, -0.141406f, 0.025030f, -0.063765f, 0.017746f, 0.210574f, -0.065184f, 0.227710f, -0.091005f, 0.070056f, 0.154990f, 0.010901f, -0.065483f, -0.193309f, 0.131976f, 0.139848f, 0.193425f, 0.041457f, 0.133665f, 0.149500f, 0.027295f, 0.141020f, 0.213619f, 0.164245f, -0.296540f, 0.119913f, 0.136506f, -0.051002f, -0.202358f, 0.028097f, -0.114440f, -0.050556f, 0.109522f, -0.133818f, -0.124401f, -0.245378f, 0.006355f, -0.030046f, -0.020746f, 0.085471f, -0.110531f, -0.026377f, 0.021603f, -0.002066f, 0.193431f, -0.122054f, -0.184007f, 0.179381f, -0.226355f, 0.039987f, 0.161810f, 0.246880f, -0.007047f, -0.102898f, -0.154568f, 0.104727f, -0.174126f, 0.055599f, 0.151491f, 0.126295f, -0.152815f, 0.065674f, 0.189835f, -0.046617f, 0.146341f, -0.091150f, 0.003058f, -0.257030f, -0.101500f, -0.223304f, 0.073372f, 0.139968f };
static const float smart_grid_model_consumption_layer_2_biases[1] = { 0.356825f };
static const float smart_grid_model_consumption_layer_2_weights[32] = { -0.273351f, -0.068460f, 0.053437f, -0.106244f, 0.191343f, -0.274836f, -0.248096f, 0.147301f, 0.269147f, -0.016807f, 0.176209f, -0.206694f, 0.066319f, 0.023697f, 0.207836f, -0.016536f, 0.462756f, -0.058059f, 0.317586f, 0.036995f, 0.375336f, -0.177712f, 0.064913f, 0.222527f, 0.641512f, -0.034936f, 0.166340f, 0.157728f, -0.082807f, 0.268097f, 0.218168f, -0.307364f };
static float smart_grid_model_consumption_buf1[64];
static float smart_grid_model_consumption_buf2[64];
static const EmlNetLayer smart_grid_model_consumption_layers[3] = { 
{ 64, 7, smart_grid_model_consumption_layer_0_weights, smart_grid_model_consumption_layer_0_biases, EmlNetActivationRelu }, 
{ 32, 64, smart_grid_model_consumption_layer_1_weights, smart_grid_model_consumption_layer_1_biases, EmlNetActivationRelu }, 
{ 1, 32, smart_grid_model_consumption_layer_2_weights, smart_grid_model_consumption_layer_2_biases, EmlNetActivationIdentity } };
static EmlNet smart_grid_model_consumption = { 3, smart_grid_model_consumption_layers, smart_grid_model_consumption_buf1, smart_grid_model_consumption_buf2, 64 };

    int32_t
    smart_grid_model_consumption_predict(const float *features, int32_t n_features)
    {
        return eml_net_predict(&smart_grid_model_consumption, features, n_features);
    }
    

    int32_t
    smart_grid_model_consumption_regress(const float *features, int32_t n_features, float *out, int32_t out_length)
    {
        return eml_net_regress(&smart_grid_model_consumption, features, n_features, out, out_length);
    }
    

    float
    smart_grid_model_consumption_regress1(const float *features, int32_t n_features)
    {
        return eml_net_regress1(&smart_grid_model_consumption, features, n_features);
    }
    