
#include <eml_net.h>
static const float mynet_layer_0_biases[64] = { 0.000000f, 0.000000f, 0.000000f, 0.000000f, -0.160991f, -0.179576f, 0.000000f, -0.060447f, 0.000000f, -0.213251f, 0.000000f, 0.000000f, 0.000000f, -0.155874f, -0.194951f, -0.272501f, -0.150607f, 0.000000f, 0.000000f, 0.000000f, -0.274318f, 0.000000f, 0.000000f, -0.146261f, -0.192011f, -0.071164f, -0.138357f, -0.218649f, -0.149343f, 0.000000f, -0.032020f, -0.107735f, -0.149269f, 0.000000f, -0.163160f, -0.096919f, 0.000000f, 0.000000f, -0.129288f, 0.000000f, -0.058911f, -0.269391f, -0.131320f, 0.000000f, 0.000000f, -0.165642f, 0.000000f, 0.000000f, -0.229214f, 0.000000f, 0.000000f, -0.148060f, 0.000000f, 0.000000f, 0.000000f, 0.000000f, -0.090054f, -0.106622f, -0.158938f, -0.140563f, 0.000000f, 0.000000f, 0.000000f, 0.000000f };
static const float mynet_layer_0_weights[448] = { -0.126791f, -0.271068f, -0.186451f, -0.192442f, -0.002489f, -0.005414f, 0.011560f, -0.001250f, -0.114874f, 0.022350f, -0.001899f, -0.198707f, -0.207939f, -0.010804f, 0.004259f, -0.001274f, 0.031981f, -0.148626f, -0.070691f, -0.281410f, 0.011134f, -0.146866f, -0.248689f, 0.060815f, 0.020726f, 0.017907f, 0.131882f, 0.004429f, 0.017531f, -0.111687f, -0.026227f, 0.032923f, 0.131686f, -0.168949f, 0.014651f, 0.016520f, -0.147816f, -0.163200f, -0.010018f, -0.179099f, -0.011889f, 0.014518f, 0.002948f, -0.235981f, -0.075407f, 0.017772f, -0.107297f, -0.062989f, 0.020952f, -0.213177f, -0.096290f, 0.036154f, -0.040554f, -0.015427f, -0.045975f, -0.191029f, 0.020067f, 0.043373f, 0.032102f, 0.009627f, -0.155549f, 0.021334f, -0.120570f, -0.041016f, 0.274810f, 0.058012f, -0.075491f, 0.272627f, -0.193607f, -0.059098f, -0.040917f, -0.176562f, -0.221085f, -0.191815f, -0.174595f, -0.191514f, -0.190773f, -0.366236f, -0.137883f, -0.474165f, 0.024656f, 0.031450f, -0.246571f, 0.265555f, -0.506961f, 0.004697f, -0.101498f, 0.013116f, -0.278984f, -0.188003f, -0.135438f, -0.199419f, -0.196530f, 0.104453f, 0.134755f, -0.260677f, -0.077423f, 0.086071f, -0.391265f, 0.082123f, -0.030648f, -0.126909f, 0.097569f, 0.258378f, 0.059221f, -0.476930f, -0.107210f, 0.285708f, 0.256423f, 0.044006f, -0.189305f, -0.269392f, -0.199102f, 0.093810f, 0.121988f, -0.396860f, -0.149861f, -0.244486f, -0.002735f, 0.271686f, -0.111058f, -0.126518f, 0.036962f, -0.233115f, -0.174937f, 0.114268f, 0.104376f, 0.063612f, 0.035587f, 0.075743f, -0.257684f, -0.160738f, 0.107825f, 0.070585f, -0.284340f, -0.301236f, 0.041420f, 0.070697f, -0.192188f, 0.169597f, -0.080087f, 0.068388f, -0.026827f, -0.238136f, -0.077923f, 0.254247f, -0.194320f, -0.055165f, -0.193659f, -0.117942f, 0.040286f, 0.068187f, -0.109201f, 0.252807f, 0.044604f, -0.078631f, -0.090527f, 0.160881f, -0.126400f, -0.156230f, -0.029827f, -0.023307f, -0.303910f, -0.193496f, 0.042775f, 0.137647f, -0.023955f, 0.257900f, -0.087798f, 0.045848f, -0.214139f, 0.271007f, -0.097280f, -0.053765f, 0.126372f, -0.162610f, 0.018439f, -0.166090f, -0.269669f, -0.300595f, -0.140262f, -0.234343f, 0.277356f, -0.184030f, -0.138035f, -0.370929f, -0.019457f, 0.183694f, 0.199002f, 0.055597f, -0.082820f, 0.241159f, -0.226512f, -0.033530f, -0.203737f, 0.031311f, -0.162108f, -0.119521f, 0.281794f, 0.117001f, -0.018317f, 0.093751f, -0.065533f, -0.033043f, -0.178211f, -0.138387f, -0.346494f, -0.241139f, -0.025668f, -0.269601f, -0.079645f, 0.192962f, 0.049038f, -0.191795f, 0.257696f, -0.048212f, -0.065646f, -0.262308f, -0.096640f, -0.338983f, -0.046378f, 0.042820f, 0.187767f, 0.037010f, -0.019953f, 0.264757f, -0.359639f, 0.135862f, -0.084196f, 0.273527f, -0.346620f, -0.151099f, -0.121358f, -0.530641f, 0.179565f, -0.087353f, -0.221731f, 0.087349f, 0.217220f, 0.080862f, -0.066095f, -0.189109f, 0.238037f, -0.241789f, 0.141621f, 0.017627f, 0.160445f, -0.098005f, -0.246090f, -0.352909f, -0.275666f, 0.027052f, -0.137663f, 0.066878f, -0.217648f, 0.035236f, 0.132994f, -0.261134f, 0.197249f, 0.007490f, -0.004087f, 0.021557f, -0.285260f, -0.050811f, -0.068454f, -0.241025f, -0.222787f, 0.137835f, 0.125616f, 0.071058f, -0.071834f, 0.006445f, -0.293416f, -0.171540f, -0.165560f, -0.074699f, -0.095368f, -0.006258f, -0.111722f, -0.021025f, -0.229810f, -0.220820f, -0.271304f, -0.039911f, -0.152776f, 0.126153f, 0.149959f, -0.307647f, -0.261761f, -0.037449f, -0.207395f, -0.232037f, 0.032743f, -0.110993f, 0.076170f, -0.243724f, 0.089326f, -0.122198f, -0.038657f, 0.115816f, -0.150414f, 0.152915f, 0.020451f, 0.187564f, 0.080691f, -0.179555f, -0.006046f, -0.325227f, -0.234045f, 0.050179f, -0.216530f, -0.101643f, -0.188633f, -0.395457f, -0.298856f, -0.220162f, 0.208334f, -0.247635f, -0.217536f, -0.275931f, 0.063397f, 0.085850f, 0.254738f, -0.171366f, -0.064187f, -0.016523f, 0.227988f, 0.216600f, -0.115607f, 0.057016f, -0.019219f, 0.067365f, 0.198418f, 0.055239f, -0.387992f, 0.028272f, -0.227948f, -0.271695f, 0.105387f, -0.065528f, -0.243812f, -0.155791f, -0.121596f, -0.008638f, 0.108793f, 0.069977f, -0.059220f, -0.421378f, -0.221132f, -0.057395f, 0.241194f, -0.020310f, -0.083937f, 0.059463f, -0.211559f, 0.083068f, -0.198070f, 0.135023f, -0.108316f, -0.189289f, 0.048941f, -0.341766f, -0.150452f, 0.166333f, -0.002348f, -0.003399f, -0.079767f, -0.288862f, -0.115828f, 0.273382f, 0.244377f, -0.188393f, 0.050863f, 0.225189f, 0.199984f, -0.181774f, -0.127395f, -0.201640f, -0.127993f, 0.133620f, 0.193243f, -0.251304f, 0.155017f, -0.007300f, 0.198546f, 0.160666f, -0.028994f, -0.124875f, -0.229441f, 0.045500f, 0.117322f, -0.153101f, -0.215120f, -0.062433f, 0.115967f, -0.290226f, -0.206560f, -0.471421f, -0.567992f, -0.154463f, -0.226004f, 0.220174f, -0.263978f, -0.149064f, -0.270820f, -0.285506f, 0.232582f, -0.828273f, 0.017328f, -0.381613f, -1.214946f, -0.460955f, -0.440840f, 0.275912f, -0.056921f, -0.162764f, -1.100580f, 0.095017f, -0.103011f, -0.231002f, 0.268485f, 0.047572f, -0.257479f, 0.246470f, -0.181323f, -0.440759f, 0.003359f, 0.122746f, -0.132291f, -0.269297f, 0.201929f, -0.091146f, -0.792039f, 0.161607f, 0.116619f, -0.027092f, -0.083757f, 0.025484f, -0.008987f, 0.024702f, -0.170833f, 0.080612f, -0.358035f, -0.412311f, 0.232468f, 0.000528f, -0.020725f, -0.290218f };
static const float mynet_layer_1_biases[32] = { -0.144525f, 0.631788f, 1.308259f, -0.636285f, 1.137503f, 1.763673f, 1.135993f, 1.192527f, -0.735382f, -1.079286f, 1.009038f, 1.788881f, -0.310726f, 1.051095f, 0.673531f, 0.869368f, 0.928656f, 1.698048f, 1.096100f, -0.796618f, 0.713807f, 1.319838f, -0.575781f, 1.950244f, 2.120640f, 1.213775f, 1.072388f, -0.345511f, 0.688261f, 1.432824f, -0.695068f, -0.229185f };
static const float mynet_layer_1_weights[2048] = { 0.095479f, 0.053492f, 0.195654f, -0.027266f, -0.111352f, -0.051250f, 0.152248f, -0.208363f, -0.229025f, 0.127576f, 0.202299f, -0.236327f, -0.016826f, -0.182709f, 0.176662f, 0.145066f, -0.190474f, -0.014204f, 0.030178f, -0.193433f, 0.114340f, -0.091521f, -0.145290f, 0.092585f, 0.243080f, 0.184286f, 0.177405f, -0.190850f, 0.140533f, 0.173266f, 0.036520f, 0.242475f, 0.186130f, -0.153991f, 0.214948f, -0.225439f, 0.230173f, -0.246122f, -0.037831f, -0.189468f, 0.013649f, -0.217318f, -0.118075f, -0.120270f, 0.171445f, 0.107285f, -0.007732f, 0.069405f, -0.141114f, 0.240550f, -0.238105f, -0.092743f, 0.156739f, -0.079193f, 0.139868f, -0.113174f, -0.191512f, 0.137667f, -0.136558f, 0.141234f, 0.039228f, 0.019088f, 0.154094f, 0.050750f, -0.100798f, 0.242032f, -0.233656f, 0.017520f, -0.128839f, -0.131231f, -0.137985f, 0.105157f, 0.046076f, 0.230596f, 0.086019f, -0.172460f, -0.009693f, -0.060872f, 0.064098f, 0.049368f, -0.056641f, 0.077053f, 0.190418f, 0.076679f, -0.214909f, -0.134084f, -0.015798f, -0.244489f, -0.027482f, 0.191195f, 0.025647f, -0.047695f, -0.011149f, -0.216683f, -0.213665f, -0.239059f, 0.102328f, 0.226018f, -0.043594f, 0.161432f, -0.232547f, 0.098672f, 0.138242f, -0.035862f, -0.002401f, -0.000360f, -0.151508f, -0.034296f, -0.223351f, -0.066268f, 0.064491f, 0.218771f, 0.173542f, -0.127642f, 0.033975f, 0.222068f, 0.121938f, -0.035290f, -0.024369f, 0.243593f, -0.144674f, 0.177323f, -0.238354f, -0.151962f, -0.121739f, 0.232654f, 0.084678f, -0.182956f, -0.108379f, -0.276373f, -0.003621f, -0.045571f, -0.076682f, -0.055991f, -0.156893f, 0.024605f, 0.061869f, 0.024272f, -0.137007f, -0.105139f, -0.046460f, 0.249664f, 0.014346f, -0.136287f, 0.378639f, -0.129973f, 0.289102f, -0.076377f, 0.095274f, 0.073171f, 0.080093f, 0.060041f, -0.136254f, 0.128317f, -0.169091f, -0.161119f, -0.117016f, 0.158094f, 0.019503f, -0.004785f, -0.019274f, -0.178051f, 0.243500f, -0.141835f, 0.218110f, 0.016197f, -0.149754f, -0.050947f, 0.077620f, 0.081478f, 0.074817f, -0.233769f, 0.098632f, 0.238965f, -0.000954f, 0.201691f, -0.172906f, 0.011020f, 0.066274f, 0.167791f, 0.042056f, -0.076433f, 0.201950f, -0.109095f, -0.205593f, -0.172072f, -0.097606f, 0.158964f, 0.052819f, -0.211492f, -0.063275f, -0.265577f, 0.005866f, 0.051910f, -0.070407f, -0.174566f, -0.033959f, 0.166455f, 0.060933f, -0.109753f, 0.128746f, 0.094639f, 0.238783f, -0.050897f, -0.046381f, 0.164562f, 0.129907f, -0.128197f, 0.022768f, -0.051780f, 0.141214f, 0.213909f, -0.015484f, 0.100606f, -0.136884f, -0.018545f, -0.008287f, -0.106426f, 0.158281f, -0.163058f, 0.069217f, 0.172665f, 0.022710f, -0.123156f, 0.235602f, -0.135552f, 0.163671f, -0.223285f, 0.102666f, 0.074828f, 0.135967f, -0.006042f, -0.204535f, 0.156176f, -0.147777f, 0.016516f, 0.062055f, -0.226888f, -0.187639f, -0.122834f, -0.092878f, 0.189206f, -0.230782f, -0.081749f, -0.075350f, 0.199419f, 0.225666f, -0.132181f, -0.137969f, -0.214611f, 0.071673f, 0.032439f, -0.133742f, -0.053518f, -0.041472f, -0.141633f, 0.230499f, -0.164361f, 0.215462f, -0.164850f, 0.071239f, 0.012063f, -0.002004f, -0.165648f, 0.139410f, 0.183754f, 0.034968f, -0.061838f, 0.101048f, -0.126203f, 0.223686f, 0.016127f, -0.084245f, 0.050047f, -0.191907f, -0.085734f, -0.096227f, 0.072038f, -0.233414f, 0.068860f, 0.224930f, -0.100852f, 0.056222f, -0.194849f, -0.052384f, 0.133847f, 0.189040f, 0.193976f, 0.161026f, -0.125172f, 0.104812f, 0.081216f, -0.022740f, -0.184820f, -0.185889f, -0.210735f, -0.129088f, 0.134173f, 0.180510f, -0.097033f, -0.059311f, 0.142486f, 0.184016f, 0.256158f, -0.094318f, 0.156082f, 0.038118f, -0.042344f, -0.004954f, -0.167381f, -0.163745f, -0.111122f, -0.251432f, 0.023806f, 0.174059f, 0.043486f, 0.002366f, -0.044348f, 0.033230f, -0.234212f, -0.164522f, 0.089353f, 0.035813f, 0.003582f, -0.029053f, 0.037694f, -0.026341f, -0.188299f, 0.166036f, 0.167496f, 0.066989f, -0.208185f, -0.187595f, -0.004142f, -0.129043f, 0.061686f, -0.019539f, 0.004850f, 0.181014f, 0.093090f, 0.165483f, 0.169515f, 0.074912f, -0.056746f, -0.236597f, 0.182661f, 0.034416f, -0.221546f, 0.061116f, 0.169618f, -0.050246f, -0.138350f, 0.073522f, -0.082330f, 0.215216f, -0.193867f, -0.170877f, 0.210103f, -0.146617f, -0.188151f, -0.038740f, 0.053526f, -0.190612f, 0.189652f, -0.038758f, 0.104954f, -0.241863f, -0.027959f, -0.248588f, -0.163867f, -0.021874f, 0.075046f, -0.004863f, 0.073187f, 0.218971f, -0.166909f, -0.128993f, 0.206791f, 0.086422f, 0.232318f, -0.013004f, 0.238253f, -0.035030f, 0.207260f, 0.006238f, 0.101121f, -0.198941f, -0.207017f, -0.151428f, 0.212817f, 0.044169f, 0.230090f, -0.129495f, -0.229180f, -0.155045f, 0.051387f, 0.173971f, -0.110180f, -0.060441f, -0.120026f, -0.224767f, -0.113817f, 0.051895f, 0.066696f, -0.159177f, -0.216633f, 0.249180f, -0.111805f, -0.057953f, 0.155189f, -0.102069f, 0.032195f, 0.076913f, -0.201074f, -0.127941f, 0.160748f, 0.224647f, 0.143467f, -0.120513f, -0.147275f, 0.170515f, 0.068513f, -0.201410f, 0.072238f, 0.112318f, 0.244018f, 0.141733f, -0.015251f, 0.048534f, 0.126732f, 0.076380f, -0.023267f, -0.052411f, -0.008115f, -0.205406f, 0.226036f, -0.196418f, 0.041147f, -0.147389f, 0.089924f, 0.156971f, -0.031258f, -0.216496f, -0.049693f, 0.176381f, 0.042451f, 0.031756f, -0.165741f, 0.081207f, -0.162877f, -0.036009f, 0.069982f, 0.218913f, 0.057494f, 0.214216f, -0.069698f, 0.141907f, 0.126929f, -0.157675f, -0.033096f, -0.208721f, 0.135277f, 0.073473f, 0.160024f, -0.093640f, 0.179602f, -0.126963f, -0.129273f, -0.042322f, -0.004196f, 0.146031f, 0.106506f, -0.088698f, 0.105738f, -0.187278f, -0.095477f, -0.093708f, 0.237767f, -0.063381f, 0.099042f, 0.057482f, -0.025282f, -0.170911f, -0.044168f, 0.053937f, 0.181605f, 0.010015f, -0.199552f, 0.040923f, -0.067300f, 0.025502f, -0.008782f, 0.046182f, 0.053667f, 0.256213f, 0.278014f, -0.008126f, 0.175548f, 0.235577f, -0.124544f, -0.028452f, -0.178099f, 0.169353f, 0.099769f, -0.078795f, -0.148772f, -0.087390f, -0.160979f, 0.197982f, -0.134210f, 0.018687f, -0.228240f, 0.099654f, -0.148118f, 0.253871f, 0.145421f, -0.019865f, -0.204110f, 0.029909f, -0.125275f, 0.107475f, 0.011530f, -0.003997f, -0.073700f, -0.229603f, -0.218186f, -0.019951f, -0.064798f, 0.269036f, -0.058069f, 0.044903f, -0.172758f, 0.146663f, 0.107717f, -0.085016f, -0.141525f, -0.260922f, 0.038718f, -0.119312f, -0.069680f, 0.128995f, -0.109340f, -0.055937f, -0.264363f, 0.034309f, -0.186365f, -0.044422f, 0.093196f, -0.114693f, -0.035612f, -0.126848f, 0.129960f, 0.133423f, -0.153074f, -0.103725f, -0.219349f, 0.162089f, 0.150861f, -0.044117f, 0.188109f, 0.070696f, 0.164608f, 0.047978f, 0.085053f, 0.028935f, -0.036475f, 0.018876f, -0.074218f, 0.018828f, -0.215770f, -0.108963f, -0.080542f, -0.216222f, 0.113821f, -0.129357f, -0.163439f, 0.115684f, -0.042161f, -0.022067f, -0.191025f, -0.203838f, -0.041783f, -0.182651f, 0.066640f, 0.094553f, 0.036516f, 0.151661f, -0.246026f, -0.162642f, -0.247485f, 0.078242f, -0.072572f, -0.006973f, -0.179153f, -0.066669f, -0.077915f, -0.072052f, 0.089509f, 0.196894f, -0.045860f, 0.224897f, -0.090435f, -0.127246f, 0.154430f, -0.167523f, -0.216110f, 0.085764f, 0.069691f, -0.020629f, -0.233533f, -0.100477f, 0.114295f, -0.219265f, -0.200878f, -0.028372f, -0.162638f, -0.008956f, -0.147682f, 0.225995f, -0.140142f, -0.117788f, 0.085576f, 0.054186f, -0.175221f, 0.118332f, 0.138171f, 0.168935f, -0.168144f, -0.233567f, 0.232482f, -0.211276f, 0.217599f, -0.116116f, 0.216653f, 0.060104f, 0.243469f, -0.036883f, 0.140463f, -0.230187f, -0.164941f, -0.120127f, -0.032030f, -0.061622f, 0.213236f, 0.115930f, 0.229995f, -0.203231f, 0.245212f, -0.111567f, -0.134230f, 0.224969f, -0.259163f, -0.254535f, -0.198253f, -0.050995f, -0.162946f, -0.121920f, 0.090387f, -0.193991f, -0.158782f, -0.040317f, -0.061328f, 0.259974f, 0.145928f, 0.082685f, 0.186146f, 0.040736f, -0.082628f, 0.028379f, 0.127060f, 0.127066f, -0.039927f, -0.076913f, 0.049107f, 0.008221f, -0.005646f, -0.097491f, -0.048782f, -0.183249f, 0.073300f, -0.195584f, -0.227241f, -0.102372f, 0.172848f, 0.042230f, 0.154112f, 0.117670f, 0.065941f, 0.234385f, 0.031039f, 0.210083f, -0.019651f, 0.031903f, -0.159074f, -0.202726f, 0.105755f, -0.103178f, 0.188353f, 0.110882f, 0.173630f, 0.139131f, 0.215396f, -0.043035f, -0.236808f, -0.249679f, -0.013741f, -0.203760f, 0.055004f, 0.071637f, -0.038166f, 0.080451f, 0.161550f, 0.067570f, -0.058549f, -0.050015f, -0.237781f, 0.209239f, 0.124485f, 0.077879f, 0.145366f, 0.021074f, -0.104853f, -0.181146f, 0.002889f, -0.052669f, 0.161382f, -0.054378f, -0.224900f, 0.085905f, -0.150100f, 0.115721f, -0.083736f, 0.045102f, -0.037145f, 0.055836f, -0.013071f, -0.131659f, -0.410610f, -0.186847f, -0.131586f, 0.068702f, 0.050564f, 0.101203f, 0.245796f, -0.046536f, 0.000978f, 0.055095f, 0.026439f, -0.004069f, -0.043556f, -0.311304f, -0.094183f, -0.062993f, 0.124541f, 0.018722f, 0.005251f, -0.272095f, -0.371120f, -0.039684f, -0.365873f, -0.411233f, -0.077049f, 0.309248f, -0.018361f, -0.133011f, -0.125545f, 0.003341f, -0.041883f, 0.047170f, -0.319415f, -0.048757f, 0.161786f, 0.140547f, 0.182694f, 0.226998f, -0.046317f, 0.110872f, -0.116938f, -0.128323f, 0.116131f, -0.278989f, 0.194918f, -0.073033f, -0.101352f, 0.094358f, -0.197608f, -0.019427f, -0.061512f, -0.265263f, 0.174490f, -0.046163f, 0.144669f, -0.056017f, 0.085300f, -0.190145f, -0.177202f, -0.122954f, -0.080771f, 0.078040f, -0.183377f, -0.162749f, -0.083921f, 0.121707f, 0.036434f, -0.177985f, -0.150602f, 0.081172f, 0.165867f, 0.015117f, -0.111013f, 0.185572f, -0.096002f, 0.079127f, -0.170267f, 0.006459f, 0.090925f, 0.274849f, -0.036073f, -0.120411f, -0.045826f, 0.102048f, -0.238542f, 0.186736f, -0.028490f, -0.113810f, 0.218394f, -0.096342f, 0.003534f, 0.059800f, 0.172196f, 0.234384f, 0.163007f, -0.094153f, 0.015351f, -0.018182f, -0.009676f, 0.202943f, -0.216466f, -0.041359f, -0.342688f, -0.067917f, -0.013012f, -0.110917f, -0.213255f, -0.057022f, -0.276868f, -0.086502f, -0.207014f, -0.142957f, -0.201462f, -0.063790f, -0.013777f, -0.230373f, -0.266850f, -0.048231f, -0.162458f, -0.199557f, 0.174875f, -0.104399f, -0.265511f, 0.335851f, -0.134621f, -0.041644f, -0.108915f, -0.219303f, -0.023747f, 0.161788f, -0.203114f, -0.094602f, 0.062060f, 0.003927f, 0.176922f, -0.041000f, 0.120455f, -0.040538f, 0.073734f, -0.248768f, 0.061286f, 0.113546f, -0.009809f, 0.026681f, -0.250605f, 0.204040f, 0.124297f, -0.193058f, -0.021028f, -0.159089f, -0.080435f, -0.183744f, -0.055066f, 0.117993f, 0.051962f, 0.042231f, -0.125554f, 0.124107f, 0.074995f, 0.150255f, 0.035610f, 0.005130f, 0.182440f, 0.219895f, -0.012491f, 0.143116f, -0.049761f, -0.094755f, 0.074191f, -0.057559f, 0.076670f, -0.167786f, 0.060146f, -0.219370f, -0.279064f, 0.081797f, 0.117840f, 0.061954f, 0.050412f, -0.207101f, 0.187752f, -0.064271f, -0.043262f, 0.199985f, 0.121957f, -0.068485f, -0.052065f, -0.145246f, -0.159235f, 0.138365f, -0.079078f, -0.157118f, 0.227643f, 0.034389f, -0.106891f, 0.201914f, 0.174928f, -0.188028f, 0.102849f, 0.121334f, -0.075728f, -0.120019f, -0.132191f, 0.220721f, 0.003822f, 0.018328f, -0.026962f, -0.005534f, 0.219669f, -0.118092f, -0.022337f, 0.045701f, -0.009196f, 0.013763f, 0.209274f, -0.118452f, -0.028570f, 0.245530f, 0.099456f, 0.045844f, 0.234454f, 0.202422f, -0.132370f, -0.091652f, 0.029598f, 0.109172f, 0.055912f, -0.025230f, 0.176247f, 0.187885f, -0.006854f, -0.114561f, 0.029745f, 0.161757f, -0.344417f, -0.102547f, -0.077628f, -0.179892f, -0.234601f, -0.015027f, -0.090959f, -0.335872f, -0.110276f, -0.116652f, 0.127438f, 0.055880f, -0.272915f, -0.144215f, 0.041806f, -0.093875f, -0.312851f, 0.006723f, -0.080554f, -0.013725f, -0.172746f, 0.094453f, -0.099356f, 0.128682f, 0.236496f, 0.237022f, 0.046767f, 0.233684f, 0.139189f, 0.161212f, 0.105362f, 0.187681f, -0.225677f, -0.105714f, -0.150191f, -0.194890f, -0.202218f, 0.137451f, 0.120017f, -0.226076f, 0.244964f, -0.308525f, 0.056733f, -0.058661f, 0.081866f, 0.142590f, 0.226363f, -0.193179f, -0.047086f, 0.047754f, -0.186553f, -0.064141f, 0.071291f, -0.085708f, 0.031294f, -0.034485f, -0.083331f, 0.203004f, -0.175100f, -0.207950f, 0.123654f, -0.000150f, 0.021914f, 0.061440f, -0.095254f, -0.259731f, 0.057752f, 0.302554f, 0.018210f, -0.019267f, -0.189352f, -0.308783f, -0.078862f, -0.044763f, 0.098409f, 0.000688f, -0.151099f, -0.194969f, -0.307733f, -0.258621f, -0.090340f, -0.411802f, -0.072960f, -0.071716f, -0.087801f, -0.033525f, 0.245754f, -0.012585f, -0.148346f, -0.095111f, -0.019650f, -0.007056f, -0.148828f, 0.018930f, -0.108887f, 0.232875f, -0.075488f, 0.129868f, 0.157402f, 0.080902f, -0.199346f, 0.166135f, 0.079831f, 0.110718f, 0.049583f, -0.236297f, -0.243057f, -0.127762f, 0.007686f, 0.120145f, -0.012747f, 0.169761f, -0.202728f, -0.022947f, -0.009493f, -0.244144f, -0.162595f, -0.007075f, -0.104124f, 0.163894f, 0.216974f, 0.252468f, -0.252757f, 0.116780f, -0.135757f, 0.214586f, -0.205393f, -0.033650f, -0.206361f, 0.024852f, -0.023186f, 0.095267f, 0.084778f, 0.324208f, 0.014830f, 0.248449f, 0.164225f, -0.004935f, 0.058799f, 0.171801f, 0.072136f, -0.237602f, 0.026749f, 0.026544f, 0.128444f, -0.009794f, -0.193496f, 0.188933f, -0.215426f, -0.103058f, -0.018715f, 0.075016f, -0.163984f, -0.107442f, -0.068920f, -0.089917f, 0.185934f, 0.000124f, -0.037830f, 0.108980f, 0.054703f, 0.038076f, 0.238902f, -0.120960f, -0.108799f, 0.069835f, -0.246596f, -0.169575f, 0.238569f, -0.111107f, 0.099451f, 0.247604f, 0.141751f, 0.092059f, 0.116431f, 0.019325f, -0.235940f, -0.024527f, -0.064051f, 0.104090f, 0.054509f, -0.140969f, 0.115244f, -0.113940f, -0.101322f, -0.145733f, 0.141911f, -0.005581f, 0.212647f, -0.030327f, -0.052791f, 0.014814f, -0.072049f, 0.150818f, 0.063313f, 0.244356f, 0.212821f, -0.019567f, 0.185310f, -0.132638f, -0.021237f, 0.203813f, 0.003538f, 0.094874f, -0.226653f, 0.147466f, 0.147533f, 0.084040f, 0.204085f, -0.224260f, -0.026266f, 0.220814f, 0.055782f, 0.200842f, 0.220834f, 0.106303f, -0.141648f, -0.060159f, -0.173499f, 0.182869f, 0.027112f, 0.129852f, 0.193347f, -0.103653f, -0.200495f, -0.052292f, 0.142138f, -0.042626f, 0.097044f, 0.113056f, -0.058037f, 0.189670f, -0.179440f, 0.235602f, -0.237004f, -0.203870f, -0.110978f, 0.034266f, 0.029345f, -0.101314f, 0.136409f, -0.013870f, 0.210176f, -0.195129f, 0.036450f, -0.227963f, -0.059120f, 0.275583f, 0.076525f, -0.185518f, -0.236854f, 0.189561f, 0.018577f, 0.056539f, 0.140434f, 0.237221f, 0.097970f, 0.095721f, -0.017439f, -0.020257f, 0.023662f, 0.187101f, -0.234215f, -0.139557f, 0.079255f, -0.159560f, -0.257505f, 0.089440f, -0.132769f, -0.208772f, 0.163845f, 0.037737f, -0.023263f, -0.103255f, -0.042196f, -0.150106f, -0.030969f, 0.151048f, -0.093126f, 0.037497f, 0.006053f, -0.047633f, 0.146291f, -0.053865f, 0.247446f, 0.200284f, -0.210508f, -0.115382f, -0.096930f, -0.206965f, -0.129750f, -0.223814f, 0.242572f, -0.155206f, 0.068355f, 0.036003f, -0.066046f, 0.106296f, -0.154081f, 0.197007f, 0.236570f, -0.143567f, 0.046439f, -0.002120f, 0.191899f, -0.079317f, 0.095994f, -0.173683f, -0.199751f, 0.205156f, 0.130427f, -0.048364f, -0.029343f, 0.228237f, -0.165772f, -0.044774f, -0.195372f, -0.174498f, 0.207210f, -0.191582f, 0.019253f, -0.234981f, -0.024379f, 0.231582f, -0.083010f, 0.043695f, 0.080835f, 0.261502f, 0.105229f, -0.008737f, -0.202002f, 0.104470f, 0.047671f, 0.221780f, -0.222912f, -0.087943f, -0.064993f, 0.125161f, 0.084579f, -0.040867f, 0.098928f, 0.131302f, 0.134599f, -0.031312f, -0.024976f, -0.114955f, -0.185871f, 0.173120f, -0.142690f, 0.076829f, -0.105330f, -0.105258f, 0.111703f, -0.115507f, -0.038705f, -0.104339f, 0.102786f, -0.155118f, 0.183111f, -0.184755f, -0.152236f, -0.092792f, -0.016898f, -0.041652f, 0.050705f, -0.103597f, 0.053671f, -0.241138f, 0.017224f, -0.106125f, -0.213769f, -0.072352f, -0.052975f, 0.030149f, -0.050825f, 0.090334f, -0.046929f, -0.063868f, 0.078883f, 0.213469f, 0.036053f, -0.020779f, 0.190749f, 0.110799f, 0.138975f, -0.095334f, -0.070482f, -0.238395f, 0.180269f, 0.071615f, -0.149541f, 0.205866f, 0.082477f, -0.261102f, -0.048414f, 0.116343f, 0.227632f, 0.107672f, 0.120919f, -0.067379f, 0.067542f, -0.224263f, -0.055916f, -0.094380f, -0.126315f, 0.064010f, 0.188164f, -0.044165f, 0.010252f, -0.138202f, -0.039369f, 0.003740f, 0.081719f, -0.247856f, 0.042525f, 0.080453f, -0.126326f, 0.243029f, 0.097773f, 0.232440f, 0.065755f, -0.002711f, -0.172610f, -0.114240f, -0.109498f, -0.004866f, -0.028947f, -0.243133f, 0.165236f, -0.103137f, -0.087698f, 0.145867f, 0.142387f, 0.248032f, 0.040820f, 0.010671f, -0.186689f, -0.052180f, -0.217286f, -0.182700f, 0.112807f, -0.176596f, 0.133494f, 0.046233f, -0.097407f, -0.058623f, -0.120153f, -0.230033f, 0.056710f, 0.121928f, 0.140534f, -0.147772f, -0.034061f, 0.159992f, 0.094758f, 0.086924f, 0.129119f, -0.047431f, -0.033125f, -0.102722f, 0.220371f, -0.141083f, 0.112934f, -0.169372f, -0.185551f, -0.010475f, -0.025098f, 0.124733f, -0.049589f, 0.095060f, -0.034933f, -0.112262f, -0.098704f, 0.038227f, 0.228496f, -0.353468f, 0.053076f, -0.135654f, -0.030672f, -0.273911f, -0.158718f, -0.287393f, -0.010264f, -0.319532f, -0.356666f, -0.265956f, -0.107887f, -0.139444f, -0.015826f, -0.407110f, 0.111175f, -0.023234f, -0.473219f, 0.140276f, 0.076199f, 0.081786f, 0.000742f, -0.244048f, 0.077085f, -0.110000f, -0.129651f, 0.218275f, 0.158711f, -0.034022f, -0.126595f, -0.248542f, -0.231562f, -0.019522f, -0.228957f, -0.045780f, 0.190343f, -0.037936f, -0.064955f, -0.188335f, -0.201242f, 0.105916f, -0.039029f, 0.118103f, -0.194494f, -0.081479f, 0.005234f, -0.114414f, 0.159815f, 0.146299f, -0.185206f, 0.234011f, -0.024042f, 0.049234f, 0.221071f, 0.068562f, -0.070052f, 0.240119f, 0.027610f, -0.151102f, -0.023750f, -0.009575f, 0.153454f, 0.243493f, 0.080314f, 0.096931f, 0.071319f, 0.028049f, 0.075997f, 0.232661f, -0.055820f, -0.229626f, 0.246856f, 0.147909f, -0.163387f, -0.150367f, -0.142948f, -0.248034f, -0.222825f, -0.115405f, -0.038408f, -0.169576f, -0.192738f, -0.055585f, -0.137719f, -0.055322f, 0.157078f, -0.061317f, 0.248282f, 0.034551f, -0.147780f, -0.328348f, -0.009014f, -0.220375f, -0.018317f, 0.006191f, -0.253986f, 0.010771f, -0.088488f, -0.069426f, -0.103875f, 0.213668f, -0.177005f, -0.073473f, 0.084487f, -0.045840f, 0.202793f, 0.109878f, 0.245477f, 0.058722f, -0.049904f, 0.056192f, 0.060162f, -0.006320f, 0.326121f, 0.115176f, 0.141026f, -0.061620f, -0.020042f, -0.126012f, -0.331131f, -0.061287f, -0.128741f, 0.081644f, 0.116051f, -0.052683f, -0.128253f, 0.041183f, 0.107825f, 0.102530f, 0.195572f, 0.152942f, -0.190795f, -0.051597f, 0.194493f, 0.051415f, -0.057114f, -0.184638f, -0.216269f, 0.018145f, -0.173576f, -0.173564f, 0.120933f, 0.095044f, 0.008043f, 0.146193f, 0.148503f, -0.236476f, 0.158442f, -0.016085f, 0.095365f, 0.106461f, 0.088656f, 0.190017f, -0.199553f, -0.181322f, -0.114296f, -0.007300f, 0.168281f, 0.210954f, -0.206360f, -0.138719f, 0.045371f, -0.153668f, -0.210888f, 0.098364f, 0.000721f, 0.022495f, 0.219872f, -0.195672f, -0.093139f, 0.232885f, -0.015770f, -0.113348f, -0.202196f, -0.041676f, -0.123029f, 0.161233f, 0.090170f, 0.211454f, -0.150192f, -0.066280f, 0.180437f, 0.082750f, 0.214132f, -0.034542f, -0.248650f, -0.120389f, 0.120011f, -0.016652f, -0.067640f, -0.201898f, -0.253216f, -0.005347f, 0.019436f, -0.125251f, -0.058642f, 0.096012f, -0.124334f, -0.109310f, -0.206766f, 0.119822f, 0.170123f, 0.063975f, -0.048545f, -0.093183f, 0.185478f, -0.067559f, -0.281590f, 0.153202f, 0.050512f, -0.111355f, 0.093044f, 0.179113f, 0.157580f, -0.015649f, 0.119887f, -0.085861f, -0.141301f, 0.087820f, 0.100727f, 0.249294f, 0.237995f, 0.226797f, -0.105253f, 0.008666f, 0.147794f, -0.227082f, 0.095732f, 0.136076f, 0.153603f, 0.117209f, -0.233722f, 0.164945f, -0.243011f, -0.083254f, -0.052257f, 0.151235f, 0.056575f, -0.028100f, 0.053035f, 0.031280f, 0.131257f, -0.182628f, -0.165318f, -0.100465f, -0.090481f, 0.185486f, 0.169198f, -0.048002f, -0.068998f, 0.028532f, -0.135177f, 0.064472f, 0.096025f, 0.101510f, -0.160946f, 0.133166f, 0.103595f, -0.056794f, 0.108531f, -0.005314f, 0.172725f, 0.193654f, 0.124574f, -0.046874f, 0.113347f, -0.206655f, -0.095842f, 0.142956f, 0.143531f, -0.001607f, -0.132826f, -0.200263f, 0.195742f, 0.070625f, -0.092615f, 0.078221f, -0.104129f, 0.053265f, 0.206927f, 0.039352f, -0.187301f, 0.207748f, 0.221303f, -0.086185f, -0.050682f, -0.150507f, 0.149969f, 0.229682f, 0.166189f, -0.164767f, -0.231268f, -0.072316f, -0.065693f, 0.064713f, -0.185736f, -0.037584f, -0.141872f, -0.074707f, -0.226987f, -0.133119f, -0.017494f, 0.008156f, -0.199505f, -0.040309f, 0.192703f, 0.011917f, 0.089023f, 0.161127f, -0.215633f, 0.217667f, -0.007540f, -0.229184f, 0.154550f, 0.138973f, -0.112191f, -0.170090f, -0.109951f, -0.002304f, 0.189448f, 0.084083f, 0.238935f, 0.056034f, 0.001512f, 0.008810f, 0.245058f, 0.052257f, -0.113626f, -0.052038f, -0.159608f, -0.103988f, -0.185899f, 0.024752f, 0.015230f, 0.130647f, -0.126080f, -0.183338f, 0.010215f, 0.094604f, 0.087838f, 0.047313f, -0.042146f, 0.087862f, 0.017476f, 0.007526f, 0.059693f, 0.130145f, -0.054417f, -0.253021f, 0.129599f, 0.053132f, 0.148076f, -0.026960f, 0.008861f, -0.050075f, -0.184674f, 0.095695f, 0.089129f, -0.180990f, 0.222215f, 0.217722f, -0.201793f, 0.031285f, -0.152247f, 0.076977f, 0.114619f, -0.117929f, -0.199887f, -0.069308f, -0.124913f, -0.020419f, 0.114582f, -0.013082f, -0.169265f, -0.105258f, -0.327353f, 0.285262f, -0.185722f, -0.089198f, -0.194426f, 0.060010f, -0.062505f, -0.098879f, -0.164740f, 0.230810f, 0.063001f, 0.007826f, 0.187947f, 0.218632f, 0.034676f, -0.189799f, 0.152963f, 0.078980f, 0.148895f, -0.126935f, -0.163896f, 0.057839f, 0.153114f, 0.083180f, -0.066443f, -0.079449f, 0.081589f, -0.147778f, 0.195930f, -0.115907f, -0.197127f, 0.004346f, 0.165162f, 0.245094f, 0.163430f, 0.140038f, -0.167023f, -0.120361f, 0.243683f, 0.247734f, -0.154428f, -0.066959f, -0.121674f, 0.166434f, 0.174480f, 0.175201f, 0.070108f, -0.280958f, 0.152552f, -0.081977f, -0.017513f, 0.292039f, 0.004248f, 0.200428f, 0.242936f, 0.039477f, -0.005177f, 0.004565f, -0.071219f, 0.027602f, 0.191131f, 0.091840f, -0.134732f, -0.110721f, -0.123233f, -0.176547f, 0.146014f, -0.007176f, 0.093296f, 0.049944f, 0.067328f, -0.060428f, -0.062337f, 0.153197f, -0.148704f, -0.135202f, -0.170545f, -0.137270f, -0.153993f, 0.126063f, 0.174620f, -0.010125f, 0.104138f, -0.192532f, -0.189536f, 0.069569f, 0.032527f, -0.129019f, -0.214188f, 0.179971f, -0.054961f, -0.151515f, 0.226196f, -0.218789f, -0.136783f, -0.050236f, 0.185326f, 0.186895f, 0.038581f, -0.215823f, -0.188449f, -0.098561f, -0.097083f, 0.099180f, 0.002265f, 0.201521f, -0.235919f, -0.206225f, 0.160425f, -0.171958f, -0.190668f, -0.141739f, -0.183242f, -0.194229f, 0.146538f, 0.241113f, 0.048566f, 0.057705f, 0.019234f, 0.077577f, -0.049525f, 0.243841f, 0.221221f, -0.249381f, -0.215276f, 0.057135f, 0.178221f, 0.100482f, 0.139529f, 0.004787f, 0.044269f, -0.248070f, -0.123631f, -0.153527f, 0.024837f, -0.029638f, 0.217245f, -0.163027f, 0.113890f, -0.116889f, 0.082740f, -0.080712f, -0.040529f, -0.166090f, -0.118634f, -0.208763f, -0.245108f, -0.129038f, -0.103241f, 0.097780f, 0.208239f, 0.094909f, 0.063043f, 0.139939f, -0.060970f, -0.095632f, 0.014775f, 0.010452f, -0.134686f, 0.078929f, -0.098086f, -0.129796f, -0.069063f, -0.148729f, -0.077636f, 0.110161f, -0.159903f, 0.047712f, 0.049100f, -0.196882f, -0.034347f, -0.188711f, 0.160803f, 0.183963f, 0.135046f, 0.008292f, -0.136765f, -0.188766f, -0.057229f, -0.049691f, 0.158111f, 0.132151f, 0.155368f, 0.187153f, 0.174265f, 0.082370f, 0.238266f, -0.009753f, -0.114458f, -0.068715f, -0.209188f, -0.188076f, -0.151489f, -0.053266f, -0.159186f, 0.079802f, 0.039307f, 0.110793f, 0.190019f, -0.076830f, -0.153738f, 0.140858f, 0.204352f, -0.026565f, 0.184370f, 0.234917f, 0.218375f, 0.146846f, 0.235418f, 0.104658f, 0.019134f, -0.095569f, 0.013498f, 0.046841f, -0.048824f, -0.231095f, -0.003470f, -0.204333f, 0.230032f, 0.174835f, -0.134284f, -0.133456f, -0.053339f, -0.005122f, -0.236910f, -0.136454f, 0.136687f };
static const float mynet_layer_2_biases[1] = { 1.267594f };
static const float mynet_layer_2_weights[32] = { 0.145462f, 0.006073f, 0.411910f, -0.031028f, 0.212473f, 0.271847f, 0.032149f, 0.131956f, 0.009156f, 0.000715f, 0.042960f, 0.427281f, -0.287051f, 0.030696f, 0.041855f, 0.021652f, 0.007072f, 0.427589f, 0.026640f, -0.000075f, 0.081213f, 0.142351f, 0.014600f, 0.430245f, 0.620166f, 0.124026f, 0.102794f, -0.235002f, 0.079746f, 0.163621f, 0.000952f, -0.210978f };
static float mynet_buf1[64];
static float mynet_buf2[64];
static const EmlNetLayer mynet_layers[3] = { 
{ 64, 7, mynet_layer_0_weights, mynet_layer_0_biases, EmlNetActivationRelu }, 
{ 32, 64, mynet_layer_1_weights, mynet_layer_1_biases, EmlNetActivationRelu }, 
{ 1, 32, mynet_layer_2_weights, mynet_layer_2_biases, EmlNetActivationIdentity } };
static EmlNet mynet = { 3, mynet_layers, mynet_buf1, mynet_buf2, 64 };

    int32_t
    mynet_predict(const float *features, int32_t n_features)
    {
        return eml_net_predict(&mynet, features, n_features);
    }
    

    int32_t
    mynet_regress(const float *features, int32_t n_features, float *out, int32_t out_length)
    {
        return eml_net_regress(&mynet, features, n_features, out, out_length);
    }
    

    float
    mynet_regress1(const float *features, int32_t n_features)
    {
        return eml_net_regress1(&mynet, features, n_features);
    }
    