
#include <eml_net.h>
static const float mynet_layer_0_biases[64] = { 0.000000f, -0.105241f, 0.000000f, 0.000000f, -0.066718f, 0.000000f, 0.000000f, 0.000000f, -0.220518f, 0.000000f, 0.000000f, 0.000000f, 0.000000f, -0.005577f, -0.023912f, 0.000000f, -0.161505f, 0.000000f, -0.139551f, -0.038881f, 0.000000f, -0.253289f, -0.177221f, -0.177504f, -0.249874f, -0.168117f, 0.000000f, -0.238037f, -0.129261f, 0.000000f, 0.000000f, -0.133442f, -0.128189f, -0.138702f, -0.162667f, 0.000000f, 0.000000f, -0.254192f, 0.000000f, -0.108790f, 0.000000f, 0.000000f, 0.000000f, -0.162260f, -0.235295f, 0.000000f, -0.122938f, 0.000000f, -0.086817f, -0.062082f, -0.144768f, 0.000000f, 0.000000f, 0.000000f, 0.000000f, 0.000000f, -0.294732f, -0.003078f, -0.218160f, -0.182217f, -0.076988f, 0.000000f, -0.297165f, -0.030204f };
static const float mynet_layer_0_weights[448] = { -0.237127f, 0.010603f, -0.038681f, -0.213401f, -0.044434f, -0.013748f, -0.171178f, 0.000477f, 0.001294f, -0.170354f, -0.082992f, -0.152846f, -0.170352f, 0.011306f, 0.005751f, -0.279176f, -0.043975f, -0.242428f, -0.012747f, 0.000157f, -0.289465f, 0.009239f, 0.013190f, 0.019127f, -0.013620f, -0.024973f, -0.123172f, 0.000473f, 0.058657f, -0.097250f, -0.201868f, 0.004807f, 0.031797f, -0.003415f, 0.042136f, -0.217319f, -0.085633f, 0.016704f, -0.156030f, 0.001218f, -0.273240f, -0.149745f, -0.269118f, -0.024292f, 0.026106f, -0.097884f, -0.029342f, -0.290653f, -0.026081f, -0.003948f, 0.000155f, -0.107712f, -0.254521f, -0.209173f, -0.237709f, -0.110509f, -0.024559f, 0.027682f, 0.046990f, -0.025162f, -0.000348f, -0.095201f, -0.017100f, -0.037907f, 0.186417f, -0.018628f, -0.003622f, 0.203141f, 0.019936f, 0.182501f, -0.120825f, 0.254321f, -0.370904f, 0.203682f, 0.268052f, -0.279010f, -0.269591f, -0.026806f, -0.005326f, 0.126007f, -0.025501f, 0.256696f, 0.003299f, -0.235911f, 0.013740f, -0.031315f, -0.078654f, 0.000615f, 0.013119f, 0.054216f, 0.114800f, -0.161961f, 0.022229f, -0.280343f, 0.209229f, -0.009850f, 0.095092f, 0.025619f, -0.036889f, 0.210044f, 0.133350f, -0.171520f, -0.026678f, -0.059806f, 0.184129f, 0.061926f, -0.243591f, 0.055751f, -0.385471f, -0.219234f, 0.112395f, 0.144232f, -0.053046f, -0.054701f, -0.134700f, -0.253816f, -0.237470f, 0.005408f, -0.003980f, -0.187151f, -0.010127f, -0.200495f, 0.001337f, -0.022037f, -0.039103f, 0.237231f, 0.001106f, -0.012499f, -0.067448f, -0.015318f, 0.054437f, 0.033812f, 0.000786f, 0.243429f, 0.133704f, 0.289952f, -0.369197f, 0.242401f, 0.278634f, -0.125154f, 0.191900f, -0.036734f, -0.014170f, -0.088779f, -0.029258f, 0.165122f, 0.000158f, 0.245856f, 0.165845f, -0.015315f, -0.181073f, -0.246277f, 0.000065f, -0.002318f, -0.229707f, -0.051742f, -0.022557f, 0.016837f, 0.065224f, 0.001877f, -0.392252f, 0.054000f, 0.003343f, 0.273152f, 0.167770f, -0.193572f, 0.213933f, -0.001113f, -0.061449f, -0.217851f, -0.094395f, -0.004891f, -0.368223f, -0.091499f, 0.052065f, -0.044028f, 0.009980f, -0.041773f, -0.055737f, -0.155396f, -0.215017f, -0.104038f, 0.005164f, 0.068311f, -0.038443f, -0.117782f, -0.341161f, -0.017120f, 0.007930f, 0.128302f, -0.003663f, -0.010885f, -0.188856f, 0.042593f, -0.112677f, 0.171933f, -0.002411f, 0.050315f, -0.208089f, 0.158412f, 0.047743f, 0.152449f, -0.120546f, -0.061878f, 0.127246f, -0.013787f, -0.010354f, 0.039520f, -0.029280f, -0.102304f, -0.001598f, -0.301190f, -0.168967f, -0.008859f, -0.000566f, 0.007241f, -0.015911f, -0.067839f, -0.093916f, 0.010044f, -0.011109f, 0.239832f, -0.019682f, 0.008215f, -0.262705f, -0.008008f, -0.008206f, -0.203768f, 0.015201f, -0.244359f, -0.050709f, -0.028254f, 0.086971f, 0.152534f, 0.188778f, 0.020352f, -0.017541f, 0.209642f, 0.018331f, -0.259959f, -0.047785f, -0.025365f, -0.043387f, -0.284552f, -0.104961f, -0.115535f, -0.080538f, 0.251535f, -0.011984f, 0.083526f, -0.174518f, -0.010504f, 0.078295f, 0.211514f, 0.000281f, -0.012438f, 0.182403f, -0.260640f, 0.097057f, 0.285837f, 0.330384f, -0.180902f, 0.015306f, -0.270463f, -0.127289f, -0.149662f, -0.092327f, -0.251997f, -0.230247f, -0.093320f, -0.044159f, 0.253552f, 0.210044f, -0.080949f, 0.080174f, -0.084246f, -0.090982f, -0.165727f, -0.106589f, -0.326931f, 0.087789f, 0.105722f, -0.014722f, -0.134385f, -0.449262f, -0.067240f, 0.002916f, -0.078188f, -0.312399f, -0.126267f, -0.423653f, -0.047413f, 0.023950f, -0.169102f, 0.091723f, 0.004299f, 0.001247f, -0.185066f, -0.128921f, 0.096923f, -0.298092f, 0.029715f, 0.157763f, -0.018503f, 0.039444f, -0.138654f, -0.013546f, 0.054264f, 0.153167f, 0.058110f, 0.013054f, 0.015805f, -0.070594f, -0.259880f, -0.435927f, 0.022883f, -0.152324f, -0.036107f, 0.111208f, 0.177457f, 0.188540f, 0.646332f, -0.098046f, 0.184485f, 0.163444f, 0.124027f, 0.024175f, 0.190394f, -0.041145f, 0.204637f, -0.237289f, 0.228247f, 0.206945f, -0.492446f, -0.532995f, 0.206467f, 0.662934f, 0.229468f, 1.228577f, 0.244963f, -0.275519f, 1.426701f, -0.652836f, 0.562578f, 1.161117f, 0.426052f, 0.239413f, 0.567732f, -0.156174f, -0.101137f, -0.089701f, 1.302941f, 0.048153f, 0.622553f, 0.024912f, 0.072585f, 0.250871f, -0.061776f, 0.114447f, -0.723503f, -0.121007f, -0.114905f, 0.071145f, 0.460216f, 0.284928f, 0.178924f, 0.351066f, 0.003729f, 0.819970f, 0.621938f, -0.063840f, -0.104527f, -0.149852f, -0.070298f, 0.063281f, 0.274559f, 1.095952f, -0.244577f, -0.038561f, 0.829397f, 0.625844f, -0.017193f, 1.447907f, 0.667306f, -0.228990f, 0.028725f, -0.155103f, 0.211174f, 0.008512f, 0.046430f, 0.023840f, 0.009151f, -0.250351f, 0.082167f, 0.069353f, 0.260599f, 0.085626f, 0.111823f, -0.181093f, -0.079667f, 0.084880f, 0.143885f, 0.013002f, 0.033910f, 0.104321f, -0.116047f, -0.223502f, -0.373833f, -0.266193f, -0.333538f, 0.010468f, -0.145009f, -0.138437f, 0.118166f, -0.268846f, -0.104228f, -0.024013f, -0.322308f, -0.163413f, 0.163051f, -0.245136f, -0.148190f, 0.268337f, 0.078456f, 0.179895f, -0.176759f, -0.195999f, -0.111771f, -0.102289f, 0.018816f, -0.123661f, 0.104771f, -0.008050f, -0.195645f, -0.130353f, 0.200363f, 0.283555f, 0.092198f, -0.189415f, -0.187176f, -0.130981f, 0.027454f, -0.097441f, 0.116268f, -0.261428f, 0.178315f, -0.025838f, 0.068337f };
static const float mynet_layer_1_biases[32] = { 0.666581f, -0.402373f, 0.327550f, -0.204977f, -0.233658f, 0.421400f, -0.653977f, 0.656355f, -0.417040f, -0.017085f, -0.487454f, -0.162356f, -0.547912f, 0.682655f, 0.235225f, 0.649929f, 0.279496f, -0.442993f, 0.844964f, 0.710270f, 0.699203f, 0.644545f, 1.751763f, -0.530431f, -0.260281f, -0.818113f, 0.869962f, -0.553141f, -0.417991f, -0.483492f, 0.026462f, -0.479726f };
static const float mynet_layer_1_weights[2048] = { 0.216033f, 0.050726f, 0.079394f, 0.201063f, -0.196694f, -0.201365f, 0.114160f, 0.121824f, 0.114881f, 0.245587f, -0.172606f, -0.203575f, -0.238537f, -0.074074f, 0.238685f, 0.176379f, 0.184177f, -0.183672f, -0.241944f, -0.107409f, -0.234980f, 0.233978f, -0.091274f, 0.198637f, -0.151307f, -0.194481f, 0.158477f, 0.098008f, 0.033727f, -0.200639f, -0.087876f, -0.208580f, 0.108580f, -0.046888f, -0.025262f, 0.064185f, -0.061001f, -0.070764f, 0.001509f, 0.202822f, -0.163251f, 0.045925f, -0.180624f, -0.166151f, -0.176650f, -0.110319f, -0.134377f, 0.050970f, -0.243077f, 0.261295f, -0.005337f, -0.028660f, 0.130773f, -0.076842f, -0.042482f, -0.110282f, 0.106528f, -0.097053f, -0.052955f, 0.069213f, -0.265093f, -0.176770f, 0.027155f, 0.269609f, -0.199642f, 0.118572f, 0.068441f, 0.083626f, 0.144367f, 0.033099f, -0.084581f, -0.107971f, -0.226781f, 0.018636f, -0.121150f, 0.180633f, -0.218335f, -0.167780f, 0.155078f, 0.041352f, 0.092383f, -0.128934f, -0.148748f, -0.165032f, 0.003434f, 0.026399f, -0.186477f, 0.093543f, 0.012972f, -0.137917f, 0.157902f, 0.038479f, -0.039463f, -0.194903f, 0.093790f, -0.187350f, 0.202073f, -0.004412f, 0.003147f, -0.020196f, 0.137597f, -0.189393f, 0.029937f, -0.179510f, -0.169801f, 0.027638f, 0.021612f, -0.215580f, 0.067957f, -0.078891f, 0.035427f, -0.233269f, -0.116146f, -0.245173f, 0.162487f, 0.140658f, -0.048174f, 0.145178f, -0.091790f, -0.180342f, 0.188554f, 0.134061f, -0.144163f, -0.240306f, -0.232480f, -0.175339f, 0.143599f, -0.115443f, 0.269163f, -0.125745f, 0.110509f, -0.092253f, -0.112706f, -0.002167f, 0.067605f, 0.062269f, 0.078522f, -0.172574f, 0.245090f, -0.006611f, 0.142118f, 0.106953f, 0.134944f, 0.121879f, -0.128065f, 0.083510f, -0.115652f, -0.244334f, 0.042275f, 0.118098f, -0.085113f, -0.141212f, 0.091901f, -0.040942f, 0.059428f, 0.233728f, -0.131232f, 0.077299f, 0.159645f, -0.111428f, -0.208088f, -0.140716f, -0.212147f, 0.096611f, -0.081305f, -0.092662f, 0.158055f, -0.156952f, -0.094722f, 0.108409f, -0.016130f, -0.098745f, 0.205479f, 0.107072f, 0.244545f, -0.230709f, 0.199256f, 0.008885f, 0.086570f, -0.038359f, -0.004826f, 0.109896f, -0.122825f, 0.083948f, -0.202479f, 0.104970f, 0.244120f, 0.107893f, 0.112030f, -0.124669f, -0.082680f, -0.158914f, 0.197373f, 0.082614f, -0.079847f, -0.068033f, 0.111811f, 0.048068f, 0.002509f, 0.003735f, -0.112200f, -0.167269f, 0.203500f, 0.038711f, -0.210776f, 0.005081f, -0.022076f, -0.069051f, -0.140879f, -0.197637f, -0.178941f, -0.245663f, -0.163474f, -0.119147f, 0.208308f, 0.116246f, 0.121733f, 0.238506f, -0.083703f, 0.101365f, -0.021666f, 0.130400f, -0.197726f, -0.035866f, -0.058601f, -0.108024f, -0.226206f, -0.095131f, -0.210171f, -0.181147f, 0.196225f, -0.112594f, 0.224959f, 0.196604f, -0.046303f, 0.167050f, -0.243211f, -0.077733f, 0.189899f, 0.170604f, 0.030303f, 0.248203f, 0.226918f, 0.220679f, -0.161590f, 0.137138f, -0.216646f, 0.081801f, 0.187802f, -0.095600f, 0.014553f, -0.235703f, -0.110411f, -0.080960f, 0.066078f, 0.113856f, -0.138407f, 0.019400f, -0.208546f, -0.276403f, -0.125066f, -0.166647f, 0.355708f, 0.158256f, -0.084502f, 0.133650f, -0.117906f, 0.052976f, -0.116494f, 0.020882f, -0.119684f, 0.194514f, -0.243630f, -0.124850f, -0.168790f, 0.089903f, 0.071969f, 0.177965f, -0.210468f, -0.150519f, -0.163907f, 0.120793f, -0.310332f, -0.160586f, 0.033087f, 0.140439f, -0.254773f, -0.157274f, 0.163592f, 0.057422f, -0.181483f, 0.163382f, 0.139019f, 0.189750f, 0.249844f, -0.000465f, 0.094599f, -0.009721f, -0.154853f, -0.031162f, -0.224248f, 0.006590f, 0.051413f, 0.082068f, -0.024302f, 0.087321f, -0.124134f, 0.044215f, -0.021911f, -0.082752f, -0.162955f, -0.144229f, 0.230003f, 0.243600f, -0.057908f, -0.072384f, 0.153108f, -0.026474f, 0.168834f, -0.202012f, 0.191020f, -0.138806f, -0.205296f, -0.003709f, -0.073214f, 0.189152f, 0.047435f, -0.073554f, -0.008776f, 0.025312f, 0.053498f, -0.234698f, 0.164996f, -0.044994f, 0.013825f, 0.226067f, -0.216328f, -0.026386f, 0.037601f, -0.197711f, 0.074262f, -0.204564f, 0.236253f, 0.249528f, 0.123045f, 0.135682f, 0.163121f, -0.106611f, -0.025786f, -0.242915f, 0.219681f, -0.017865f, -0.067419f, -0.125965f, 0.054563f, 0.191475f, 0.046157f, 0.017547f, 0.059019f, -0.074134f, -0.187432f, 0.165124f, -0.123361f, 0.143892f, -0.022075f, 0.083310f, -0.176750f, -0.120338f, -0.241044f, 0.175462f, -0.225572f, 0.078422f, -0.128042f, -0.151085f, 0.248030f, -0.177159f, 0.010400f, 0.148744f, -0.192476f, -0.181917f, -0.017785f, 0.011379f, -0.013876f, -0.203943f, -0.177970f, 0.162632f, -0.188587f, -0.058989f, -0.027842f, -0.159157f, -0.200123f, 0.072281f, -0.093874f, -0.038921f, 0.137568f, 0.144394f, -0.194270f, 0.132868f, -0.216905f, 0.002836f, -0.018167f, -0.157655f, -0.120552f, -0.240782f, -0.060786f, 0.136373f, 0.061129f, 0.000473f, -0.110931f, 0.230315f, 0.170008f, 0.174687f, 0.170346f, 0.159063f, 0.216606f, 0.004770f, -0.092750f, 0.126855f, -0.138594f, -0.053664f, 0.022435f, -0.440737f, -0.069407f, -0.066244f, -0.216904f, -0.016219f, -0.127408f, -0.189729f, -0.008064f, -0.067519f, -0.324490f, 0.093628f, -0.007209f, 0.165564f, -0.311462f, 0.352644f, -0.106291f, 0.093012f, -0.293866f, 0.000877f, 0.164086f, 0.161703f, -0.022053f, -0.162462f, -0.030870f, 0.003522f, -0.070975f, 0.138034f, -0.127443f, 0.176279f, -0.042816f, 0.138101f, -0.174380f, 0.269546f, -0.102455f, -0.132061f, 0.092987f, -0.112719f, -0.176147f, -0.247255f, 0.206813f, 0.210085f, 0.127600f, -0.187910f, 0.060502f, 0.034169f, -0.154848f, 0.174750f, 0.097630f, 0.008221f, -0.171284f, -0.034098f, 0.091359f, 0.023910f, -0.053116f, 0.007088f, -0.297437f, 0.156266f, -0.115720f, -0.052144f, -0.039938f, 0.219930f, 0.159763f, -0.247513f, -0.159546f, -0.248055f, -0.094007f, -0.216383f, 0.027455f, 0.238678f, -0.158373f, -0.170796f, 0.215252f, 0.117274f, 0.183779f, 0.135568f, 0.058718f, -0.102674f, -0.176953f, 0.211427f, -0.200937f, 0.232035f, 0.189942f, -0.241581f, -0.092169f, 0.147968f, -0.115160f, 0.071499f, -0.051946f, -0.028134f, 0.043059f, -0.152212f, -0.072247f, -0.115889f, -0.191229f, -0.004783f, -0.113733f, -0.017938f, 0.083310f, 0.248613f, -0.144176f, -0.001760f, 0.003571f, 0.066204f, 0.147780f, 0.133917f, -0.170587f, 0.247719f, -0.132975f, 0.125185f, -0.008180f, -0.179763f, 0.004442f, 0.004686f, -0.013473f, -0.228179f, -0.296696f, 0.058955f, 0.231998f, 0.096865f, -0.175550f, 0.084349f, -0.043124f, 0.081453f, 0.116497f, -0.100906f, -0.215159f, -0.221594f, 0.044458f, -0.188172f, -0.198914f, 0.143007f, -0.171503f, 0.194134f, -0.208626f, 0.134097f, 0.105285f, 0.032749f, -0.212010f, 0.039694f, -0.200316f, -0.088793f, 0.125452f, -0.192435f, -0.042058f, 0.058342f, -0.128479f, -0.054438f, 0.192602f, 0.207663f, 0.095832f, 0.013820f, -0.102359f, 0.201941f, -0.071735f, -0.024811f, 0.020182f, 0.549928f, -1.212702f, -0.560763f, 0.050844f, -0.398756f, 0.220897f, 0.125200f, -0.159889f, -0.678572f, 0.050585f, -0.451250f, 0.062679f, 0.145420f, -1.099349f, 0.173029f, 0.104909f, 0.272705f, -0.181517f, -0.474247f, -0.695590f, 0.000996f, -0.002448f, -0.079317f, -0.182787f, -0.165992f, 0.085299f, -0.011283f, -0.229070f, 0.003113f, -0.191053f, 0.085368f, -0.101445f, 0.179269f, 0.122032f, 0.158251f, 0.126007f, -0.106827f, -0.198404f, 0.023603f, -0.104371f, -0.148872f, -0.179426f, 0.210055f, 0.098582f, -0.205666f, -0.127486f, 0.124601f, -0.144158f, 0.085147f, 0.160907f, 0.119851f, -0.102157f, 0.074182f, -0.160740f, 0.144957f, -0.155855f, 0.119876f, -0.107967f, 0.104354f, -0.243625f, -0.045463f, 0.085981f, -0.028279f, 0.113591f, -0.010728f, -0.174404f, 0.109575f, -0.040658f, 0.018437f, 0.081737f, 0.013397f, 0.207548f, -0.204566f, 0.136267f, 0.097445f, -0.199303f, 0.052214f, 0.246825f, 0.206416f, -0.174732f, -0.015175f, -0.153212f, 0.036223f, -0.073138f, -0.064879f, 0.034421f, -0.115173f, 0.026363f, 0.234065f, 0.087882f, 0.182271f, -0.003486f, -0.228406f, -0.096673f, -0.142547f, 0.154934f, -0.149402f, 0.244711f, -0.103647f, -0.149077f, -0.119023f, 0.124316f, 0.109214f, -0.113415f, -0.255132f, 0.130325f, -0.121500f, 0.179063f, 0.084787f, -0.036259f, 0.104039f, -0.193769f, 0.023809f, -0.121645f, -0.094346f, -0.097390f, -0.150306f, -0.002408f, -0.072313f, -0.403482f, 0.132607f, 0.063577f, 0.039759f, -0.333064f, 0.012104f, -0.021189f, 0.024012f, -0.098424f, 0.037169f, -0.097088f, 0.087679f, -0.134310f, -0.063378f, -0.189413f, 0.087753f, -0.216310f, 0.023643f, 0.002255f, -0.060266f, 0.193821f, -0.069984f, 0.056555f, 0.231106f, -0.082864f, 0.063912f, -0.061619f, -0.073077f, 0.144296f, -0.138215f, 0.032740f, -0.214549f, 0.040473f, -0.093872f, 0.247560f, 0.208516f, -0.024964f, 0.184240f, -0.178682f, 0.098948f, 0.115474f, 0.120295f, -0.018633f, -0.164761f, -0.064663f, -0.233865f, 0.247009f, 0.092830f, -0.106457f, -0.010830f, -0.094103f, -0.213695f, -0.112221f, -0.187779f, -0.259949f, -0.006155f, 0.181806f, 0.155675f, 0.044685f, -0.110342f, 0.204236f, 0.218473f, -0.099694f, -0.249147f, 0.084603f, -0.040368f, -0.031547f, 0.131721f, -0.037451f, -0.137913f, -0.183720f, 0.066085f, 0.031158f, -0.112262f, -0.141164f, -0.053908f, -0.118888f, -0.269195f, 0.072618f, -0.064645f, -0.170557f, -0.090679f, -0.028505f, 0.270864f, 0.021225f, 0.155239f, -0.173843f, -0.129180f, -0.238951f, 0.073746f, 0.163885f, -0.182428f, -0.074834f, 0.118675f, -0.001496f, 0.004941f, -0.043971f, -0.023761f, 0.222577f, 0.044843f, -0.194856f, 0.025060f, -0.091416f, 0.043422f, 0.204776f, -0.140671f, 0.126497f, -0.017050f, -0.103994f, -0.039850f, 0.011727f, -0.153441f, -0.140016f, 0.037695f, 0.134711f, -0.047106f, -0.089958f, 0.092413f, -0.221118f, -0.226819f, -0.064228f, -0.009474f, 0.142891f, 0.033980f, 0.257562f, 0.241634f, -0.150264f, -0.163100f, 0.093904f, 0.131338f, 0.102862f, 0.130470f, -0.030920f, 0.128204f, 0.139787f, -0.139728f, 0.196995f, -0.121339f, -0.042962f, 0.215744f, 0.041677f, -0.122373f, -0.220099f, -0.084055f, 0.101731f, -0.123021f, 0.179060f, 0.057260f, -0.197328f, -0.185620f, 0.132472f, -0.046657f, 0.115068f, 0.098600f, -0.011077f, 0.238796f, -0.009796f, 0.126835f, -0.192730f, -0.127392f, -0.085910f, 0.161111f, 0.097461f, -0.200968f, -0.215448f, -0.209541f, 0.020928f, -0.017861f, -0.052871f, -0.091202f, -0.154756f, 0.168276f, -0.092022f, -0.067245f, 0.020894f, 0.216289f, 0.055388f, -0.094186f, 0.115043f, -0.085279f, 0.014569f, -0.160076f, -0.235162f, 0.216717f, 0.015187f, 0.090023f, 0.089167f, 0.053678f, -0.062777f, 0.125599f, -0.012884f, -0.073583f, -0.059711f, 0.180708f, -0.001018f, -0.182928f, 0.036636f, -0.075140f, 0.136554f, -0.103088f, 0.191934f, -0.030561f, -0.014442f, -0.016994f, -0.013733f, 0.032358f, -0.041786f, 0.215894f, -0.167193f, -0.087743f, 0.120377f, -0.006678f, 0.075142f, 0.043203f, -0.065523f, -0.058079f, -0.047192f, 0.000996f, -0.049842f, -0.548140f, -0.051827f, -0.418416f, -2.000383f, -0.027869f, 0.059734f, -0.136855f, 0.047466f, 0.002247f, -0.158390f, 0.192315f, -0.597181f, 0.236188f, -0.095225f, 0.157605f, 0.025595f, -0.153743f, -0.077166f, 0.187590f, -0.247765f, -0.127805f, -0.011211f, 0.009500f, -0.225165f, -0.197964f, -0.024217f, -0.012021f, -0.024140f, -0.135386f, -0.089473f, -0.232281f, -0.062011f, -0.164244f, 0.067860f, 0.050892f, -0.031021f, 0.115664f, 0.246374f, -0.238622f, 0.240558f, 0.157617f, 0.124095f, -0.147920f, 0.040881f, 0.018050f, 0.052443f, -0.171584f, -0.051363f, -0.151171f, 0.077243f, 0.026620f, -0.041114f, -0.042860f, 0.058536f, -0.035373f, -0.119312f, 0.088140f, -0.235838f, 0.170451f, -0.170192f, -0.066181f, -0.063765f, -0.153745f, -0.078113f, -0.013138f, 0.131049f, -0.118299f, 0.173850f, 0.134791f, -0.215479f, -0.029351f, 0.235076f, -0.040132f, -0.130528f, -0.028853f, 0.000896f, -0.159135f, 0.150928f, -0.052017f, -0.288344f, -0.244618f, -0.048878f, -0.089901f, 0.246128f, -0.004003f, -0.006815f, -0.006168f, 0.225457f, -0.063485f, -0.060146f, -0.204959f, -0.090538f, 0.197200f, -0.017310f, 0.058189f, -0.347230f, -0.013121f, 0.382375f, -0.105585f, -0.000461f, -0.067201f, 0.156154f, 0.119284f, 0.168550f, 0.057775f, 0.092871f, 0.074353f, 0.073149f, -0.047276f, -0.067462f, 0.188131f, -0.204731f, 0.154895f, -0.179960f, 0.049633f, 0.067383f, 0.001206f, 0.075126f, -0.204926f, -0.099131f, -0.153562f, -0.223753f, 0.053850f, 0.045286f, -0.160514f, -0.015459f, -0.105016f, -0.041177f, 0.181955f, -0.037958f, -0.146843f, -0.067592f, -0.161024f, -0.180871f, -0.099234f, -0.054799f, 0.215246f, 0.044308f, -0.088176f, 0.010451f, 0.095376f, -0.144078f, -0.227782f, -0.235723f, 0.162394f, -0.065492f, -0.214480f, -0.043340f, -0.085960f, 0.018076f, 0.108926f, 0.176349f, 0.077170f, 0.227265f, -0.182044f, 0.041415f, 0.162603f, 0.173035f, -0.196935f, -0.077850f, -0.049134f, 0.049313f, 0.053824f, 0.046659f, -0.242410f, -0.105627f, -0.030024f, 0.262343f, -0.125906f, 0.070611f, 0.261909f, 0.183446f, -0.115557f, -0.012166f, -0.065113f, -0.136013f, -0.077028f, -0.072622f, 0.020127f, 0.060595f, 0.239775f, -0.041487f, -0.155770f, 0.081593f, 0.042203f, 0.026965f, 0.142079f, -0.032565f, 0.150892f, -0.076828f, 0.141639f, 0.005810f, 0.133410f, -0.192001f, -0.109161f, 0.127185f, -0.258539f, -0.061786f, 0.216381f, 0.169244f, 0.080181f, -0.079900f, 0.039566f, 0.076800f, 0.030426f, -0.214893f, 0.187550f, 0.041027f, 0.031337f, -0.065276f, 0.224985f, -0.184872f, 0.002741f, 0.095576f, 0.063378f, -0.185036f, 0.169199f, 0.096593f, 0.029312f, 0.165891f, -0.215964f, -0.107152f, -0.196503f, -0.221590f, 0.037132f, -0.191891f, -0.160829f, 0.127398f, -0.101858f, -0.189652f, 0.175005f, 0.106940f, 0.060041f, -0.151154f, -0.155697f, 0.095220f, -0.154272f, 0.128857f, 0.245870f, 0.194231f, 0.127245f, 0.036802f, 0.054845f, -0.160797f, 0.114089f, -0.006722f, 0.083327f, -0.010788f, -0.188996f, -0.050973f, 0.013049f, 0.075730f, 0.186638f, 0.148874f, 0.099691f, 0.218088f, 0.126310f, -0.062141f, -0.223530f, 0.036717f, -0.223634f, -0.186549f, -0.126485f, 0.164943f, -0.132348f, -0.117701f, 0.123013f, 0.155069f, 0.189170f, 0.131530f, -0.022822f, 0.022561f, 0.020023f, -0.065916f, 0.062006f, -0.019795f, 0.225827f, 0.001212f, -0.199518f, 0.167435f, -0.001765f, 0.132295f, 0.044920f, -0.117850f, 0.230385f, 0.014167f, 0.135780f, 0.013654f, -0.197107f, -0.014160f, -0.168903f, -0.057742f, 0.113449f, -0.226886f, 0.075668f, 0.083506f, 0.004135f, -0.252137f, 0.020914f, 0.089308f, 0.150872f, 0.191923f, 0.064757f, -0.110113f, 0.072145f, -0.079096f, -0.121869f, 0.236392f, -0.080760f, -0.104791f, -0.118430f, 0.186369f, -0.248536f, -0.160090f, -0.154668f, -0.094496f, -0.211813f, 0.117822f, 0.166004f, 0.003434f, -0.094424f, -0.195511f, -0.209200f, 0.119237f, 0.026513f, 0.139131f, -0.161614f, 0.042163f, 0.149997f, -0.080980f, 0.207077f, 0.232554f, -0.021353f, -0.120666f, 0.185178f, -0.079358f, 0.059307f, -0.187034f, 0.041010f, -0.039607f, -0.237240f, -0.231333f, -0.257353f, -0.074307f, 0.037695f, 0.119086f, 0.077355f, -0.249579f, -0.252195f, -0.236930f, 0.146247f, 0.045844f, -0.065658f, -0.216885f, -0.063185f, 0.274295f, -0.199432f, -0.169765f, 0.074765f, 0.090732f, -0.154034f, -0.208765f, -0.051360f, -0.010357f, -0.182191f, 0.190045f, 0.049129f, 0.096430f, -0.152575f, 0.126899f, -0.134156f, -0.204929f, -0.099014f, -0.198371f, -0.027674f, 0.114040f, 0.004709f, -0.222326f, 0.073105f, -0.210542f, 0.008227f, -0.055780f, 0.203076f, -0.199976f, 0.017300f, 0.149319f, -0.170463f, -0.159715f, -0.147158f, 0.035052f, -0.102858f, 0.108461f, -0.040207f, 0.214504f, -0.089611f, 0.177655f, 0.191083f, 0.048836f, 0.054302f, 0.026492f, 0.237276f, 0.156245f, -0.215969f, 0.037853f, 0.182533f, -0.029987f, -0.151908f, 0.214033f, -0.225649f, 0.106833f, -0.249294f, -0.130070f, -0.228582f, 0.146861f, 0.174820f, -0.159744f, 0.204808f, 0.018529f, 0.002370f, -0.170515f, -0.238216f, -0.088969f, 0.135787f, 0.222628f, 0.085237f, -0.193785f, -0.223220f, 0.198704f, -0.125562f, -0.149708f, -0.003948f, -0.214698f, 0.118830f, -0.048814f, 0.034774f, -0.217549f, 0.012197f, 0.075851f, -0.126627f, 0.119347f, -0.201004f, 0.238505f, -0.166123f, 0.220665f, 0.003325f, 0.182614f, -0.042904f, 0.151192f, -0.182367f, -0.003501f, 0.244152f, 0.016648f, 0.115910f, -0.109948f, 0.075104f, -0.160574f, 0.186516f, -0.081975f, 0.157194f, 0.075873f, -0.169337f, 0.161132f, -0.087677f, 0.024364f, -0.208008f, -0.099475f, -0.117776f, -0.134370f, -0.009293f, -0.143343f, -0.159566f, 0.090132f, -0.083641f, 0.181034f, 0.016146f, -0.008947f, -0.185381f, -0.176608f, 0.004363f, -0.066597f, -0.104767f, -0.038854f, 0.102327f, -0.026437f, -0.222322f, -0.156978f, 0.062370f, 0.290225f, 0.169416f, -0.207884f, 0.162687f, -0.110496f, -0.046877f, -0.039693f, -0.102173f, -0.109923f, -0.140261f, -0.086134f, -0.175503f, 0.220564f, -0.131645f, -0.174208f, -0.075217f, 0.062410f, 0.062491f, 0.040484f, 0.199304f, -0.128819f, 0.214740f, -0.210798f, -0.040494f, 0.091843f, -0.128332f, -0.136407f, 0.158811f, -0.117881f, 0.038719f, -0.109333f, -0.101894f, -0.170806f, -0.078384f, -0.249889f, -0.029754f, -0.102045f, 0.078743f, 0.204461f, 0.105634f, -0.233956f, -0.215868f, -0.085374f, -0.070144f, 0.022815f, 0.244032f, -0.180070f, -0.228937f, -0.159125f, 0.150718f, 0.027081f, -0.076214f, 0.054016f, 0.174462f, -0.187788f, -0.128621f, 0.213672f, -0.104462f, 0.136616f, -0.032456f, 0.189903f, 0.038456f, 0.065532f, 0.169443f, -0.077609f, 0.086674f, -0.162594f, -0.027347f, 0.057242f, 0.021764f, -0.156113f, -0.087024f, 0.073171f, -0.145199f, -0.098788f, -0.052954f, -0.020634f, 0.126694f, 0.138746f, -0.284295f, -0.233973f, -0.103433f, 0.028835f, 0.042071f, -0.082301f, 0.033759f, -0.017221f, -0.069530f, 0.026076f, -0.048428f, 0.001785f, 0.174533f, -0.100213f, 0.021483f, -0.068566f, -0.049989f, 0.101196f, 0.186701f, -0.187943f, 0.165924f, 0.093009f, 0.053047f, 0.030555f, -0.215596f, -0.055728f, 0.008954f, 0.108468f, 0.173528f, -0.217456f, -0.170931f, -0.211069f, -0.230541f, 0.117840f, 0.159389f, 0.056982f, 0.227877f, -0.174265f, -0.012807f, -0.137653f, -0.011555f, 0.055792f, -0.006634f, -0.193615f, 0.020209f, 0.196145f, -0.070827f, -0.243416f, 0.176636f, -0.172373f, 0.180155f, -0.163564f, 0.144067f, -0.114167f, 0.244625f, 0.251822f, -0.175419f, -0.013996f, -0.093042f, -0.175029f, -0.163259f, 0.251675f, 0.198046f, -0.283750f, -0.124230f, 0.114510f, -0.466640f, 0.114872f, -0.052800f, -0.048647f, 0.082633f, -0.060022f, 0.080898f, -0.065026f, -0.011514f, -0.193401f, -0.035087f, -0.002384f, -0.057543f, -0.122169f, 0.043285f, 0.317049f, 0.099675f, -0.103309f, 0.134714f, -0.330549f, 0.199083f, -0.074353f, -0.080379f, 0.131389f, -0.254581f, -0.105418f, -0.140280f, 0.120346f, 0.131199f, -0.326429f, -0.094149f, -0.148392f, -0.203099f, 0.099016f, 0.148500f, -0.237160f, -0.112387f, -0.299829f, -0.113742f, 0.080153f, -0.310205f, -0.001897f, 0.252892f, -0.036950f, -0.169722f, -0.276842f, -0.148197f, 0.199108f, 0.164426f, -0.132502f, 0.153205f, -0.225918f, 0.196044f, 0.042353f, -0.049909f, 0.124679f, -0.072530f, -0.061612f, 0.026492f, 0.018842f, 0.220526f, -0.117334f, 0.112024f, 0.171652f, -0.139682f, -0.157889f, -0.039463f, -0.125337f, 0.163984f, -0.035605f, -0.058299f, -0.046688f, 0.059899f, -0.003812f, 0.187521f, 0.078788f, -0.165005f, -0.184386f, 0.103328f, 0.169149f, 0.194162f, -0.039523f, 0.108966f, -0.244514f, 0.220369f, -0.114727f, -0.037213f, -0.158730f, 0.140385f, 0.244126f, 0.026830f, -0.233820f, 0.009045f, -0.080234f, 0.095760f, 0.017949f, -0.071716f, 0.081223f, -0.094336f, 0.087041f, -0.038128f, 0.097118f, -0.100391f, 0.172387f, -0.169095f, 0.189076f, 0.232165f, 0.062504f, 0.238726f, -0.094008f, -0.010522f, -0.234968f, -0.064763f, 0.130894f, 0.184316f, -0.240795f, -0.221581f, -0.039974f, -0.135888f, 0.078344f, -0.157216f, 0.108143f, 0.218807f, -0.108568f, 0.108112f, -0.147824f, -0.053311f, -0.036173f, -0.078358f, -0.029781f, 0.028047f, 0.186805f, -0.065894f, -0.006390f, -0.235826f, -0.008369f, -0.049467f, -0.133278f, 0.200705f, 0.095652f, 0.000954f, -0.115464f, -0.072929f, -0.167015f, 0.195460f, -0.060724f, -0.079542f, -0.068969f, -0.146470f, 0.146721f, 0.032717f, -0.042027f, 0.192779f, -0.217700f, -0.120378f, 0.119784f, -0.129582f, -0.079462f, 0.028031f, 0.037790f, 0.021121f, 0.176079f, -0.165646f, -0.030501f, -0.130618f, -0.082743f, 0.245340f, -0.010284f, 0.064381f, -0.169574f, 0.051495f, -0.059091f, -0.081124f, -0.023786f, -0.213342f, 0.157665f, -0.090120f, 0.235177f, 0.136021f, -0.056234f, -0.142655f, -0.074313f, -0.225997f, -0.139455f, -0.020142f, -0.241833f, -0.198805f, -0.189664f, -0.237496f, -0.025784f, 0.190857f, 0.182461f, -0.206312f, -0.238336f, -0.249160f, -0.023033f, -0.233845f, -0.142971f, 0.080107f, -0.171236f, -0.043822f, -0.076536f, -0.237057f, -0.116818f, 0.017456f, 0.079272f, -0.163966f, -0.055664f, -0.178471f, -0.089145f, 0.186793f, 0.132142f, 0.037676f, -0.120436f, -0.177930f, 0.117498f, 0.002601f, -0.207400f, 0.043811f, 0.023435f, 0.063309f, 0.069033f, 0.162915f, 0.168802f, -0.209295f, -0.011616f, -0.022401f, 0.148056f, 0.141471f, 0.055502f, -0.085747f, -0.186711f, 0.029639f, 0.045100f, 0.228897f, 0.039692f, 0.062599f, -0.059974f, 0.176327f, 0.246629f, -0.192265f, -0.006088f, -0.019240f, -0.020484f, 0.126657f, 0.229125f, -0.153949f, -0.246327f, 0.281055f, -0.163478f, -0.208369f, -0.136160f, 0.136781f, -0.152646f, -0.183311f, 0.071049f, 0.150123f, 0.054670f, 0.055468f, -0.201102f, 0.214675f, -0.147602f, 0.078874f, -0.239616f, 0.024480f, -0.153883f, 0.072801f, -0.001402f, -0.020163f, -0.137872f, 0.102227f, -0.016295f, 0.137594f, -0.278416f, 0.204999f, -0.133681f, 0.078543f, -0.120919f, -0.227045f, 0.000423f, -0.004889f, 0.151597f, -0.170064f, 0.009267f, 0.056351f, 0.138987f, 0.128690f, -0.013688f, -0.021512f, -0.202056f, -0.254665f, -0.150286f, 0.220637f, 0.140483f, 0.225035f, -0.148097f, -0.222054f, -0.001365f, 0.040264f, 0.171204f, 0.014351f, -0.117355f, 0.139724f, 0.015393f, 0.000849f, 0.207256f, -0.062861f, 0.136804f, -0.176202f, 0.027560f, 0.194274f, -0.152383f, 0.061978f, -0.177057f, -0.223496f, 0.002161f, -0.182438f, -0.113181f, -0.263177f, -0.152988f, -0.170400f, -0.109038f, 0.202533f, -0.068459f, -0.019488f, -0.132253f, 0.174538f, -0.205816f, -0.132017f, -0.229197f, 0.180378f, -0.085550f, 0.025803f, 0.171624f, -0.149351f, -0.121680f, -0.044399f, -0.104066f, -0.114382f, -0.246412f, 0.243102f, 0.009092f, -0.091001f, 0.161335f, -0.138575f, -0.095918f, -0.189448f, 0.067333f, -0.101249f, -0.283793f, -0.118598f, 0.147130f, -0.058752f, 0.021559f, 0.018535f, -0.200158f, 0.089509f, -0.172946f, -0.030536f, 0.425909f, -0.251769f, -0.137231f, 0.031022f, -0.015489f, -0.000112f, -0.051363f, 0.141219f, 0.273430f, 0.206088f, 0.026357f, -0.114871f, -0.217085f, 0.188482f, 0.115183f, -0.066673f, -0.191902f, -0.170031f, -0.084352f, 0.022811f, -0.180909f, -0.145611f, -0.175040f, -0.013115f, 0.040799f, -0.133764f, 0.042203f, 0.189566f, -0.265393f, 0.085586f, -0.097388f, 0.241308f, -0.058027f, -0.032049f, 0.134397f, 0.136323f, -0.094890f, -0.132743f, -0.126106f, 0.101386f, 0.063637f, 0.187930f, -0.196255f, -0.068464f, -0.132520f, 0.124638f, 0.156504f, -0.233404f, 0.113874f, 0.149769f, -0.040990f, 0.080943f, 0.119348f, -0.147627f, 0.112069f, -0.232749f, 0.042591f, -0.082266f, 0.140992f, 0.242178f, 0.170876f, 0.188437f, -0.239759f, 0.074368f, 0.179827f, -0.159733f, -0.193742f, 0.247022f, 0.027988f, -0.216295f, 0.136634f, -0.237130f, -0.117160f, 0.145926f, -0.101785f, -0.132604f, -0.212747f, -0.100020f, 0.041092f, -0.558041f, -0.587677f, -0.484801f, 0.507609f, -1.215292f, 0.139417f, -0.010899f, 0.003668f, -0.602377f, 0.077096f, -0.469372f, 0.256256f, 0.159273f, -1.226778f, 0.113254f, -0.803438f, 0.039945f, -0.216292f, -0.765875f, -0.960164f, 0.245787f, 0.005982f, -0.090155f, -0.168764f, 0.074996f, -0.016747f, 0.138339f, -0.235780f, 0.107592f, 0.089524f, -0.021714f, 0.257617f, -0.154665f, -0.093969f, -0.289113f, -0.166593f, 0.091586f, 0.121867f, 0.051021f, -0.273027f, -0.283816f, -0.082293f, -0.412280f, 0.064354f, 0.020357f, -0.306549f, -0.158859f, -0.181385f, 0.198275f, -0.095348f, -0.352104f, -0.140277f, 0.200467f, -0.010750f, -0.375961f, -0.024194f, 0.134576f, 0.287881f, 0.007854f, -0.274974f, 0.158073f, -0.301621f, 0.087862f };
static const float mynet_layer_2_biases[1] = { 0.641406f };
static const float mynet_layer_2_weights[32] = { 0.343447f, 0.290808f, 0.361747f, 0.439594f, 0.283826f, -0.228907f, -0.072138f, 0.016350f, -0.107844f, -0.106629f, -0.256378f, 0.101204f, -0.060328f, 0.150538f, -0.238916f, 0.238396f, -0.062932f, -0.250927f, 0.487740f, -0.277835f, 0.222568f, 0.012770f, -0.173689f, -0.029207f, 0.054851f, 0.000059f, 0.273868f, -0.075655f, 0.168316f, -0.172023f, 0.046018f, -0.097384f };
static float mynet_buf1[64];
static float mynet_buf2[64];
static const EmlNetLayer mynet_layers[3] = { 
{ 64, 7, mynet_layer_0_weights, mynet_layer_0_biases, EmlNetActivationRelu }, 
{ 32, 64, mynet_layer_1_weights, mynet_layer_1_biases, EmlNetActivationRelu }, 
{ 1, 32, mynet_layer_2_weights, mynet_layer_2_biases, EmlNetActivationIdentity } };
static EmlNet mynet = { 3, mynet_layers, mynet_buf1, mynet_buf2, 64 };

    int32_t
    mynet_predict(const float *features, int32_t n_features)
    {
        return eml_net_predict(&mynet, features, n_features);
    }
    

    int32_t
    mynet_regress(const float *features, int32_t n_features, float *out, int32_t out_length)
    {
        return eml_net_regress(&mynet, features, n_features, out, out_length);
    }
    

    float
    mynet_regress1(const float *features, int32_t n_features)
    {
        return eml_net_regress1(&mynet, features, n_features);
    }
    