
#include <eml_net.h>
static const float mynet_layer_0_biases[64] = { 0.000000f, -0.046200f, 0.000000f, -0.290353f, 0.000000f, -0.198275f, -0.151843f, 0.000000f, -0.102339f, 0.000000f, 0.000000f, 0.000000f, -0.257610f, 0.000000f, -0.160930f, 0.000000f, 0.000000f, 0.000000f, 0.000000f, -0.141588f, -0.021806f, -0.176604f, 0.000000f, 0.000000f, -0.263606f, 0.000000f, -0.156676f, 0.000000f, 0.000000f, 0.000000f, -0.006005f, 0.000000f, 0.000000f, 0.000000f, -0.053950f, -0.164281f, -0.238389f, -0.165115f, -0.193294f, -0.058931f, 0.000000f, -0.171766f, -0.010725f, -0.008256f, 0.000000f, 0.000000f, 0.000000f, 0.000000f, -0.270009f, 0.000000f, 0.000000f, 0.000000f, -0.133693f, -0.165550f, -0.175022f, 0.000000f, 0.000000f, 0.000000f, -0.282834f, 0.000000f, -0.067150f, 0.000000f, -0.155356f, -0.304382f };
static const float mynet_layer_0_weights[448] = { -0.123809f, 0.000429f, -0.177044f, -0.000341f, -0.099563f, -0.008800f, 0.005577f, -0.206530f, 0.009582f, -0.145873f, -0.089438f, -0.098600f, 0.026603f, -0.127982f, 0.042022f, -0.059706f, -0.050390f, -0.232212f, -0.283022f, 0.012639f, 0.039900f, 0.031741f, -0.169491f, -0.091387f, 0.003464f, -0.274911f, 0.034399f, -0.254828f, -0.187335f, -0.151986f, -0.025521f, -0.085944f, -0.209166f, -0.036622f, -0.022725f, 0.019762f, -0.011257f, 0.030285f, 0.019481f, -0.009666f, -0.080584f, 0.040606f, -0.017596f, -0.024834f, -0.273657f, -0.056376f, -0.056820f, -0.247499f, -0.015032f, -0.144493f, -0.112667f, -0.189928f, 0.033919f, -0.031078f, 0.013746f, -0.230050f, -0.184226f, -0.033096f, -0.001061f, -0.247250f, -0.013585f, -0.128242f, -0.030544f, -0.016127f, -0.218600f, -0.082404f, 0.127449f, -0.011144f, -0.159718f, -0.009371f, -0.031612f, -0.018546f, -0.041348f, 0.209013f, 0.062715f, -0.076401f, -0.119259f, -0.041495f, -0.073997f, 0.068330f, -0.082439f, 0.197794f, -0.226295f, -0.247687f, -0.019735f, -0.011250f, -0.099867f, 0.158598f, -0.332971f, 0.198109f, -0.326250f, -0.169348f, 0.104131f, 0.109892f, 0.128144f, 0.140767f, 0.283100f, -0.088366f, 0.076290f, -0.035712f, -0.038910f, -0.053366f, -0.006783f, -0.057179f, -0.187174f, -0.074107f, -0.261561f, 0.112252f, 0.145644f, -0.248903f, -0.256654f, 0.201132f, 0.036828f, 0.074030f, 0.125017f, 0.057045f, -0.029794f, 0.085961f, -0.058394f, -0.058151f, 0.023524f, 0.124351f, -0.228438f, 0.003605f, 0.023171f, -0.186402f, 0.013690f, -0.003712f, -0.253122f, -0.015484f, -0.077465f, -0.000466f, 0.204163f, -0.007350f, -0.018374f, 0.060001f, 0.010432f, -0.075865f, 0.011120f, 0.136490f, -0.342768f, 0.104002f, -0.054599f, -0.280271f, 0.203565f, 0.010315f, 0.076969f, -0.046834f, -0.013372f, -0.017441f, -0.279634f, 0.211326f, -0.177962f, 0.020644f, -0.208986f, 0.143728f, 0.024781f, -0.279169f, 0.280199f, -0.070406f, 0.092923f, 0.106759f, -0.025340f, -0.034795f, -0.225631f, -0.019313f, -0.065365f, -0.004730f, 0.140145f, -0.056341f, 0.124653f, 0.028921f, 0.190204f, 0.215390f, 0.237562f, 0.121525f, -0.002189f, 0.159214f, -0.036695f, 0.032847f, -0.024207f, 0.048891f, -0.036776f, -0.016557f, -0.191450f, -0.017396f, -0.286379f, 0.058582f, 0.031409f, 0.246749f, 0.009271f, 0.000824f, -0.047816f, 0.019711f, -0.190673f, 0.003854f, -0.040092f, 0.004507f, -0.024170f, -0.141402f, -0.008011f, -0.175827f, -0.249872f, -0.229118f, -0.324043f, -0.124852f, -0.027146f, 0.206938f, 0.093888f, -0.129651f, 0.107221f, 0.064291f, -0.019880f, -0.015414f, -0.040177f, -0.145954f, -0.103783f, -0.056570f, -0.094353f, 0.104160f, 0.172785f, 0.233230f, 0.122692f, -0.248819f, 0.235644f, -0.005293f, -0.004123f, 0.003378f, -0.249986f, 0.022603f, -0.109035f, 0.027740f, 0.124048f, -0.009410f, -0.145340f, -0.076604f, -0.085838f, 0.096444f, 0.142231f, 0.142672f, -0.073218f, -0.198133f, -0.172503f, -0.019924f, -0.001699f, -0.009502f, -0.050470f, 0.201116f, 0.137778f, -0.217525f, -0.268998f, -0.049424f, 0.003650f, 0.250741f, -0.006436f, -0.000440f, 0.147978f, 0.007560f, -0.013891f, -0.018964f, -0.159075f, 0.048189f, -0.197315f, -0.010534f, -0.104114f, -0.001802f, 0.232035f, 0.287152f, -0.340914f, -0.080162f, -0.392993f, -0.119628f, 0.269166f, 0.089942f, -0.123345f, -0.187324f, -0.382224f, -0.295731f, 0.103700f, -0.091465f, -0.121031f, 0.024809f, -0.357804f, 0.204300f, 0.178158f, 0.123137f, 0.131378f, 0.029538f, 0.152659f, -0.047832f, 0.152443f, -0.386631f, 0.002704f, -0.267676f, -0.227823f, 0.083723f, -0.132808f, -0.460804f, 0.103267f, 0.185717f, -0.164342f, -0.142645f, 0.194733f, -0.114405f, 0.018591f, -0.224794f, 0.134892f, -0.007204f, -0.321512f, 0.121674f, -0.108307f, 0.016487f, -0.082975f, -0.079418f, -0.033469f, -0.211722f, 0.021561f, 0.021453f, 0.225519f, 0.114918f, -0.053155f, -0.669335f, 0.033552f, 1.307040f, -0.252280f, 1.027202f, 0.616850f, -0.102095f, 1.171366f, 0.144507f, 0.219170f, 0.217453f, 0.140114f, -0.250097f, -0.177713f, 0.228486f, -0.224231f, 0.271228f, 0.280013f, 0.264168f, -0.113921f, -0.613853f, 0.261893f, 0.278989f, 0.432874f, 0.134294f, -0.536362f, 0.120033f, -0.169483f, 0.220270f, -0.236433f, 0.239739f, 0.261087f, -0.153746f, 0.830709f, 0.686530f, 0.324613f, -0.602905f, 0.179845f, -0.545750f, 0.056892f, 0.319109f, -0.175003f, 0.064785f, 0.272626f, 0.057841f, -0.203078f, 0.209939f, 0.507980f, -0.207291f, -0.005508f, 0.265950f, -0.506827f, 0.604709f, -0.766677f, 0.058121f, -0.075085f, 0.040186f, 0.184545f, 0.045108f, 0.411020f, 0.022690f, 0.791988f, 1.356336f, -0.210901f, -0.129202f, -0.251297f, -0.060995f, -0.128370f, -0.218583f, -0.236876f, -0.108017f, 0.127370f, -0.082513f, -0.025878f, 0.060846f, -0.508856f, 0.007850f, -0.489672f, -0.192265f, 0.139411f, -0.118906f, 0.139780f, -0.133540f, -0.198646f, -0.037533f, -0.066663f, 0.290073f, -0.324853f, 0.196498f, 0.068686f, -0.073938f, 0.125778f, 0.257893f, 0.138141f, 0.042846f, 0.146614f, -0.089207f, -0.058983f, 0.012034f, -0.194690f, 0.069601f, -0.069647f, 0.197191f, -0.123133f, -0.318041f, -0.290858f, -0.266629f, -0.173515f, -0.234936f, 0.274475f, -0.112789f, -0.119455f, -0.261809f, 0.175505f, -0.113752f, 0.132054f, -0.130757f, -0.207360f, 0.254853f, -0.014415f, 0.197324f, -0.557798f, 0.216496f, -0.046237f, -0.145223f, 0.104053f, -0.063540f };
static const float mynet_layer_1_biases[32] = { -0.280631f, 0.179187f, -0.151823f, 0.698551f, -0.181853f, -0.205648f, -0.219252f, -0.215251f, 0.274197f, -0.203269f, 0.373744f, 1.758965f, -0.069068f, -0.480053f, -0.248291f, 0.334991f, -0.349787f, -0.185163f, -0.116575f, -0.298069f, -0.115648f, 0.049251f, -0.157200f, 0.538113f, 0.368576f, -0.525143f, -0.108539f, 0.336087f, 0.156060f, 0.990469f, 1.522806f, 0.279261f };
static const float mynet_layer_1_weights[2048] = { 0.045618f, -0.151934f, -0.243697f, -0.216140f, -0.058341f, 0.161253f, 0.231711f, 0.096076f, -0.212043f, 0.015111f, -0.165374f, -0.064189f, -0.127787f, -0.022871f, -0.017690f, 0.125736f, -0.243380f, 0.064250f, -0.152532f, 0.243085f, 0.241308f, 0.025569f, -0.193814f, 0.157126f, 0.220288f, -0.117172f, -0.017331f, -0.176702f, -0.231433f, 0.159304f, -0.109898f, 0.206550f, -0.164607f, -0.069544f, 0.029086f, -0.226090f, -0.087612f, -0.059339f, 0.088455f, 0.253026f, -0.103584f, -0.092795f, 0.029593f, -0.232234f, -0.030872f, 0.036794f, 0.149436f, -0.042645f, 0.057537f, 0.138656f, 0.147873f, 0.159680f, 0.152505f, -0.099368f, 0.019121f, 0.054808f, 0.133981f, -0.267747f, -0.028574f, -0.185907f, 0.041812f, 0.120347f, 0.097350f, 0.248028f, -0.158729f, 0.153729f, 0.110829f, 0.194201f, 0.105530f, 0.245265f, 0.137300f, -0.229233f, 0.134956f, -0.142045f, 0.099173f, -0.002985f, 0.206838f, 0.101272f, 0.232620f, 0.243835f, -0.062340f, -0.135585f, 0.043782f, -0.182475f, 0.216730f, 0.151631f, -0.127509f, 0.050193f, 0.171279f, -0.249617f, 0.035327f, 0.237845f, 0.137711f, -0.235562f, 0.008590f, 0.217417f, -0.103070f, 0.161032f, -0.135095f, 0.089916f, 0.036630f, 0.163363f, -0.037013f, 0.086525f, -0.099602f, 0.141214f, 0.119900f, 0.001737f, 0.066383f, -0.003895f, 0.217781f, 0.113556f, -0.026146f, 0.170988f, 0.110724f, 0.075755f, 0.160181f, -0.008691f, 0.029097f, -0.355947f, -0.106923f, -0.032147f, 0.464607f, 0.035562f, 0.224064f, -1.775878f, -0.140898f, 0.064687f, 0.223662f, 0.126218f, 0.172379f, -0.207497f, -0.141719f, -0.058276f, 0.143669f, -0.106502f, -0.160954f, -0.096314f, 0.069060f, 0.208673f, -0.134090f, 0.233177f, 0.049838f, -0.028055f, -0.035078f, -0.151313f, 0.080067f, 0.168526f, 0.114301f, 0.060435f, 0.064956f, -0.174029f, -0.013710f, 0.168179f, -0.164782f, -0.169477f, -0.238743f, -0.066681f, 0.136516f, -0.026015f, -0.104648f, -0.125636f, -0.173071f, 0.099919f, 0.010890f, 0.165208f, -0.065533f, 0.173644f, 0.456498f, 0.114967f, -0.177176f, 0.000856f, 0.218459f, 0.031754f, 0.124726f, 0.246142f, 0.237742f, 0.187540f, -0.000420f, 0.003553f, -0.227730f, 0.005505f, 0.204426f, -0.400545f, 0.128582f, 0.147610f, -0.121399f, 0.213667f, 0.241361f, -0.152361f, 0.152900f, 0.144489f, -0.229984f, -0.229344f, -0.216435f, -0.035918f, 0.045137f, -0.017285f, 0.049676f, 0.117961f, -0.083514f, 0.187645f, -0.156655f, 0.006601f, 0.214502f, 0.030978f, -0.106446f, 0.120354f, 0.074508f, 0.050148f, 0.222408f, 0.066785f, 0.124582f, 0.144214f, 0.009399f, -0.104430f, 0.189339f, -0.068245f, -0.001504f, 0.089240f, -0.154339f, 0.088182f, 0.095241f, 0.231589f, 0.075101f, -0.240362f, 0.228953f, -0.013572f, -0.163853f, 0.100620f, 0.028445f, 0.080047f, -0.164494f, -0.056256f, -0.218603f, -0.113724f, 0.009651f, -0.090677f, -0.156953f, 0.088109f, 0.118237f, 0.060491f, 0.000929f, -0.147559f, -0.246597f, 0.077326f, -0.046409f, 0.159090f, -0.176147f, -0.093887f, 0.060235f, -0.004987f, 0.118154f, 0.246572f, 0.041984f, 0.052914f, -0.177163f, 0.075132f, -0.073666f, -0.301669f, 0.106877f, -0.013473f, -0.152289f, -0.051972f, -0.057806f, 0.004807f, 0.197707f, -0.009777f, 0.029718f, 0.003479f, 0.083289f, 0.199746f, 0.047351f, 0.064538f, 0.217548f, 0.222571f, 0.119016f, 0.089457f, 0.049157f, -0.242835f, 0.084514f, 0.078484f, -0.176974f, -0.138028f, -0.097071f, -1.260515f, 0.336677f, 0.128089f, 0.132150f, -0.211709f, 0.165484f, -0.057929f, 0.151471f, 0.105524f, 0.214594f, 0.231168f, -0.144343f, 0.111360f, -0.014404f, -0.221724f, 0.016181f, 0.161941f, 0.029602f, 0.018181f, 0.128217f, 0.110094f, 0.086716f, 0.099373f, -0.089531f, -0.022457f, 0.177670f, 0.011719f, -0.046490f, -0.113597f, 0.110697f, 0.089983f, -0.158971f, 0.010497f, -0.246750f, -0.016323f, 0.092408f, -0.138094f, 0.107681f, 0.073990f, 0.137430f, -0.239434f, 0.148904f, 0.103041f, -0.013674f, -0.219900f, -0.210817f, 0.207714f, -0.061565f, -0.122269f, 0.073494f, -0.219051f, -0.127393f, -0.233586f, 0.128237f, -0.159083f, -0.044454f, -0.110116f, -0.087599f, 0.129829f, -0.133575f, -0.165014f, 0.246067f, 0.200245f, 0.130232f, 0.223526f, 0.070820f, 0.178754f, -0.187212f, 0.207341f, -0.062144f, 0.039256f, 0.178128f, -0.222916f, -0.193968f, 0.176065f, 0.181506f, -0.159445f, 0.127416f, 0.040005f, -0.184171f, -0.195177f, 0.201446f, 0.197244f, -0.140247f, -0.008574f, -0.019092f, 0.143620f, -0.244825f, 0.031675f, -0.186612f, -0.098653f, -0.051279f, 0.132991f, -0.061492f, 0.108396f, -0.192508f, 0.193428f, 0.163650f, -0.128368f, 0.093606f, 0.177286f, -0.241462f, -0.032564f, 0.025094f, 0.077786f, 0.085075f, 0.180049f, 0.155651f, -0.176794f, 0.033159f, 0.061003f, 0.264632f, -0.152842f, -0.062573f, -0.185624f, 0.022119f, 0.211468f, 0.163606f, 0.026571f, 0.008142f, 0.099255f, -0.125740f, 0.048329f, 0.041395f, 0.040435f, -0.068773f, -0.051137f, 0.229931f, -0.093833f, 0.177121f, 0.155358f, 0.002727f, 0.135488f, -0.078788f, 0.055810f, -0.078038f, 0.211897f, 0.246079f, 0.228691f, -0.098847f, -0.033637f, 0.006670f, 0.033897f, -0.066373f, -0.062107f, -0.104747f, 0.051573f, -0.165005f, -0.163743f, -0.198269f, 0.094970f, 0.004197f, 0.207538f, -0.191956f, -0.179245f, -0.191557f, 0.194506f, -0.022294f, -0.167760f, 0.124154f, -0.211993f, -0.124164f, -0.126880f, -0.218565f, 0.077280f, -0.154457f, -0.035582f, -0.152979f, -0.055592f, -0.005014f, 0.006208f, -0.221091f, 0.011796f, 0.062741f, 0.064711f, -0.086470f, 0.222738f, -0.048049f, -0.191280f, 0.247538f, 0.073322f, 0.259483f, -0.031473f, 0.047357f, 0.106809f, 0.286121f, -0.177936f, 0.176105f, -0.037445f, -0.061798f, 0.158898f, 0.057982f, 0.035422f, -0.059913f, 0.053447f, 0.179558f, -0.038551f, -0.013614f, -0.109138f, 0.118980f, -0.085252f, 0.154842f, 0.228123f, 0.060238f, 0.011975f, -0.040137f, 0.177490f, 0.048059f, 0.066792f, -0.167895f, -0.151696f, 0.161259f, -0.166054f, 0.033265f, 0.047913f, -0.202456f, -0.107210f, 0.197230f, 0.135162f, -0.224354f, -0.229470f, -0.016691f, 0.241303f, -0.164842f, 0.064287f, -0.090139f, 0.025232f, 0.121427f, 0.057649f, 0.188627f, 0.031973f, -0.087143f, 0.125092f, 0.096437f, 0.106310f, -0.207450f, -0.133830f, 0.023708f, -0.183452f, -0.004946f, -0.064231f, 0.035056f, 0.240489f, 0.200870f, -0.232068f, -0.207135f, 0.109730f, -0.241652f, -0.174592f, 0.104416f, 0.009397f, 0.124972f, -0.157436f, -0.038526f, -0.129113f, 0.175879f, 0.248794f, 0.212703f, -0.013814f, -0.158347f, -0.064389f, -0.087905f, 0.224856f, -0.133814f, 0.240472f, -0.017742f, 0.194968f, -0.095319f, 0.036348f, 0.034256f, -0.050188f, 0.026668f, -0.016756f, -0.070530f, -0.231907f, -0.160011f, 0.065512f, -0.077499f, -0.193789f, -0.071275f, -0.095283f, 0.082394f, -0.214995f, 0.148735f, 0.067195f, 0.074212f, -0.180243f, 0.009672f, 0.174302f, 0.145435f, 0.230923f, 0.036398f, 0.122614f, -0.121753f, 0.178142f, 0.151292f, -0.174122f, 0.054058f, 0.183179f, -0.108904f, -0.238621f, -0.095260f, -0.159357f, 0.147476f, 0.078074f, -0.007826f, -0.183161f, -0.054402f, -0.144973f, 0.106309f, 0.123072f, 0.058066f, 0.097275f, -0.205809f, 0.142806f, -0.129727f, -0.216441f, 0.061319f, -0.053224f, -0.017817f, 0.003360f, -0.022004f, -0.170521f, -0.248806f, -0.025238f, 0.024686f, 0.080677f, 0.123163f, -0.024274f, -0.206131f, 0.161492f, -0.055792f, 0.223990f, 0.108240f, 0.073303f, 0.121400f, -0.003331f, 0.147669f, 0.239755f, 0.015652f, -0.137326f, 0.232079f, 0.196737f, -0.086773f, -0.105287f, 0.156625f, 0.090206f, 0.082467f, -0.063724f, -0.050973f, 0.196479f, 0.012711f, 0.010644f, 0.040706f, 0.056413f, -0.279179f, -0.001660f, -0.074930f, -0.040521f, 0.182050f, 0.231806f, -0.021830f, -0.037519f, -0.007106f, 0.199007f, -0.033680f, -2.117119f, 0.075573f, 0.005507f, -0.028253f, 0.275088f, 0.000873f, 0.079425f, -0.029427f, 0.043381f, 0.006021f, -0.012644f, -0.031033f, -0.128913f, 0.053671f, 0.030831f, -0.014343f, 0.034500f, -0.012443f, 0.047312f, -0.024771f, -0.074839f, 0.136510f, -0.030790f, -0.164407f, -0.083050f, 0.275857f, -0.063312f, 0.055027f, -0.067082f, 0.001757f, -0.096690f, -0.134217f, -0.072693f, -0.021377f, 0.088369f, -0.087348f, -0.088257f, 0.151009f, -0.062796f, -0.042120f, 0.034988f, 0.152980f, 0.033295f, -0.049789f, 0.099098f, -0.075761f, 0.141243f, -0.068674f, 0.194705f, 0.064852f, -0.183299f, 0.015144f, 0.039887f, 0.133169f, -0.014773f, -0.142259f, 0.144199f, 0.106358f, -0.098518f, -0.051895f, 0.201617f, 0.110573f, 0.120736f, 0.087147f, 0.114647f, -0.182667f, -0.149674f, -0.170392f, 0.053688f, 0.147995f, 0.086541f, 0.108334f, 0.242647f, 0.237449f, 0.143584f, 0.051417f, 0.201740f, 0.184754f, -0.115354f, 0.116330f, 0.024548f, -0.180458f, -0.219896f, -0.237915f, 0.120175f, 0.174010f, -0.087303f, -0.001112f, 0.143960f, 0.061758f, -0.198735f, -0.138703f, 0.241991f, -0.136605f, -0.015404f, 0.208560f, -0.144682f, 0.015914f, 0.137079f, 0.048437f, 0.152255f, -0.202230f, 0.094250f, 0.143201f, -0.141638f, 0.089763f, -0.042742f, -0.130012f, -0.142150f, 0.244578f, -0.191169f, 0.121868f, 0.173993f, 0.061013f, 0.186061f, 0.028149f, -0.070394f, -0.135065f, -0.042323f, -0.045643f, 0.171442f, 0.198241f, 0.042557f, -0.085709f, 0.188162f, -0.041672f, 0.210078f, 0.150732f, -0.016940f, -0.014358f, 0.232485f, 0.189633f, 0.241925f, -0.106603f, 0.192621f, 0.151774f, 0.011472f, 0.051246f, 0.085224f, 0.037886f, -0.026116f, 0.050924f, -0.181121f, -0.098883f, -0.110699f, 0.035520f, 0.044145f, 0.096794f, 0.148262f, -0.131991f, -0.245325f, 0.143626f, -0.247199f, 0.146098f, -0.140104f, 0.104081f, -0.212772f, 0.120987f, -0.154183f, -0.145927f, 0.168430f, -0.075050f, -0.175912f, 0.054591f, 0.230153f, 0.144059f, -0.216207f, -0.104485f, -0.159496f, -0.120533f, -0.205068f, -0.077321f, -0.035788f, -0.070900f, 0.234830f, -0.104358f, 0.191096f, 0.198260f, -0.175306f, -0.187723f, 0.248327f, -0.210726f, 0.238633f, 0.107725f, -0.103760f, -0.112594f, 0.209402f, -0.233708f, -0.094994f, -0.196559f, -0.200549f, 0.133852f, -0.221671f, 0.144268f, 0.075103f, -0.146812f, -0.099037f, 0.204933f, 0.166109f, -0.048377f, -0.285683f, 0.165204f, 0.146591f, 0.063581f, 0.056268f, -0.040356f, -0.297036f, -0.029924f, -0.118875f, -0.110411f, -0.032604f, -0.009605f, 0.050832f, -0.134769f, 0.199904f, 0.119536f, 0.116105f, -0.190561f, -0.043539f, 0.049032f, -0.037992f, 0.189242f, 0.181974f, 0.019444f, -0.015197f, -0.232112f, -0.143858f, -0.114191f, -0.193455f, 0.030399f, -0.191079f, 0.010786f, 0.177986f, -0.154600f, -0.063776f, -0.096898f, -0.042234f, 0.079849f, 0.230960f, 0.181266f, -0.009355f, -0.088747f, 0.209075f, 0.249661f, -0.075988f, 0.237827f, 0.210553f, 0.177915f, 0.171203f, -0.099883f, 0.048841f, -0.085396f, 0.110650f, -0.090182f, 0.132282f, 0.170387f, -0.223445f, 0.097550f, 0.247049f, -0.149408f, 0.048360f, 0.247374f, 0.073807f, -0.048234f, 0.219146f, -0.037245f, -0.231988f, -0.028732f, -0.163527f, -0.193769f, -0.035261f, 0.139094f, 0.245953f, 0.052224f, 0.039739f, 0.125020f, 0.090051f, 0.138235f, 0.164649f, 0.223951f, 0.082747f, -0.068868f, -0.016455f, -0.150790f, -0.213627f, 0.205912f, 0.196369f, -0.059225f, 0.068828f, -0.031911f, -0.124559f, 0.033483f, -0.026784f, 0.181177f, -0.103875f, 0.003908f, -0.189937f, 0.035366f, 0.024783f, 0.127239f, 0.187774f, 0.135256f, 0.196589f, 0.046872f, -0.225624f, 0.148862f, -0.146408f, -0.083538f, -0.151332f, -0.014175f, 0.117475f, -0.178747f, 0.011548f, 0.108439f, -0.168269f, -0.214760f, -0.007149f, -0.217109f, -0.175387f, 0.217612f, -0.115078f, 0.069996f, -0.074055f, -0.041426f, 0.178262f, -0.068583f, 0.236106f, -0.226442f, -0.069339f, -0.197984f, -0.054837f, 0.185636f, 0.019271f, 0.026818f, 0.093779f, 0.043931f, 0.228022f, -0.229079f, -0.215580f, -0.099666f, 0.020862f, -0.031995f, 0.214034f, -0.104769f, 0.245653f, -0.108313f, 0.235577f, 0.180346f, -0.207834f, 0.060272f, -0.182984f, -0.233897f, 0.196980f, 0.037444f, -0.219880f, -0.068057f, -0.070243f, 0.193445f, -0.024548f, 0.090886f, -0.144850f, 0.168626f, -0.063838f, 0.126687f, -0.018817f, 0.012238f, -0.032483f, 0.120496f, 0.097789f, 0.206067f, 0.202853f, -0.082319f, -0.001802f, -0.047342f, -0.090498f, -0.024310f, -0.217249f, -0.111212f, -0.129663f, -0.052062f, -0.086909f, 0.163782f, 0.172927f, 0.125436f, 0.151601f, -0.205571f, 0.218924f, 0.028161f, 0.038776f, 0.108057f, 0.170719f, 0.111888f, 0.215570f, -0.090254f, -0.092228f, -0.073229f, 0.114852f, -0.127734f, 0.099068f, 0.092024f, -0.191150f, -0.099507f, -0.156940f, 0.151658f, -0.187468f, -0.070567f, -0.113456f, 0.124527f, 0.067156f, -0.050432f, 0.146608f, -0.085872f, -0.036291f, -0.056506f, 0.103122f, 0.000996f, -0.181041f, -0.062743f, 0.242242f, -0.165301f, -0.134142f, 0.061454f, -0.224665f, -0.180174f, -0.153158f, -0.018100f, 0.155089f, 0.082180f, 0.082760f, -0.129906f, -0.020336f, 0.045203f, 0.058097f, 0.015226f, 0.051665f, 0.183830f, 0.070675f, -0.005240f, 0.050659f, -0.197045f, 0.314341f, 0.227649f, 0.218117f, -0.238405f, 0.026309f, -0.285111f, 0.012102f, 0.055015f, -0.006338f, 0.001338f, 0.092947f, 0.040546f, 0.002525f, 0.225432f, 0.121408f, 0.058589f, 0.035863f, 0.253746f, 0.234879f, 0.061418f, -0.536884f, 0.046439f, -0.252688f, -0.133527f, 0.068424f, 0.060545f, 0.161465f, 0.297203f, 0.200637f, 0.119162f, 0.143466f, -0.103326f, 0.060086f, 0.150668f, -0.000059f, -0.252061f, 0.000243f, -0.156422f, 0.142120f, -0.143211f, -0.223842f, -0.118285f, 0.195416f, -0.058249f, 0.186414f, 0.003081f, 0.180538f, -0.027504f, -0.077216f, -0.061501f, 0.081215f, 0.077922f, -0.166441f, -0.092422f, 0.124571f, -0.099858f, -0.056466f, 0.002718f, 0.124751f, 0.053875f, 0.145654f, 0.081172f, -0.151594f, -0.100697f, 0.187530f, 0.192030f, 0.119291f, -0.223566f, 0.195044f, 0.025688f, 0.119408f, 0.255958f, -0.134833f, -0.032899f, 0.193578f, 0.223159f, 0.140391f, 0.083666f, 0.038249f, 0.209837f, 0.068038f, -0.090314f, 0.085142f, -0.092868f, -0.227527f, 0.090096f, 0.138552f, -0.070559f, 0.180739f, -0.085851f, -0.138233f, 0.083532f, 0.090063f, 0.126724f, 0.216577f, -0.155887f, -0.113320f, 0.010796f, 0.169421f, -0.059471f, -0.007779f, 0.021490f, 0.071201f, -0.091509f, 0.258985f, 0.219560f, -0.030649f, 0.188826f, -0.195102f, -0.074728f, 0.136475f, -0.180291f, -0.094682f, 0.092283f, 0.080430f, -0.167096f, -0.223231f, 0.177899f, -0.063673f, -0.012621f, -0.156990f, 0.109628f, -0.171360f, -0.146842f, 0.216152f, -0.240927f, 0.100458f, -0.184813f, 0.074907f, 0.199336f, -0.001528f, -0.097766f, 0.217031f, -0.195544f, -0.080226f, -0.018155f, -0.062794f, -0.127619f, 0.138040f, -0.002813f, -0.217993f, -0.015931f, 0.109796f, -0.120397f, 0.006445f, 0.138908f, -0.231487f, 0.181868f, 0.033305f, 0.220322f, 0.063300f, -0.144291f, 0.209371f, -0.014512f, -0.095435f, 0.223474f, 0.098645f, -0.106198f, 0.279207f, 0.113780f, -0.060907f, -0.036987f, 0.181307f, 0.156481f, -0.156320f, 0.150567f, -0.117070f, -0.207338f, -0.166775f, -0.227991f, -0.241732f, 0.156901f, 0.265570f, 0.003681f, -0.066638f, 0.051676f, 0.039007f, -0.059572f, 0.005082f, 0.171719f, -0.141288f, 0.025616f, 0.199005f, -0.009016f, -0.182291f, 0.145243f, -0.044871f, 0.058434f, -0.203611f, 0.105604f, -0.081905f, 0.080874f, 0.067881f, 0.006767f, 0.163611f, -0.104301f, -0.044913f, -0.139378f, -0.044517f, -0.238904f, -0.022070f, -0.135164f, -0.007826f, -0.026070f, -0.076453f, -0.243189f, 0.060458f, -0.235233f, -0.116194f, 0.025635f, -0.131436f, -0.176977f, -0.186710f, 0.203631f, 0.101019f, -0.168812f, 0.094757f, 0.214414f, 0.013887f, 0.223196f, -0.062358f, -0.030337f, -0.009166f, -0.158562f, -0.056129f, 0.124313f, 0.236203f, -0.291671f, 0.041130f, -0.068780f, -0.077590f, 0.241739f, 0.075081f, 0.027570f, -0.063004f, -0.032938f, 0.024101f, 0.081313f, 0.112514f, 0.117340f, 0.247591f, 0.005363f, 0.086506f, 0.074896f, -0.211095f, 0.218437f, 0.005674f, -0.038802f, 0.159659f, -0.128346f, 0.125969f, 0.057016f, 0.080672f, 0.232840f, -0.068573f, 0.040231f, -0.024687f, 0.251067f, -0.071669f, 0.168683f, -0.045551f, -0.035252f, 0.237011f, 0.058422f, -0.197525f, -0.147686f, -0.211866f, -0.044542f, 0.176992f, -0.215889f, -0.121713f, 0.223487f, 0.181869f, 0.165170f, -0.046468f, 0.212373f, 0.001253f, 0.166766f, 0.224705f, 0.009737f, -0.114924f, -0.173429f, 0.029527f, 0.039281f, 0.214076f, 0.210176f, -0.133917f, -0.011552f, -0.114738f, 0.131538f, 0.094102f, -0.023924f, -0.168724f, -0.251536f, -0.026643f, 0.077245f, -0.034506f, -0.044473f, -0.255847f, 0.006284f, -0.167092f, -0.133105f, -0.093346f, -0.033283f, 0.214372f, -0.006847f, -0.071097f, -0.050334f, 0.096668f, -0.021376f, -0.212952f, 0.046770f, -0.027050f, -0.116131f, -0.099386f, 0.222253f, -0.203536f, 0.004218f, 0.208748f, -0.190325f, -0.036581f, 0.211947f, 0.189777f, 0.175215f, 0.027119f, -0.068180f, 0.166683f, -0.042202f, -0.099140f, 0.025601f, 0.168794f, 0.071192f, 0.207882f, -0.047807f, -0.240740f, -0.079198f, 0.177291f, -0.196764f, -0.086047f, -0.219595f, 0.148681f, -0.109102f, 0.129245f, -0.099733f, 0.081981f, -0.004292f, -0.122479f, -0.139226f, 0.054765f, 0.100767f, 0.011524f, 0.007671f, -0.124818f, 0.004754f, -0.174671f, 0.230295f, 0.233626f, 0.068306f, -0.149348f, 0.071486f, 0.231448f, 0.228834f, 0.127864f, -0.215646f, 0.095616f, 0.059573f, 0.233011f, -0.129400f, 0.157715f, -0.129612f, -0.228055f, 0.124280f, 0.173917f, -0.116121f, -0.166192f, 0.189736f, 0.107081f, 0.147154f, 0.236303f, -0.189196f, 0.098487f, 0.183144f, -0.188458f, 0.200771f, 0.069851f, -0.167876f, -0.124465f, 0.131426f, 0.071412f, 0.231106f, 0.084781f, -0.217239f, -0.185708f, -0.248823f, -0.100312f, -0.121311f, 0.223881f, 0.204880f, -0.024464f, -0.128780f, -0.060456f, 0.065079f, 0.129093f, -0.136569f, 0.010679f, -0.030062f, -0.093753f, 0.154103f, 0.183690f, -0.147881f, 0.200890f, 0.241699f, -0.234066f, -0.111348f, 0.078147f, -0.102198f, -0.227073f, -0.092768f, 0.123718f, -0.134217f, 0.077982f, 0.217425f, 0.012163f, 0.120625f, -0.109917f, -0.138232f, -0.152303f, 0.143223f, 0.185422f, -0.030485f, -0.223986f, 0.141256f, 0.233308f, -0.114326f, 0.049742f, 0.231106f, 0.208754f, 0.198574f, -0.046345f, 0.246915f, 0.118926f, 0.081897f, -0.000087f, -0.047038f, 0.009717f, -0.093860f, 0.184368f, 0.114805f, 0.061056f, -0.096473f, 0.215353f, -0.250377f, 0.081582f, 0.026253f, -0.042659f, -0.117849f, -0.121869f, 0.234369f, 0.146495f, 0.115176f, -0.072747f, -0.036635f, -0.158977f, -0.127534f, -0.098048f, 0.020462f, 0.076456f, 0.204076f, -0.126536f, 0.132946f, 0.111314f, -0.111807f, 0.218844f, -0.001216f, -0.030289f, 0.192018f, -0.008173f, -0.025789f, -0.053504f, 0.059527f, 0.152601f, -0.060035f, 0.241303f, 0.135790f, 0.148288f, -0.050019f, -0.214402f, -0.018706f, 0.017567f, -0.163374f, 0.076559f, 0.133119f, 0.240889f, -0.020357f, -0.185874f, -0.223123f, 0.016386f, 0.116096f, -0.094233f, 0.064891f, 0.238627f, 0.166249f, -0.110910f, 0.035487f, 0.097299f, -0.078519f, 0.222218f, 0.179609f, -0.035629f, -0.084349f, 0.241073f, -0.218973f, 0.188161f, -0.169837f, 0.233636f, -0.247233f, 0.042631f, 0.018968f, 0.069022f, 0.033877f, 0.176777f, 0.170106f, 0.042886f, -0.207758f, -0.147049f, 0.012844f, -0.156736f, -0.107482f, -0.155662f, 0.184376f, -0.239623f, 0.028170f, -0.056199f, 0.240810f, -0.215388f, 0.124417f, 0.121338f, -0.162957f, -0.153176f, 0.046688f, -0.036714f, 0.038428f, -0.026915f, 0.219057f, -0.070655f, -0.102554f, -0.094063f, -0.203084f, -0.155549f, -0.104816f, 0.229845f, 0.246297f, -0.108186f, 0.188063f, 0.216271f, -0.245361f, -0.190482f, 0.085896f, -0.054192f, 0.135111f, 0.115776f, 0.179002f, -0.160142f, -0.064603f, 0.069540f, 0.098554f, -0.093313f, -0.087107f, -0.214852f, -0.167116f, -0.102765f, -0.162438f, 0.193090f, 0.015601f, -0.091206f, -0.006226f, -0.072631f, 0.024779f, 0.207696f, -0.189175f, -0.054644f, -0.048441f, 0.167810f, 0.040421f, 0.102091f, 0.243105f, 0.122074f, 0.178264f, 0.227296f, -0.003848f, -0.124888f, 0.257555f, 0.232207f, -0.004849f, 0.030081f, 0.269077f, 0.169479f, 0.219307f, 0.089213f, -0.003676f, 0.206705f, 0.193132f, -0.150703f, -0.103804f, 0.083546f, -0.212686f, -0.070465f, 0.084505f, 0.109750f, -0.155550f, -0.071731f, 0.109264f, -0.004730f, 0.114304f, -0.031888f, 0.108732f, -0.297109f, 0.055655f, -0.207688f, -0.162766f, -0.089037f, 0.001826f, 0.060101f, -0.084033f, -0.124378f, 0.099053f, 0.080096f, 0.113751f, -0.273977f, 0.240192f, 0.019240f, 0.094794f, -0.137467f, -0.193480f, 0.056293f, -0.095222f, -0.168931f, 0.132959f, -0.107693f, -0.110335f, -0.116119f, -0.182845f, 0.131050f, -0.092779f, -0.067138f, -0.193248f, -0.143602f, 0.115877f, -0.204842f, -0.183472f, -0.221434f, -0.134541f, 0.135874f, -0.133382f, 0.045363f, -0.141604f, 0.296933f, -0.131207f, -0.136059f, 0.057964f, -0.103864f, -0.071783f, 0.078024f, 0.023231f, -0.091235f, -0.158591f, -0.255061f, -0.078035f, -0.163431f, 0.140481f, 0.088129f, -0.086414f, 0.105707f, -0.089368f, -0.075074f, 0.248507f, -0.201376f, -0.059955f, 0.072337f, 0.059910f, -0.170799f, -0.127894f, -0.167409f, 0.200715f, -0.245608f, 0.101097f, 0.200408f, 0.196549f, -0.174850f, -0.046863f, 0.103294f, -0.215489f, -0.170384f, -0.149417f, 0.171639f, -0.087893f, -0.008806f, 0.034786f, 0.121546f, -0.212335f, -0.209684f, 0.119675f, 0.058890f, 0.154829f, 0.168540f, -0.005740f, -0.228665f, -0.044542f, 0.179178f, 0.037314f, -0.214043f, 0.126445f, -0.036859f, -0.107117f, -0.203512f, -0.036159f, 0.127018f, -0.152826f, -0.240920f, -0.011592f, -0.166760f, -0.142558f, -0.195759f, -0.019875f, -0.028473f, 0.197469f, 0.243095f, -0.013956f, 0.137184f, 0.190612f, -0.035856f, 0.043980f, 0.031339f, 0.209496f, -0.092756f, 0.103726f, 0.213329f, -0.092107f, -0.236159f, 0.097271f, -0.013744f, -0.102265f, -0.192425f, -0.112847f, 0.060996f, 0.162256f, 0.202828f, 0.049677f, 0.247689f, 0.114614f, 0.070007f, -0.049596f, -0.017847f, -0.125082f, 0.233196f, 0.152062f, -0.058333f, -0.182621f, -0.111711f, -0.245615f, -0.103871f, -0.186632f, -0.085476f, 0.132805f, 0.034061f, -0.253977f, 0.240799f, -0.185543f, -0.140868f, 0.195321f, 0.069360f, 0.038699f, -0.192712f, -0.177228f, 0.227441f, 0.208171f, -0.006299f, 0.146774f, -0.153055f, 0.197550f, 0.138228f, 0.095219f, 0.076119f, 0.177173f, 0.100323f, -0.301511f, 0.031894f, 0.047358f, 0.097997f, -0.070799f, 0.089915f, -0.035606f, 0.256158f, 0.247586f, -0.060717f, 0.117462f, -0.017218f, -0.124224f, 0.233515f, -0.068231f, -0.149576f, -0.135422f, 0.247018f, 0.044082f, 0.119098f, 0.173532f, -0.175197f, 0.215016f, -0.233950f, 0.088500f, 0.132396f, 0.185172f, 0.131078f, 0.149747f, -0.117722f, -0.015586f, 0.023210f, -0.022297f, -0.078285f, 0.237941f, 0.087059f, 0.181463f, 0.005448f, -0.206513f, 0.130711f, 0.204774f, 0.129813f, 0.075294f, -0.057670f, -0.223967f, 0.234109f, -0.125125f, 0.152725f, 0.064921f, -0.124680f, 0.121795f, 0.175426f, 0.006258f, -0.011034f, 0.051698f, -0.258766f, 0.068765f, 0.209232f, 0.112128f, 0.038160f, -0.004227f, 0.104991f, 0.080730f, -0.362184f, -0.135875f, 0.213738f, 0.008571f, 0.138274f, 0.038975f, -0.361065f, -0.145762f, -0.201253f, -0.087025f, 0.004627f, 0.227669f, 0.007019f, 0.053973f, -0.209220f, -0.185743f, 0.157244f, 0.034656f, 0.020288f, 0.180454f, -0.245840f, -0.214785f, 0.194401f, 0.227388f, -0.048464f, 0.087764f, -0.164081f, 0.193374f, 0.065668f, -0.016501f, 0.181220f, -0.173132f, 0.090068f, -0.241472f, -0.040547f, 0.183114f, -0.034038f, -0.225936f, 0.093783f, -0.121760f, 0.067936f, 0.098268f, 0.005901f, -0.232968f, 0.190860f, -0.306784f, 0.092663f, -0.101483f, -0.270303f, 0.009426f, 0.192742f, -0.059679f, 0.010477f, -0.356173f, 0.029407f, 0.179780f, -0.003477f, -0.033153f, 0.016912f, 0.078135f, 0.078037f, 0.210829f, 0.114586f, 0.066121f, 0.254757f, 0.077695f, -0.329778f, 0.018257f, -0.449381f, 0.113179f, 0.073854f, -0.040211f, 0.176028f, -0.063369f, 0.229143f, 0.196172f, 0.224887f, -0.127324f, 0.089617f, -0.068801f, -1.153105f, -0.006892f, 0.002410f, -0.009037f, 0.134898f, -0.529136f, 0.147836f, 0.109418f, -0.010821f, 0.095949f, 0.027449f, 0.082737f, 0.192206f, 0.087422f, -0.031281f, 0.005787f, 0.097962f, 0.168228f, 0.172751f, 0.213533f, 0.042929f, 0.088612f, 0.138667f, -0.551722f, 0.102254f, 0.110927f, -1.713883f, -2.173430f, 0.085294f };
static const float mynet_layer_2_biases[1] = { 0.310208f };
static const float mynet_layer_2_weights[32] = { -0.178341f, 0.073307f, -0.197765f, 0.066642f, -0.200041f, -0.196086f, 0.233764f, -0.009567f, 0.140690f, -0.090926f, 0.283166f, -0.129834f, -0.123476f, -0.011475f, -0.200934f, 0.374677f, -0.181975f, -0.165315f, -0.128943f, -0.246996f, 0.100100f, 0.152425f, -0.264031f, 0.186175f, 0.246607f, 0.025343f, 0.241466f, 0.330357f, 0.272316f, 0.378526f, 0.203406f, 0.321601f };
static float mynet_buf1[64];
static float mynet_buf2[64];
static const EmlNetLayer mynet_layers[3] = { 
{ 64, 7, mynet_layer_0_weights, mynet_layer_0_biases, EmlNetActivationRelu }, 
{ 32, 64, mynet_layer_1_weights, mynet_layer_1_biases, EmlNetActivationRelu }, 
{ 1, 32, mynet_layer_2_weights, mynet_layer_2_biases, EmlNetActivationIdentity } };
static EmlNet mynet = { 3, mynet_layers, mynet_buf1, mynet_buf2, 64 };

    int32_t
    mynet_predict(const float *features, int32_t n_features)
    {
        return eml_net_predict(&mynet, features, n_features);
    }
    

    int32_t
    mynet_regress(const float *features, int32_t n_features, float *out, int32_t out_length)
    {
        return eml_net_regress(&mynet, features, n_features, out, out_length);
    }
    

    float
    mynet_regress1(const float *features, int32_t n_features)
    {
        return eml_net_regress1(&mynet, features, n_features);
    }
    