
#include <eml_net.h>
static const float mynet_layer_0_biases[64] = { -0.229763f, -0.212801f, 0.000000f, -0.195325f, -0.182541f, -0.014550f, -0.200409f, 0.000000f, 0.000000f, 0.000000f, -0.205303f, -0.052023f, -0.205903f, 0.000000f, -0.239067f, 0.000000f, -0.193478f, 0.000000f, 0.000000f, 0.000000f, 0.000000f, 0.000000f, 0.000000f, 0.000000f, 0.000000f, -0.243440f, -0.135050f, 0.000000f, 0.000000f, 0.000000f, 0.000000f, 0.000000f, -0.206490f, 0.000000f, -0.206099f, 0.000000f, 0.000000f, -0.062400f, 0.000000f, -0.177128f, -0.163388f, -0.111562f, 0.000000f, -0.224790f, 0.000000f, 0.000000f, 0.000000f, -0.260596f, 0.000000f, -0.223347f, 0.000000f, 0.000000f, 0.000000f, -0.143254f, 0.000000f, -0.235714f, 0.000000f, 0.000000f, -0.251822f, -0.007729f, 0.000000f, -0.260428f, -0.047143f, 0.000000f };
static const float mynet_layer_0_weights[512] = { 0.034858f, 0.018583f, -0.130399f, -0.027546f, -0.011833f, 0.020476f, 0.036944f, -0.009325f, -0.123558f, -0.113344f, 0.049350f, -0.042895f, -0.012822f, -0.102562f, -0.029712f, -0.196712f, -0.010110f, -0.240272f, -0.029638f, -0.089753f, -0.239502f, -0.097040f, -0.069833f, -0.068918f, -0.076935f, 0.028782f, -0.036107f, -0.287884f, -0.218640f, -0.170348f, -0.112585f, -0.253128f, 0.007757f, -0.279483f, -0.000742f, -0.018709f, -0.286850f, 0.003761f, -0.136790f, 0.011342f, 0.007797f, -0.019227f, -0.260983f, 0.032586f, -0.011105f, -0.172845f, -0.234753f, 0.004358f, 0.001530f, 0.012135f, -0.080523f, -0.047377f, -0.163703f, -0.030802f, -0.130560f, -0.015765f, -0.058467f, -0.209987f, 0.012070f, -0.038320f, -0.099625f, 0.019391f, 0.004994f, -0.214505f, 0.001212f, 0.033780f, -0.073895f, 0.013820f, 0.000318f, -0.117761f, -0.268360f, -0.036753f, 0.188956f, 0.102069f, 0.027306f, 0.022662f, -0.076977f, 0.162951f, -0.075277f, 0.163372f, -0.002595f, 0.012764f, -0.173851f, -0.033416f, 0.221933f, 0.017951f, -0.218194f, -0.019268f, -0.246997f, -0.420905f, 0.039696f, 0.065234f, -0.112302f, -0.192505f, -0.189885f, -0.193091f, 0.041914f, -0.072511f, -0.056717f, 0.242145f, -0.092993f, 0.171043f, -0.277075f, 0.016360f, -0.160009f, -0.002634f, -0.016500f, -0.239526f, -0.090970f, -0.272307f, -0.195002f, 0.199388f, -0.127463f, -0.486180f, 0.253519f, 0.131639f, 0.206402f, 0.000026f, -0.121996f, 0.000825f, -0.093571f, 0.283757f, -0.003161f, -0.015759f, -0.242734f, -0.003608f, -0.010003f, -0.033431f, -0.142564f, -0.053600f, -0.113251f, -0.031953f, -0.002848f, 0.105827f, -0.228040f, 0.105039f, 0.119480f, -0.096782f, 0.008818f, 0.011440f, -0.140113f, -0.241709f, 0.056820f, 0.041040f, 0.077843f, -0.277215f, -0.271753f, -0.252397f, 0.014268f, 0.022904f, 0.143687f, 0.058986f, -0.081642f, -0.091119f, 0.110633f, 0.259756f, -0.198210f, 0.162185f, 0.179189f, 0.042990f, 0.047847f, 0.078643f, -0.061571f, -0.193390f, -0.020158f, 0.111592f, 0.230988f, -0.106205f, -0.189487f, 0.125509f, -0.195615f, -0.326375f, -0.285862f, -0.009246f, -0.223356f, -0.025441f, 0.060912f, -0.221557f, -0.016965f, -0.089332f, 0.164556f, 0.083293f, 0.133929f, 0.000348f, 0.069914f, -0.182875f, 0.002452f, 0.001911f, 0.242030f, -0.000312f, -0.032396f, -0.113506f, -0.110617f, -0.025238f, 0.220547f, 0.011946f, -0.001813f, -0.047603f, 0.102609f, 0.200716f, -0.199577f, 0.092083f, -0.085127f, -0.059811f, -0.003532f, -0.095485f, -0.007318f, 0.009109f, 0.091797f, -0.048663f, -0.260384f, 0.037581f, 0.180601f, 0.221890f, -0.192368f, -0.208757f, 0.080867f, -0.298688f, 0.177651f, 0.263998f, -0.117103f, -0.239774f, 0.090110f, 0.167946f, 0.023673f, 0.147160f, -0.018398f, -0.107763f, 0.211031f, 0.013630f, -0.186422f, -0.018737f, -0.099672f, 0.038293f, -0.136622f, -0.019929f, 0.031609f, -0.145050f, -0.194358f, 0.044588f, 0.129198f, -0.003512f, -0.144264f, 0.099924f, 0.191191f, 0.023972f, -0.140341f, 0.002888f, -0.085551f, -0.190219f, 0.000202f, -0.002155f, 0.219181f, 0.000953f, -0.008126f, 0.285076f, -0.309153f, -0.147074f, 0.285108f, 0.093779f, 0.089416f, -0.204037f, -0.353561f, -0.261391f, -0.168924f, -0.128288f, -0.470887f, 0.070109f, 0.074773f, 0.159398f, 0.096588f, 0.136832f, -0.074862f, -0.064864f, 0.118599f, -0.093806f, -0.250069f, -0.134247f, 0.139537f, 0.161310f, -0.018255f, -0.335032f, 0.129595f, -0.156132f, -0.086221f, -0.209907f, 0.191528f, -0.014549f, -0.235492f, 0.024125f, 0.011203f, -0.259341f, 0.261183f, -0.251856f, 0.241346f, -0.155729f, -0.085090f, 0.044093f, -0.124801f, -0.301799f, -0.228731f, -0.160529f, -0.154103f, -0.288114f, -0.161470f, -0.133617f, -0.048660f, -0.040955f, 0.197510f, 0.145377f, -0.268706f, 0.117128f, -0.227642f, 0.017319f, -0.137108f, 0.308204f, -0.108735f, -0.190977f, -0.073255f, -0.277370f, -0.633704f, -0.800813f, -0.172995f, 0.471938f, 0.939416f, -0.058741f, -0.281772f, 0.223423f, -0.116795f, -0.059936f, -0.283379f, 0.756101f, 0.053096f, -0.146683f, 0.576608f, 0.117020f, 0.528010f, 0.061366f, -0.244958f, 0.164154f, -0.109986f, 0.153287f, -0.247151f, 0.009520f, 0.198445f, 0.063167f, 0.523859f, -0.195148f, 0.048903f, -0.077957f, 0.255118f, 0.023840f, 0.519613f, 0.042769f, -0.856384f, -0.010529f, -0.107104f, 0.677844f, -0.115794f, 0.948060f, -0.667183f, 0.321609f, -0.140193f, -0.038748f, 0.081530f, -0.134504f, -0.146350f, 0.643417f, -0.269812f, 0.162191f, 0.050138f, 0.156408f, 0.119411f, 0.456293f, 0.003473f, 1.194387f, 0.191020f, 0.247685f, 0.916089f, 0.885600f, 0.005760f, 1.117035f, -0.974054f, 0.270142f, -0.494102f, -0.603114f, -0.110097f, 0.769258f, 0.999544f, -0.033667f, -0.262098f, -0.070556f, 0.109567f, -0.092722f, -0.492278f, 1.039702f, 0.475143f, 0.048676f, 0.375212f, 0.214471f, 0.580240f, -0.112426f, 0.203985f, -0.000907f, 0.070772f, -0.241419f, -0.002586f, 0.076077f, -0.045266f, -0.390790f, 0.699790f, 0.046418f, -0.019836f, 0.155776f, -0.142744f, -0.085447f, 0.750692f, 0.179153f, -0.771849f, -0.059682f, 0.264819f, 0.820484f, 0.036977f, 0.978202f, -0.481976f, 0.603996f, 0.020768f, -0.241813f, -0.104469f, 0.032291f, 0.185656f, 0.493392f, -0.079098f, -0.177013f, 0.256952f, 0.264045f, -0.182531f, 0.171652f, 0.255019f, 1.565342f, 0.254268f, 0.216688f, 1.109869f, 1.018492f, -0.208632f, 1.384207f, -0.772421f, -0.253684f, -0.079305f, -0.036002f, 0.068261f, 0.078509f, -0.026531f, 0.010831f, -0.186145f, 0.237954f, 0.245128f, 0.171000f, -0.477849f, 0.025494f, -0.377782f, 0.081478f, -0.068342f, 0.216795f, -0.329292f, 0.024360f, -0.140393f, -0.137662f, -0.090337f, 0.185552f, 0.121726f, -0.206176f, 0.219734f, -0.433885f, 0.043857f, -0.227817f, 0.118681f, 0.003171f, -0.002941f, 0.209238f, -0.041610f, -0.227339f, 0.023442f, 0.228683f, 0.024385f, 0.017769f, 0.172348f, -0.025113f, -0.370388f, -0.041416f, 0.214664f, -0.098516f, 0.253208f, 0.119608f, 0.167148f, -0.134611f, 0.131902f, -0.351025f, 0.200745f, 0.204060f, 0.133423f, -0.267708f, -0.112114f, 0.001165f, 0.146526f, 0.031347f, -0.235627f, 0.052485f, -0.116629f, -0.226298f, 0.047786f, 0.017997f };
static const float mynet_layer_1_biases[32] = { 0.658005f, 0.420206f, -0.380606f, 0.445519f, -0.221989f, -0.071263f, 0.881977f, 0.308763f, -0.060029f, 0.359250f, 0.371027f, -0.132407f, -0.150127f, 1.082365f, 0.683769f, -0.927970f, -0.084819f, 0.783428f, 0.694060f, -0.235538f, 0.703310f, 0.417945f, 0.473871f, -0.596331f, -0.184986f, -0.592790f, 0.596727f, 0.318667f, 0.134133f, -0.114461f, 0.095844f, 0.309911f };
static const float mynet_layer_1_weights[2048] = { -0.095381f, 0.085591f, 0.224696f, -0.037165f, 0.175067f, -0.023289f, -0.136925f, 0.173427f, 0.003515f, -0.138835f, 0.158393f, 0.158616f, 0.181817f, -0.118382f, -0.185988f, 0.048638f, 0.177706f, 0.097210f, -0.169129f, 0.185719f, 0.250246f, 0.162728f, 0.075195f, 0.023816f, 0.058839f, -0.220847f, -0.097055f, 0.058351f, -0.067283f, -0.041740f, 0.016858f, 0.148223f, 0.181616f, 0.146760f, -0.124627f, -0.047681f, 0.088778f, -0.009828f, -0.111502f, -0.205337f, 0.247012f, 0.125620f, -0.024546f, -0.159104f, -0.150802f, -0.301560f, -0.215112f, -0.140631f, -0.130285f, 0.051566f, -0.496784f, 0.086165f, 0.046772f, -0.017296f, -0.033651f, -0.257605f, 0.012135f, 0.083659f, 0.150554f, 0.040327f, 0.246098f, 0.180312f, -0.280398f, -0.231284f, -0.164274f, 0.027941f, -0.150709f, 0.115648f, -0.007226f, 0.187685f, -0.086209f, 0.133169f, 0.143852f, 0.040777f, -0.227852f, -0.109363f, -0.069136f, -0.236465f, -0.107998f, 0.140527f, -0.075644f, -0.128599f, 0.057179f, -0.191539f, 0.145303f, -0.199576f, -0.018563f, -0.209119f, 0.127376f, -0.067242f, -0.151553f, -0.218774f, 0.226087f, 0.158249f, 0.199302f, 0.178196f, 0.216301f, -0.145693f, -0.139127f, -0.142818f, -0.012358f, 0.214188f, 0.084182f, 0.240852f, -0.105470f, -0.108477f, -0.103555f, -0.103815f, -0.032343f, 0.153234f, -0.020246f, -0.083298f, 0.081487f, -0.233875f, -0.028180f, 0.213998f, 0.094015f, 0.156423f, 0.116173f, -0.043738f, 0.005880f, -0.127586f, -0.158059f, -0.087446f, 0.001753f, -0.044486f, 0.016088f, 0.177622f, -0.424076f, -0.664881f, -0.090040f, 0.001540f, -0.211157f, 0.205430f, -0.129479f, 0.131423f, -0.001149f, -0.148623f, 0.176384f, 0.088331f, -0.052548f, -1.113120f, -0.360272f, 0.329486f, 0.101847f, -0.113611f, 0.282824f, -0.014527f, 0.007109f, 0.098943f, -0.119430f, -0.064229f, -0.213431f, -0.079738f, -0.037350f, 0.057799f, 0.133382f, 0.130035f, -0.000129f, 0.114813f, -0.233748f, 0.143092f, -0.125418f, 0.026968f, -0.244427f, 0.053437f, 0.128570f, 0.024295f, -0.075157f, -0.146320f, -0.162816f, 0.084404f, 0.138376f, 0.063928f, 0.096039f, 0.188507f, -0.255652f, -0.133387f, -0.154642f, 0.138100f, -0.020208f, 0.209059f, 0.097601f, -0.038364f, -0.056803f, 0.113303f, 0.187241f, -0.228608f, -0.111670f, 0.014913f, 0.046295f, 0.040902f, 0.164219f, 0.164062f, -0.125303f, 0.058356f, -0.008894f, 0.055772f, -0.087220f, -0.013733f, 0.080123f, 0.141628f, 0.241935f, -0.125109f, 0.237730f, -0.087902f, -0.164846f, -0.103935f, -0.080464f, -0.210891f, 0.119981f, -0.159963f, 0.023973f, 0.001639f, -0.130667f, -0.093482f, -0.062072f, 0.013346f, -0.220444f, -0.082830f, -0.006211f, 0.044478f, -0.027191f, -0.204272f, 0.232415f, 0.149248f, -0.053491f, 0.026804f, 0.050761f, -0.130684f, -0.117428f, 0.225089f, -0.159839f, 0.006808f, 0.162002f, 0.148990f, 0.088454f, -0.139563f, 0.187973f, -0.193662f, 0.081864f, -0.132193f, -0.022724f, 0.126458f, 0.119155f, 0.231751f, -0.106550f, -0.065709f, 0.231225f, 0.239111f, 0.177665f, -0.028305f, -0.185224f, 0.001310f, -0.031699f, 0.005297f, 0.044520f, 0.182127f, 0.117889f, -0.151777f, -0.204014f, 0.054064f, -0.035342f, 0.246085f, -0.234795f, 0.191246f, 0.121801f, -0.127402f, -0.186965f, -0.062540f, -0.230852f, -0.168465f, -0.054186f, 0.042232f, 0.111706f, 0.148601f, -0.161691f, -0.203275f, -0.058402f, 0.088067f, -0.232119f, 0.112807f, 0.230142f, -0.041468f, 0.020493f, 0.188367f, -0.052399f, -0.202976f, -0.044114f, -0.159642f, 0.110628f, 0.216113f, -0.025563f, 0.235055f, 0.094291f, -0.189643f, 0.076005f, 0.221245f, -0.021680f, -0.188053f, -0.239094f, -0.097572f, 0.085416f, -0.205639f, -0.109048f, 0.178510f, 0.227000f, -0.138236f, 0.085738f, -0.222070f, -0.175166f, 0.074452f, 0.079702f, 0.094841f, -0.205034f, -0.052319f, -0.054737f, 0.131544f, -0.221549f, -0.009731f, 0.017516f, -0.075608f, -0.228489f, -0.082011f, -0.197251f, -0.015709f, -0.077487f, -0.041921f, 0.006858f, 0.106188f, -0.089761f, 0.249040f, -0.033071f, -0.106159f, -0.135051f, 0.038121f, 0.143698f, -0.191744f, -0.200806f, -0.146443f, 0.125150f, 0.153250f, -0.164870f, -0.127161f, -0.094236f, -0.256283f, -0.109786f, -0.094740f, 0.223008f, 0.236726f, -0.152789f, 0.077074f, 0.195617f, -0.161954f, -0.283160f, -0.044231f, -0.022946f, 0.030687f, 0.117798f, -0.186821f, 0.080368f, 0.198328f, 0.217281f, 0.185767f, 0.086962f, 0.046205f, 0.058425f, -0.081361f, -0.008799f, -0.312936f, -0.053294f, 0.174859f, 0.051093f, 0.155930f, 0.128999f, -0.025292f, -0.212736f, -0.163124f, -0.448936f, 0.280754f, -0.040424f, 0.156828f, -0.018770f, 0.172619f, -0.224140f, -0.090460f, 0.087597f, -0.081778f, -0.011129f, 0.016118f, -0.030974f, 0.183976f, 0.114306f, -0.218504f, -0.139596f, 0.036473f, 0.142893f, 0.079118f, 0.039940f, -0.116317f, 0.144296f, -0.016601f, -0.068544f, -0.072190f, 0.003059f, 0.178262f, -0.227890f, -0.037768f, -0.020123f, 0.113090f, 0.102692f, 0.135847f, -0.182555f, -0.107793f, -0.214603f, 0.171818f, 0.244024f, -0.210097f, 0.088511f, -0.049982f, 0.002770f, -0.059349f, -0.147964f, -0.217296f, 0.079470f, -0.196038f, -0.198487f, -0.121963f, -0.240326f, -0.153282f, -0.161529f, 0.219373f, -0.005110f, -0.220861f, -0.099431f, -0.233457f, 0.097335f, -0.221725f, -0.041822f, 0.172944f, -0.221982f, 0.084689f, -0.052827f, -0.247391f, 0.000370f, -0.084085f, -0.048195f, 0.167172f, 0.108724f, -0.170540f, 0.094913f, -0.168171f, 0.213047f, 0.145425f, 0.031960f, -0.123591f, -0.052560f, 0.245072f, 0.138116f, 0.008203f, 0.176833f, 0.104131f, -0.007168f, 0.145470f, -0.102452f, 0.012075f, -0.020834f, 0.175328f, 0.003509f, -0.111021f, 0.099878f, -0.060103f, -0.047804f, -0.099332f, -0.277021f, 0.214411f, 0.068431f, -0.057077f, 0.160037f, 0.206726f, 0.055653f, 0.042199f, -0.077126f, 0.063803f, 0.209157f, 0.200378f, 0.124515f, -0.110433f, 0.089172f, -0.017175f, 0.049472f, 0.201179f, -0.152064f, -0.234227f, -0.243265f, -0.074585f, -0.132934f, -0.056804f, -0.215227f, -0.225987f, -0.213191f, -0.190652f, -0.141065f, 0.093880f, -0.006637f, 0.102847f, 0.077057f, 0.089886f, -0.198765f, -0.221690f, 0.122502f, 0.209508f, 0.038363f, 0.079797f, -0.040076f, -0.138456f, 0.129622f, 0.162014f, 0.054731f, 0.133108f, 0.060736f, 0.126905f, 0.125970f, -0.143897f, 0.111981f, 0.070174f, -0.059261f, -0.217142f, 0.218772f, 0.087136f, -0.027332f, 0.231699f, 0.200373f, 0.039825f, 0.056161f, -0.166181f, -0.199721f, -0.072610f, -0.177716f, 0.241932f, 0.231331f, -0.161169f, -0.062717f, 0.014907f, 0.074849f, 0.164842f, 0.177396f, 0.027238f, -0.045766f, 0.113590f, -0.187959f, -0.084902f, 0.243858f, 0.031993f, -0.071215f, 0.043134f, -0.134294f, -0.048963f, 0.069849f, 0.248916f, -0.098343f, -0.244904f, 0.046683f, -0.115634f, -0.211684f, 0.203285f, 0.013011f, 0.154768f, -0.084163f, -0.102701f, -0.234899f, 0.023394f, 0.214898f, 0.061873f, 0.192174f, 0.010534f, -0.056497f, 0.239578f, -0.106311f, -0.097297f, -0.174036f, 0.002539f, 0.007517f, -0.113339f, -0.093761f, -0.131120f, -0.026566f, 0.215804f, 0.239789f, 0.237858f, 0.130749f, -0.169528f, -0.247718f, -0.239504f, -0.054027f, -0.208093f, 0.044516f, -0.092100f, -0.033738f, -0.200419f, -0.214272f, -0.024100f, 0.156617f, -0.163020f, -0.110752f, -0.128020f, 0.009781f, -0.106479f, 0.214316f, -0.007545f, -0.230857f, 0.054382f, -0.218387f, -0.078218f, -0.244575f, 0.005191f, 0.024253f, 0.176150f, -0.192433f, -0.000431f, -0.152015f, 0.033978f, -0.183187f, -0.025213f, -0.249810f, -0.056756f, -0.069724f, -0.011079f, -0.030150f, 0.191175f, -0.219808f, -0.053993f, 0.109477f, 0.039081f, -0.225347f, 0.005723f, -0.158235f, 0.167586f, 0.244176f, -0.227316f, -0.167699f, 0.045400f, 0.009304f, 0.100469f, -0.173006f, 0.058836f, 0.101232f, -0.126747f, 0.095661f, 0.151801f, -0.162423f, -0.007156f, -0.221946f, 0.201965f, 0.193341f, 0.017408f, 0.124831f, -0.123418f, -0.229919f, 0.054902f, -0.138924f, -0.210808f, 0.167317f, 0.211161f, 0.198561f, 0.166751f, -0.189911f, 0.187551f, -0.053401f, 0.227013f, -0.159038f, -0.166749f, -0.116839f, 0.172482f, 0.088578f, 0.158255f, -0.000949f, -0.018442f, -0.107515f, 0.051771f, -0.091302f, -0.054657f, -0.109670f, -0.141150f, -0.118928f, 0.054846f, -0.048534f, 0.238896f, 0.080672f, 0.020971f, -0.061943f, -0.183452f, -0.128777f, 0.022972f, -0.040424f, -0.089495f, -0.044996f, 0.173887f, -0.181229f, 0.248574f, -0.158291f, 0.165655f, 0.019245f, 0.083214f, -0.017714f, -0.052028f, 0.103607f, 0.115544f, 0.081115f, 0.232773f, -0.123164f, 0.218871f, 0.066768f, -0.022071f, -0.002336f, 0.163150f, 0.108906f, -0.000526f, -0.208147f, 0.099083f, 0.081763f, 0.119165f, -0.241889f, -0.225414f, -0.085036f, 0.190087f, -0.051755f, 0.182001f, -0.174886f, 0.063866f, -0.198616f, -0.214725f, -0.045472f, -0.038749f, 0.135147f, 0.161932f, 0.214284f, 0.214446f, -0.033334f, 0.094440f, 0.138606f, -0.240548f, -0.018614f, -0.113459f, 0.005096f, -0.090386f, 0.001529f, -0.056194f, -0.147999f, 0.191949f, -0.192559f, 0.032713f, 0.078221f, -0.018305f, 0.177354f, 0.206953f, -0.074587f, -0.042600f, 0.226516f, -0.102574f, -0.197909f, 0.130852f, 0.238804f, -0.009278f, 0.071917f, -0.067960f, -0.091382f, -0.167096f, 0.249665f, -0.228238f, -0.200464f, -0.151011f, -0.102248f, 0.076392f, -0.203026f, 0.096665f, 0.182317f, 0.107202f, 0.056171f, -0.015810f, -0.033202f, 0.160310f, -0.231810f, 0.046519f, -0.193035f, -0.073761f, -0.197557f, 0.145226f, 0.165863f, -0.172798f, -0.142096f, -0.132939f, 0.136227f, -0.070151f, 0.119027f, -0.164428f, -0.229746f, -0.207415f, -0.065472f, -0.183263f, 0.124144f, -0.230753f, -0.087710f, -0.035528f, -0.174117f, -0.010353f, 0.161034f, 0.184847f, 0.071452f, -0.149467f, 0.048033f, 0.120687f, -0.215617f, -0.275420f, -0.196020f, -0.252660f, 0.195230f, -0.105578f, -0.045370f, 0.222337f, 0.111303f, 0.033477f, -0.085387f, -0.094463f, -0.243684f, 0.075571f, -0.134497f, 0.113557f, 0.196204f, 0.046231f, 0.046266f, -0.027916f, 0.210264f, 0.194067f, 0.134985f, 0.000656f, 0.147543f, -0.069681f, -0.121035f, -0.138706f, 0.218331f, -0.157153f, 0.229826f, 0.189748f, -0.145825f, 0.129031f, 0.134258f, 0.045631f, 0.002259f, 0.001609f, 0.063053f, 0.092733f, 0.091905f, 0.050602f, -0.128353f, 0.059985f, 0.066910f, -0.196275f, -0.089015f, 0.127231f, 0.171120f, -0.038447f, -0.200163f, -0.162665f, 0.047797f, 0.191101f, -0.124745f, -0.177324f, 0.245268f, -0.249820f, 0.182819f, -0.125351f, 0.017454f, -0.248346f, 0.064106f, -0.130779f, 0.039722f, -0.197926f, -0.092644f, 0.060183f, -0.102405f, 0.126186f, -0.092802f, -0.148928f, 0.150125f, -0.206884f, 0.114563f, 0.104120f, 0.157916f, -0.155671f, 0.203036f, 0.207208f, -0.038017f, 0.158077f, -0.105742f, 0.071175f, 0.220579f, -0.015492f, 0.019608f, -0.139221f, 0.247360f, 0.236139f, -0.030660f, 0.117042f, 0.015758f, 0.043923f, 0.058254f, 0.048096f, -0.034097f, -0.098117f, -0.244963f, -0.006147f, -0.173547f, 0.095127f, -0.132719f, -0.036006f, 0.234938f, 0.219656f, -0.225551f, 0.149637f, -0.089679f, 0.156224f, 0.133228f, -0.148524f, -0.221858f, 0.071866f, -0.095524f, -0.085573f, -0.158944f, 0.090775f, 0.192445f, -0.197190f, -0.032885f, -0.002332f, 0.060180f, 0.197079f, -0.060809f, 0.211097f, -0.144086f, 0.086180f, -0.054393f, 0.101788f, -0.144866f, 0.216907f, -0.027764f, -0.178885f, 0.066995f, 0.136419f, -0.000930f, -0.166592f, 0.095830f, 0.227362f, 0.165501f, 0.187465f, -0.096573f, 0.126630f, 0.158868f, -0.069792f, 0.173221f, 0.180763f, 0.127545f, 0.154578f, 0.209429f, -0.172050f, 0.060669f, 0.080520f, 0.057644f, 0.206894f, -0.225705f, -0.143652f, -0.156008f, 0.138926f, -0.029774f, -0.061672f, 0.210134f, -0.054963f, 0.015759f, 0.098603f, -0.226331f, 0.128789f, 0.088264f, -0.074583f, -0.105942f, -0.239854f, -0.147572f, -0.127002f, 0.218041f, 0.111914f, -0.199786f, 0.020882f, -0.225861f, -0.214533f, -0.093018f, -0.176663f, 0.053651f, 0.165167f, 0.206752f, 0.131311f, -0.154487f, -0.107725f, 0.095957f, 0.034264f, -0.083424f, 0.232145f, -0.100592f, -0.179285f, 0.080749f, -0.221580f, 0.006427f, 0.109019f, 0.088101f, 0.183173f, 0.030374f, 0.141255f, -0.027913f, 0.237500f, 0.031541f, 0.136055f, 0.025945f, -0.051960f, 0.006895f, 0.162287f, -0.146618f, 0.032381f, -0.013008f, 0.113840f, -0.138642f, -0.083890f, -0.180864f, 0.176885f, -0.002177f, 0.047280f, -0.056578f, 0.048526f, 0.177838f, 0.148739f, -0.104313f, -0.178187f, -0.115688f, 0.026841f, 0.117999f, -0.245898f, -0.019967f, 0.042219f, 0.067334f, -0.067481f, -0.050826f, 0.079630f, -0.206210f, -0.245518f, 0.027933f, 0.074641f, 0.243814f, 0.042096f, -0.128912f, 0.086044f, -0.071072f, 0.089487f, 0.149074f, -0.002096f, 0.222591f, -0.234804f, -0.198902f, 0.128019f, 0.150490f, -0.083266f, 0.000251f, -0.034473f, 0.053336f, -0.076256f, -0.141497f, 0.156517f, -0.184587f, -0.132208f, 0.040069f, -0.079692f, 0.189069f, 0.197179f, 0.091498f, 0.028453f, 0.227834f, 0.016963f, 0.063838f, -0.110962f, -0.185436f, 0.232473f, 0.242705f, 0.129272f, 0.195904f, -0.210601f, -0.152109f, -0.021810f, -0.031513f, -0.103721f, -0.063391f, -0.158265f, -0.061291f, 0.171714f, 0.019454f, 0.171619f, -0.002882f, -0.203047f, -0.267123f, -0.224024f, -0.025899f, -0.000779f, -0.236242f, 0.165593f, 0.168451f, 0.118914f, -0.043599f, -0.008906f, -0.283276f, -0.256868f, -0.099120f, -0.007455f, 0.042861f, 0.054494f, 0.134433f, -0.052412f, -0.226300f, 0.149188f, 0.033126f, 0.223218f, 0.237015f, 0.078702f, 0.206725f, 0.230625f, -0.155241f, -0.036772f, 0.249052f, -0.115047f, -0.078789f, 0.209678f, 0.231209f, 0.125918f, 0.076786f, -0.150124f, -0.093712f, -0.230458f, 0.241870f, -0.141345f, 0.089098f, 0.216070f, -0.136907f, -0.212606f, -0.246262f, -0.093330f, -0.175068f, -0.248248f, -0.232810f, -0.247723f, 0.124717f, -0.196308f, 0.236844f, -0.218959f, 0.013217f, -0.021100f, -0.232038f, 0.102798f, 0.087603f, -0.033493f, -0.107885f, 0.248864f, 0.114466f, -0.065062f, 0.123597f, 0.206591f, 0.001570f, -0.025484f, 0.000824f, -0.120796f, 0.040513f, -0.216117f, 0.211945f, -0.100451f, 0.170520f, -0.059547f, 0.210405f, 0.217072f, 0.219223f, 0.237262f, -0.030219f, -0.195813f, 0.196198f, -0.135035f, -0.144171f, -0.055503f, -0.022878f, -0.174669f, -0.103817f, -0.200764f, 0.161297f, 0.068545f, 0.193159f, 0.145563f, 0.117170f, -0.059289f, -0.056149f, -0.066230f, 0.185349f, 0.062285f, 0.162017f, -0.058739f, 0.212060f, -0.119132f, 0.076043f, 0.074749f, -0.176311f, -0.187810f, -0.323752f, 0.199176f, 0.056719f, 0.070883f, -0.186432f, 0.173520f, 0.117615f, -0.104883f, -0.048252f, -0.183596f, 0.132100f, -0.142417f, 0.200938f, 0.249310f, -0.220163f, 0.166557f, 0.081051f, -0.127700f, 0.095242f, 0.107010f, -0.163074f, 0.228405f, -0.050883f, -0.209054f, 0.024950f, 0.071898f, -0.119954f, -0.175019f, -0.022166f, 0.038224f, -0.230371f, 0.136010f, -0.053162f, 0.042286f, 0.052676f, 0.168489f, 0.199026f, 0.154650f, -0.060968f, 0.258678f, -0.201011f, -0.062797f, -0.040104f, 0.010603f, 0.050080f, 0.054863f, -0.012232f, 0.009528f, 0.027837f, -0.083154f, 0.209073f, -0.011693f, 0.015260f, -0.055831f, 0.013001f, -0.038504f, -0.073075f, -0.060242f, -0.285372f, 0.203525f, 0.072792f, -0.085911f, -0.095981f, 0.007565f, -0.299232f, -0.130060f, -0.065662f, 0.110386f, -0.000371f, 0.139103f, 0.202178f, -0.154386f, 0.099096f, -0.273860f, -0.216930f, 0.214960f, -0.007377f, 0.052111f, 0.129008f, -0.125971f, 0.201661f, -0.102316f, 0.119239f, -0.050786f, -0.049075f, -0.086624f, -0.140577f, -0.146298f, -0.156307f, 0.117514f, 0.021718f, 0.070042f, 0.048098f, -0.040768f, 0.093694f, 0.064528f, -0.290376f, -0.005451f, 0.080298f, 0.011933f, -0.186242f, 0.190432f, -0.090409f, -0.153085f, -0.198680f, -0.073151f, -0.039983f, -0.005644f, 0.035977f, 0.238479f, -0.002762f, -0.066597f, -0.009101f, -0.117039f, -0.058922f, 0.019079f, -0.101740f, -0.113946f, 0.075871f, -0.227259f, 0.191623f, -0.063957f, 0.242553f, -0.166271f, 0.145597f, 0.069553f, -0.165468f, 0.036401f, -0.206435f, -0.115819f, -0.129166f, 0.075053f, -0.147216f, -0.146655f, -0.124604f, 0.041135f, 0.108553f, 0.068984f, 0.231351f, -0.070161f, 0.086012f, -0.190394f, -0.075781f, 0.070010f, 0.073737f, 0.136422f, -0.181066f, -0.134189f, -0.218935f, 0.116571f, 0.184560f, 0.065724f, 0.223014f, -0.029039f, -0.111010f, 0.066978f, 0.152614f, -0.248623f, -0.178901f, 0.207972f, -0.210170f, 0.127439f, -0.156779f, 0.032432f, -0.000899f, -0.248300f, -0.060261f, -0.183877f, -0.205351f, -0.000223f, -0.226580f, -0.156016f, 0.082006f, 0.203262f, 0.040534f, 0.204121f, -0.200831f, -0.042737f, 0.255962f, -0.163817f, -0.078575f, -0.012030f, -0.156176f, 0.109374f, -0.131486f, 0.211743f, -0.011650f, -0.118888f, -0.201979f, -0.106266f, -0.200956f, -0.154846f, -0.164258f, -0.237436f, -0.035650f, -0.140360f, -0.120182f, 0.201876f, -0.229898f, 0.035534f, 0.014071f, 0.232312f, -0.228664f, -0.075046f, 0.061285f, -0.035123f, -0.191994f, -0.213062f, -0.125273f, -0.074581f, -0.076319f, -0.201228f, 0.218659f, 0.208764f, -0.035859f, 0.173502f, 0.219131f, 0.072969f, -0.122785f, 0.026269f, 0.059940f, -0.143442f, -0.108820f, -0.227186f, -0.227584f, 0.158897f, -0.112634f, -0.080377f, 0.110911f, 0.084022f, 0.196393f, 0.229654f, 0.074006f, -0.027849f, 0.026068f, -0.249380f, 0.241465f, 0.202343f, -0.229189f, -0.129060f, 0.171480f, -0.015183f, -0.177348f, 0.056192f, 0.093248f, 0.124425f, 0.188982f, -0.159988f, 0.076083f, 0.210693f, 0.198524f, 0.070550f, -0.090227f, 0.171973f, -0.175250f, -0.000625f, -0.142274f, -0.182409f, 0.141522f, 0.174529f, -0.075303f, 0.115049f, -0.157838f, 0.186020f, 0.044362f, 0.023210f, -0.067727f, -0.237607f, -0.241579f, 0.044351f, 0.034073f, 0.096871f, 0.215412f, -0.073588f, -0.041027f, 0.072282f, -0.087072f, -0.146322f, 0.182919f, 0.074393f, -0.147557f, -0.166550f, -0.088563f, 0.016114f, -0.167102f, -0.058057f, -0.038350f, -0.176184f, 0.211791f, 0.019661f, 0.146586f, -0.153682f, 0.187076f, -0.015266f, 0.006147f, -0.059530f, 0.128391f, -0.090916f, -0.093627f, 0.012702f, 0.025906f, 0.119334f, 0.073963f, -0.182496f, 0.154783f, -0.133545f, 0.074683f, 0.096514f, -0.009149f, 0.119191f, -0.160313f, -0.131121f, -0.149400f, 0.217591f, -0.012315f, -0.100060f, 0.027885f, -0.177934f, -0.268822f, 0.026486f, 0.114549f, 0.040127f, -0.127683f, -0.149165f, -0.198218f, 0.171461f, -0.170213f, 0.140404f, 0.176746f, -0.249806f, 0.058377f, -0.214656f, -0.156368f, -0.159354f, 0.201595f, -0.185339f, 0.193168f, 0.152408f, -0.082191f, 0.246693f, -0.040693f, -0.093159f, -0.025819f, -0.240672f, -0.077614f, -0.210114f, -0.177026f, -0.037180f, -0.181153f, -0.116327f, 0.181097f, 0.175373f, -0.229323f, -0.058274f, 0.146505f, 0.084357f, -0.237965f, -0.201646f, 0.035089f, 0.008171f, 0.061818f, -0.021700f, 0.154352f, -0.008802f, -0.240380f, 0.263092f, -0.058450f, 0.258378f, 0.023125f, 0.222406f, 0.087548f, -0.138306f, 0.124752f, -0.073687f, 0.157496f, -0.135994f, 0.041400f, -0.080375f, -0.151711f, -0.070665f, -0.103252f, -0.059768f, 0.102774f, -0.269149f, -0.024236f, 0.062661f, -0.157242f, 0.205232f, -0.103577f, -0.056981f, -0.043126f, 0.144344f, 0.243871f, 0.015442f, -0.159923f, -0.046878f, -0.052601f, 0.111368f, 0.182934f, 0.087959f, -0.030552f, -0.102662f, 0.149562f, -0.134257f, 0.238033f, -0.148413f, -0.081383f, -0.125894f, 0.240955f, -0.189447f, 0.180030f, 0.136254f, 0.012434f, -0.167876f, 0.173727f, 0.102104f, -0.209792f, -0.116239f, 0.220442f, -0.013332f, -0.040062f, -0.139900f, -0.088107f, 0.155613f, 0.190195f, -0.236031f, 0.040791f, 0.195312f, -0.094911f, 0.210527f, 0.246420f, 0.063484f, -0.056899f, 0.130877f, -0.008911f, 0.147562f, 0.164477f, -0.057072f, -0.073532f, 0.056444f, 0.064829f, 0.180115f, -0.126020f, -0.115590f, 0.061345f, -0.195936f, 0.168320f, -0.111129f, 0.217494f, -0.242307f, 0.121139f, 0.112957f, 0.227487f, 0.223433f, 0.227896f, 0.097309f, 0.015511f, 0.228594f, 0.038940f, 0.051628f, -0.015531f, 0.229144f, 0.069645f, -0.228446f, 0.182709f, 0.155955f, 0.231261f, -0.179344f, -0.143358f, -0.012720f, 0.019032f, -0.208210f, 0.160661f, 0.167862f, -0.193342f, 0.042326f, -0.016717f, 0.070239f, 0.048041f, -0.209758f, 0.208961f, -0.097274f, -0.108802f, 0.034776f, 0.235117f, -0.098147f, -0.108692f, -0.008562f, -0.232675f, -0.348883f, 0.154488f, -0.137030f, 0.104419f, 0.091476f, -0.088455f, 0.009210f, -0.177209f, 0.245107f, 0.087090f, 0.093480f, 0.000460f, -0.087732f, 0.029166f, -0.181710f, -0.003630f, -0.107573f, 0.175761f, -0.207777f, 0.126413f, -0.110786f, 0.091802f, -0.040904f, -0.025258f, -0.030918f, -0.130211f, -0.129702f, 0.029980f, 0.129710f, -0.034985f, -0.022288f, -0.068765f, -0.076330f, 0.208844f, 0.165256f, 0.064710f, 0.208021f, 0.040547f, 0.045348f, 0.213922f, 0.195333f, -0.106685f, -0.224255f, 0.018092f, 0.116709f, -0.036064f, -0.225258f, -0.222545f, -0.211413f, 0.133480f, 0.045165f, 0.098893f, -0.013965f, 0.168306f, -0.109487f, 0.142969f, -0.203126f, 0.208185f, 0.091614f, 0.043353f, -0.213729f, -0.224402f, -0.766427f, -0.170940f, -0.393496f, 0.323822f, 0.124646f, -0.760913f, 0.088751f, 0.097448f, 0.189711f, 0.160787f, 0.079629f, 0.045507f, -1.174055f, -1.349225f, -0.267190f, 0.191773f, -0.181605f, -1.512002f, 0.058102f, -0.009879f, 0.084180f, -0.989389f, 0.351252f, -0.046352f, -0.275597f, -0.376188f, 0.081850f, 0.098365f, 0.125282f, 0.250164f, 0.233045f, 0.100663f, -0.042173f, 0.247541f, -0.069737f, -0.059655f, -0.032135f, -0.063640f, -0.126060f, 0.211741f, -0.177340f, -0.016463f, -0.083665f, -0.130245f, 0.236870f, 0.041612f, 0.236782f, 0.064301f, -0.046746f, 0.080937f, 0.039511f, 0.154289f, 0.195733f, -0.124221f, 0.121244f, -0.032451f, 0.109053f, 0.080671f, 0.153957f, -0.249218f, -0.177133f, -0.170159f, -0.109748f, 0.031866f, -0.205227f, -0.186733f, 0.136899f, -0.136615f, 0.200679f, -0.080699f, 0.146443f, -0.010512f, 0.196228f, -0.066568f, -0.246347f, 0.004122f, 0.039565f, -0.175433f, 0.039556f, 0.207578f, -0.240003f, -0.025852f, 0.189400f, 0.149262f, -0.056438f, 0.085108f, -0.026222f, -0.061999f, 0.133345f, 0.016982f, 0.159394f, 0.031131f, -0.048977f, -0.016346f, 0.187485f, 0.072568f, -0.428537f, -0.116088f, -0.061461f, 0.182007f, 0.109286f, -0.664112f, 0.031056f, 0.098293f, 0.237439f, -0.027565f, 0.181509f, 0.115080f, 0.152077f, -0.150289f, -0.150113f, 0.061947f, -0.164254f, 0.152683f, 0.193154f, -0.022524f, 0.227421f, 0.185789f, -0.063229f, -0.072410f, -0.719774f, -0.022039f, 0.181842f, -0.084256f, 0.080562f, 0.002536f, 0.073815f, -0.605705f, -0.687858f, -0.423650f, -0.015375f, -0.197158f, 0.172032f, 0.155878f, 0.152280f, 0.222564f, 0.205129f, 0.023933f, 0.003160f, 0.054119f, 0.034153f, 0.160121f, -0.250187f, 0.265464f, -0.693206f, 0.114970f, 0.005675f, 0.019726f, 0.113416f, -1.438989f, -0.012195f, -0.303927f, -0.342520f, -0.848272f, 0.275906f, 0.177939f, 0.196907f, -0.397729f, 0.173605f, -0.239890f, -0.055126f, -0.069026f, -0.076248f, -0.027389f, -0.099086f, 0.146503f, 0.138717f, 0.098680f, -0.222619f, -0.050481f, -0.070907f, -0.219198f, -0.009657f, -0.076949f, 0.080964f, 0.162637f, 0.185331f, 0.139821f, 0.216738f, -0.072099f, 0.067839f, 0.044899f, 0.175052f, -0.039862f, -0.249264f, -0.085702f, 0.001251f, 0.199702f, 0.006885f, -0.092407f, -0.189281f, -0.463697f, -0.790886f, -0.023447f, -0.014409f, 0.000112f, 0.077321f, -0.971098f, 0.142408f, 0.030000f, 0.056773f, -0.115552f, 0.031998f, 0.135278f, -1.146249f, 0.261449f, -0.077853f, 0.059952f, -0.179637f, -0.057956f, 0.077004f, -0.019974f, 0.194335f, 0.095640f, -0.077075f, -0.157455f, 0.154684f, -0.010805f, 0.160088f, 0.176840f, 0.136799f, 0.000045f, -0.101115f, -0.208189f, -0.065875f, 0.153188f, -0.037716f, 0.223467f, -0.056177f, -0.357038f, 0.085773f, -0.146122f, -0.102228f, 0.099779f, -0.020015f, 0.204806f, -0.185809f, -0.388517f, -0.157054f, 0.209516f, 0.121486f, -0.542685f, -0.101404f, 0.030076f, -0.128677f, 0.169934f, -0.094677f, 0.024048f, -0.274882f, -0.153589f, 0.012746f, 0.111284f, 0.034051f, -0.425650f, -0.005799f, -0.033823f, 0.117272f, 0.143039f, 0.206085f, -0.249744f, 0.205362f, -0.128345f, -0.121179f, -0.182847f, 0.207788f, 0.142802f, 0.156527f, -0.012973f, 0.188085f, -0.123565f, 0.203251f, -0.081831f, -0.135554f, 0.195285f, -0.057403f, -0.141218f, -0.038616f, -0.072432f, -0.241743f, -0.244686f, 0.156766f, 0.052614f, -0.067764f, 0.147917f, -0.121425f, -0.170756f, 0.111013f };
static const float mynet_layer_2_biases[1] = { 0.303805f };
static const float mynet_layer_2_weights[32] = { 0.184858f, 0.530303f, -0.197959f, -0.281530f, 0.065712f, -0.214303f, 0.302847f, 0.311928f, -0.061612f, 0.161046f, 0.105479f, -0.061127f, -0.223032f, 0.369014f, 0.172315f, 0.245374f, -0.260281f, 0.805045f, 0.177474f, -0.215908f, -0.031862f, 0.218259f, 0.209212f, 0.131410f, -0.172489f, 0.120455f, -0.055042f, 0.172210f, 0.089825f, -0.124967f, 0.077105f, 0.172543f };
static float mynet_buf1[64];
static float mynet_buf2[64];
static const EmlNetLayer mynet_layers[3] = { 
{ 64, 8, mynet_layer_0_weights, mynet_layer_0_biases, EmlNetActivationRelu }, 
{ 32, 64, mynet_layer_1_weights, mynet_layer_1_biases, EmlNetActivationRelu }, 
{ 1, 32, mynet_layer_2_weights, mynet_layer_2_biases, EmlNetActivationIdentity } };
static EmlNet mynet = { 3, mynet_layers, mynet_buf1, mynet_buf2, 64 };

    int32_t
    mynet_predict(const float *features, int32_t n_features)
    {
        return eml_net_predict(&mynet, features, n_features);
    }
    

    int32_t
    mynet_regress(const float *features, int32_t n_features, float *out, int32_t out_length)
    {
        return eml_net_regress(&mynet, features, n_features, out, out_length);
    }
    

    float
    mynet_regress1(const float *features, int32_t n_features)
    {
        return eml_net_regress1(&mynet, features, n_features);
    }
    